tree
version=v3
num_class=1
num_tree_per_iteration=1
label_index=0
max_feature_idx=35
objective=regression
feature_names=Column_0 Column_1 Column_2 Column_3 Column_4 Column_5 Column_6 Column_7 Column_8 Column_9 Column_10 Column_11 Column_12 Column_13 Column_14 Column_15 Column_16 Column_17 Column_18 Column_19 Column_20 Column_21 Column_22 Column_23 Column_24 Column_25 Column_26 Column_27 Column_28 Column_29 Column_30 Column_31 Column_32 Column_33 Column_34 Column_35
feature_infos=[2:503] [1:6] [0:23] [0:23] [1:7] [1:7] [0:1] [0:1] [-1:1] [-0.9999533615201901:0.99999998260297063] [-1:1] [-0.99994968893201741:0.9997533958313618] [30:475] [51.267111750103048:101.78029538623399] [51.60980634736309:101.98591214459002] [300:2500] [1.3540000000000001:1.5888157894736843] [0:89.816666666666663] [0:903.26635514018687] [54.372712356915649:1138.0554989293762] [0.20888121334754814:0.29239885472489185] [12.900506118534707:14.178571428571429] [-0.17490679824596808:-0.030477997979942554] [-0.058044791479289357:0.079943788802954982] [1.7531350890851387:4.0777385159010597] [1.0313199105145414:1.8271276595744681] [12.292936855662163:14.009596677452848] [-0.34791470352025644:-0.071562156261160179] [-0.00018499130811489711:0.077529824421025684] [0.18077169761751849:0.26615551923894282] [103.62561587174432:244.46882254211138] [9162.9349492232504:15386.599851150248] [1.2314575194355701:1.7162184184971254] [24.095732446518237:35.479002013320468] [152.87779866978451:451.71227330708223] [876.75:15426]
tree_sizes=2547 2677 2680 2687 2598 2690 2531 2693 2685 2691 2704 2699 2697 2709 2709 2713 2634 2708 2707 2722 2703 2715 2711 2733 2709 2631 2713 2717 2731 2633 2659 2647 2648 2737 2647 2751 2753 2661 2659 2731 2742 2580 2744 2762 2760 2764 2754 2587 2755 2769 2776 2602 2679 2769 2768 2779 2776 2697 2693 2782 2774 2697 2708 2788 2785 2779 2795 2782 2795 2788 2789 2797 2800 2783 2713 2789 2798 2806 2711 2814 2804 2808 2787 2817 2632 2712 2811 2815 2726 2807 2708 2811 2824 2818 2739 2805 2811 2821 2816 2816

Tree=0
num_leaves=30
num_cat=0
split_feature=0 35 25 35 19 25 12 0 12 12 12 12 24 1 0 30 16 25 19 1 35 18 35 12 1 19 21 0 8
split_gain=147.768 59.962 39.0765 27.7496 19.6394 19.491 17.2875 15.6917 10.0603 8.78771 8.43069 7.13617 5.93984 5.36854 4.61851 4.07321 3.63199 3.10362 3.00885 2.61608 2.0111 1.96798 1.62114 1.48501 1.4019 1.25285 1.13971 1.07838 0.970451
threshold=35.500000000000007 3629.5000000000005 1.1413128394633072 3845.0333333333338 271.7209905052311 1.4192253020611232 81.500000000000014 10.500000000000002 65.500000000000014 79.500000000000014 74.500000000000014 74.500000000000014 2.7526166870279902 4.5000000000000009 106.50000000000001 197.38133188959287 1.4585622710622712 1.4914789972363298 299.95516295522299 2.5000000000000004 6017.1250000000009 247.41595607235146 4890.8000000000011 173.50000000000003 2.5000000000000004 232.84540011949818 13.531151690106396 5.5000000000000009 0.25881904510247467
decision_type=2 2 2 2 2 2 2 2 2 2 2 2 2 2 2 2 2 2 2 2 2 2 2 2 2 2 2 2 2
left_child=2 6 -1 8 14 -6 12 11 -4 -9 -7 -5 -2 17 25 23 -10 26 24 -16 -11 28 -21 -12 -13 -3 -8 -26 -18
right_child=1 4 3 7 5 10 13 9 16 20 15 18 -14 -15 19 -17 21 -19 -20 22 -22 -23 -24 -25 27 -27 -28 -29 -30
leaf_value=-2.1801831920425001 -2.1115072613301278 -2.0530784959595731 -2.1592312144401333 -2.1351900612005421 -2.1169626711541998 -2.0903405329579745 -2.0988623374235802 -2.1119932867005282 -2.140119562496551 -2.0867878323082198 -2.0578846329244378 -2.1148630107578921 -2.1480649526285531 -2.0744228275361061 -2.0560581635216773 -2.0737246042917072 -2.1101002682580861 -2.0815996438319386 -2.1256054426544737 -2.0463002462532689 -2.0690951717404014 -2.1330715332641197 -2.0301868196520623 -2.0402802278236969 -2.1053085828287394 -2.0698013523423016 -2.1137626909785228 -2.090676760231942 -2.1233984092361697
leaf_weight=25 25 21 29 35 24 28 33 29 33 36 25 22 20 34 25 27 34 20 21 27 29 22 37 23 34 24 21 20 23
leaf_count=25 25 21 29 35 24 28 33 29 33 36 25 22 20 34 25 27 34 20 21 27 29 22 37 23 34 24 21 20 23
internal_value=0 0.416644 -0.440027 -0.357623 0.708027 0.426257 -0.0804199 -0.140427 -0.705751 0.171824 0.615361 -0.362788 -0.601166 0.136558 0.975077 0.790169 -0.56983 -0.0145684 -0.223121 1.10709 0.376052 -0.453443 1.21424 0.964952 -0.130541 0.713989 -0.139202 -0.0438517 -0.355388
internal_weight=0 414 392 367 261 127 153 226 141 94 103 132 45 108 134 75 112 74 97 89 65 79 64 48 76 45 54 54 57
internal_count=806 414 392 367 261 127 153 226 141 94 103 132 45 108 134 75 112 74 97 89 65 79 64 48 76 45 54 54 57
shrinkage=1


Tree=1
num_leaves=31
num_cat=0
split_feature=0 35 25 35 19 25 12 0 12 12 30 12 24 0 1 12 24 25 19 26 20 25 35 0 1 27 12 2 21 0
split_gain=133.361 54.1157 35.2665 25.044 17.7588 16.9518 15.602 14.1618 9.07947 7.93091 7.50591 6.44039 5.36071 5.21735 4.84511 3.58216 3.39833 2.80101 2.72816 2.59113 2.57465 1.99715 1.81502 1.61991 1.39338 1.37009 1.27227 1.12562 1.02858 0.82604
threshold=35.500000000000007 3629.5000000000005 1.1413128394633072 3845.0333333333338 274.08931764967286 1.4192253020611232 81.500000000000014 10.500000000000002 65.500000000000014 79.500000000000014 197.38133188959287 74.500000000000014 2.7526166870279902 95.500000000000014 4.5000000000000009 117.50000000000001 2.7544019618227114 1.4914789972363298 287.852744911353 13.543867104616824 0.25358521850353649 1.5077854419903181 6017.1250000000009 14.500000000000002 2.5000000000000004 -0.1356176640386941 119.50000000000001 10.500000000000002 13.531151690106396 5.5000000000000009
decision_type=2 2 2 2 2 2 2 2 2 2 2 2 2 2 2 2 2 2 2 2 2 2 2 2 2 2 2 2 2 2
left_child=2 6 -1 8 13 -6 12 11 -4 -9 15 -5 -2 27 17 -7 20 28 24 21 -10 26 -11 25 -13 -22 -15 -3 -8 -26
right_child=1 4 3 7 5 10 14 9 16 22 -12 18 -14 19 -16 -17 -18 -19 -20 -21 23 -23 -24 -25 29 -27 -28 -29 -30 -31
leaf_value=-0.078362067222595214 -0.013119933258742096 0.038428897003177559 -0.058457688884488469 -0.03561859285458923 -0.018302572270234428 0.024400905697118669 -0.001107255317214312 -0.013581656767376538 -0.0070369250699877737 0.010363524125164583 0.011741208912510622 -0.016307894745841624 -0.047849740087985995 0.042025993779301649 0.022110279535819941 0.050665753904510946 -0.045197229442142307 0.015292303934693337 -0.025222533370833845 0.035115701432805506 -0.041871361257064914 0.068932378143072126 0.027171552643693725 -0.01528647437458858 -0.0063644161387797328 -0.025219623247782392 0.056475315644190865 0.021653748080134393 -0.015262591484047117 0.006669042501598596
leaf_weight=25 25 20 29 35 24 21 33 29 20 36 38 22 20 25 34 34 21 20 24 20 21 20 29 20 31 30 39 20 21 20
leaf_count=25 25 20 29 35 24 21 33 29 20 36 38 22 20 25 34 34 21 20 24 20 21 20 29 20 31 30 39 20 21 20
internal_value=0 0.395812 -0.418026 -0.339742 0.672625 0.383241 -0.0763989 -0.133406 -0.670464 0.163233 0.576607 -0.344649 -0.571108 0.90775 0.12973 0.812747 -0.541339 -0.0138399 -0.211965 1.0258 -0.45766 1.10282 0.35725 -0.546934 -0.115805 -0.641524 1.01662 0.600826 -0.132242 -0.0250651
internal_weight=0 414 392 367 261 117 153 226 141 94 93 132 45 144 108 55 112 74 97 104 91 84 65 71 73 51 64 40 54 51
internal_count=806 414 392 367 261 117 153 226 141 94 93 132 45 144 108 55 112 74 97 104 91 84 65 71 73 51 64 40 54 51
shrinkage=0.05


Tree=2
num_leaves=31
num_cat=0
split_feature=0 35 25 35 19 25 12 0 12 12 12 12 24 24 1 0 0 0 16 25 30 24 18 1 17 12 35 19 21 8
split_gain=120.358 48.8394 31.8281 22.6022 16.0676 15.851 14.0925 13.0542 8.19422 7.53157 7.27746 5.84425 4.51072 4.47493 4.44276 3.77227 3.60665 3.33049 3.19346 2.55773 2.43498 1.70128 1.69587 1.55633 1.35236 1.32415 1.11354 1.07296 0.90192 0.845726
threshold=35.500000000000007 3629.5000000000005 1.1413128394633072 3845.0333333333338 271.7209905052311 1.4192253020611232 80.500000000000014 5.5000000000000009 65.500000000000014 55.500000000000007 74.500000000000014 73.500000000000014 2.269620116863281 2.7407589667982686 4.5000000000000009 106.50000000000001 87.000000000000014 17.500000000000004 1.4585622710622712 1.4914789972363298 198.83641108216548 2.4525299459110195 247.41595607235146 3.5000000000000004 28.83028359992646 139.00000000000003 5453.0000000000009 232.84540011949818 13.531151690106396 0.25881904510247467
decision_type=2 2 2 2 2 2 2 2 2 2 2 2 2 2 2 2 2 2 2 2 2 2 2 2 2 2 2 2 2 2
left_child=2 6 -1 8 15 -6 13 11 -4 -9 -7 -5 -11 -2 19 27 -12 24 -10 28 21 -17 29 -13 -14 -19 -18 -3 -8 -20
right_child=1 4 3 7 5 10 14 9 18 12 16 23 17 -15 -16 20 26 25 22 -21 -22 -23 -24 -25 -26 -27 -28 -29 -30 -31
leaf_value=-0.074443964242935187 -0.012956678234816841 0.040482927539518904 -0.055534803456273575 -0.04430531789972024 -0.017387444075817864 0.0059816518066717053 -0.0013203483389909653 -0.022216648070141676 -0.038776756439245108 0.029001682943531445 0.020347731068730356 -0.02308108240917877 0.0011490617816646894 -0.044980189132038509 0.021004765398581239 0.066807411882010379 0.034838548054297765 0.0042156283136295233 -0.010696374148349553 0.01452768879942596 0.038096467248196236 0.049335921673398273 -0.032048602469942788 -0.0068944212726571351 -0.0156361056631431 0.020839229062199593 0.04995669424533844 0.025007122863704961 -0.014499461633108912 -0.023110577593679016
leaf_weight=25 24 21 29 22 24 28 34 25 33 21 25 27 30 20 34 22 21 23 34 20 29 38 22 33 20 25 29 24 21 23
leaf_count=25 24 21 29 22 24 28 34 25 33 21 25 27 30 20 34 22 21 23 34 20 29 38 22 33 20 25 29 24 21 23
internal_value=0 0.376021 -0.397125 -0.322754 0.638994 0.384131 -0.0725789 -0.126736 -0.636941 0.0546263 0.554667 -0.445225 0.15945 -0.550256 0.120245 0.880543 0.717079 0.0693245 -0.514272 -0.0156871 0.999848 1.11484 -0.405137 -0.283568 -0.1113 0.257475 0.872141 0.644583 -0.127047 -0.314112
internal_weight=0 414 392 367 261 127 153 226 141 144 103 82 119 44 109 134 75 98 112 75 89 60 79 60 50 48 50 45 55 57
internal_count=806 414 392 367 261 127 153 226 141 144 103 82 119 44 109 134 75 98 112 75 89 60 79 60 50 48 50 45 55 57
shrinkage=0.05


Tree=3
num_leaves=31
num_cat=0
split_feature=0 35 25 35 19 25 19 0 30 12 30 0 0 12 12 12 12 24 12 13 17 12 0 34 35 28 1 1 12 12
split_gain=108.775 44.7418 26.382 20.2626 15.6026 20.4715 13.9162 10.0232 9.22816 6.52596 6.1455 5.36973 5.3679 5.27444 3.97451 3.62663 3.33859 3.33622 3.30157 2.83819 2.80787 2.36994 2.11153 1.93783 1.58512 1.54479 1.40459 1.28297 1.03523 0.871679
threshold=27.500000000000004 3629.5000000000005 1.1413128394633072 3845.0333333333338 274.08931764967286 1.4192253020611232 324.28440071523124 5.5000000000000009 210.48202762227683 65.500000000000014 197.38133188959287 117.50000000000001 95.500000000000014 73.500000000000014 99.000000000000014 55.500000000000007 119.50000000000001 2.6410261509470847 139.00000000000003 64.52939266406689 29.399627814088603 159.50000000000003 13.500000000000002 212.80561338059982 2292.5000000000005 0.017695303982811949 3.5000000000000004 3.5000000000000004 139.00000000000003 121.50000000000001
decision_type=2 2 2 2 2 2 2 2 2 2 2 2 2 2 2 2 2 2 2 2 2 2 2 2 2 2 2 2 2 2
left_child=2 6 -1 9 8 -6 11 13 12 -4 18 24 16 -5 -13 -9 -3 28 -7 -16 22 -12 -17 -14 -2 -19 -15 -26 -11 -25
right_child=1 4 3 7 5 10 -8 15 -10 17 21 14 23 26 19 20 -18 25 -20 -21 -22 -23 -24 29 27 -27 -28 -29 -30 -31
leaf_value=-0.073015596555626922 -0.016616449415284611 0.015052225914868442 -0.056402879804372787 -0.042090051748197188 -0.022779952255742891 0.024195189814781772 -0.034611930271550538 -0.017736566772218795 0.0067258992418646815 -0.026425625434002054 -0.0013150635929334731 -0.0055671976932155139 0.036271810620091854 -0.021927028397719067 0.033909736254385543 0.0034232577608366102 0.042018045329799254 -0.046482900095482671 0.047283412118752803 0.0095932787949485447 -0.0087895605219528074 0.022734449356794358 0.020791252640386424 0.047713951766490938 -0.0093833253313989756 -0.027667635865509511 -0.0065497003608580798 0.0079321475373581064 -0.012447190615865919 0.058785531148314474
leaf_weight=23 28 22 25 22 28 32 31 20 20 26 21 22 20 27 21 42 24 24 30 28 25 20 30 32 23 20 33 20 27 40
leaf_count=23 28 22 25 22 28 32 31 20 20 26 21 22 20 27 21 42 24 24 30 28 25 20 30 32 23 20 33 20 27 40
internal_value=0 0.316997 -0.425734 -0.351605 0.557771 0.302593 -0.0852215 -0.154885 0.769342 -0.672484 0.508703 0.0472963 0.861346 -0.422964 0.241757 0.032999 0.582427 -0.555069 0.707338 0.400292 0.112943 0.208328 0.213198 1.00081 -0.147165 -0.75861 -0.26939 -0.0265923 -0.386091 1.0773
internal_weight=0 462 344 321 289 131 173 199 158 122 103 142 138 82 71 117 46 97 62 49 97 41 72 92 71 44 60 43 53 72
internal_count=806 462 344 321 289 131 173 199 158 122 103 142 138 82 71 117 46 97 62 49 97 41 72 92 71 44 60 43 53 72
shrinkage=0.05


Tree=4
num_leaves=30
num_cat=0
split_feature=0 35 19 25 35 19 25 19 0 12 12 12 12 12 1 12 0 0 0 0 13 27 9 35 0 35 1 21 20
split_gain=98.623 39.908 26.4852 15.2299 15.0237 13.1189 12.827 12.1881 8.13252 5.92207 5.21969 5.02355 4.47612 3.9303 3.20221 3.02414 2.80053 2.43386 2.1 1.95662 1.80959 1.55684 1.51926 1.37299 1.26214 1.06469 0.730968 0.624119 0.354809
threshold=35.500000000000007 3629.5000000000005 324.28440071523124 1.4517920656020409 3856.8333333333339 271.7209905052311 1.4053502550703001 332.30130831184135 10.500000000000002 74.500000000000014 79.500000000000014 65.500000000000014 146.50000000000003 61.000000000000007 2.5000000000000004 148.50000000000003 87.000000000000014 97.500000000000014 148.50000000000003 22.500000000000004 62.918728056944651 -0.13676585582065812 0.49640628138159076 5453.0000000000009 4.5000000000000009 4890.8000000000011 3.5000000000000004 13.474185535115295 0.25710523858326412
decision_type=2 2 2 2 2 2 2 2 2 2 2 2 2 2 2 2 2 2 2 2 2 2 2 2 2 2 2 2 2
left_child=2 7 4 15 11 14 -7 12 13 -8 -10 -1 18 -6 -3 -4 -11 -16 -2 21 -14 -13 -12 -18 -15 -19 -26 -23 -27
right_child=1 5 3 -5 8 6 9 -9 10 16 22 19 20 24 17 -17 23 25 -20 -21 -22 27 -24 -25 26 28 -28 -29 -30
leaf_value=-0.045279674744233493 -0.014168395683395141 0.026818324181118181 -0.075030288455032179 -0.018814729906332036 -0.031003950033336881 -0.017324574039825662 0.004972221502768142 -0.033742346424885376 -0.0091900499654002498 0.018071905955672263 0.025524644670782217 -0.032873186974653176 0.026091983243823055 -0.013941943138728248 0.03280248106006653 -0.04992992590580668 0.029312975996214415 0.042228999654097217 0.0029694546533461947 -0.0066061561069959271 0.0071379070252399236 -0.012348612758796663 0.0083211613907700488 0.045671423293393236 -0.0069411737009369093 0.059650500863790513 0.0048553055142595749 -0.024151671988268696 0.050232319086790093
leaf_weight=24 33 35 21 39 20 22 28 27 24 25 33 28 20 34 31 28 23 28 39 22 34 24 21 29 29 20 24 21 20
leaf_count=24 33 35 21 39 20 22 28 27 24 25 33 28 20 34 31 28 23 28 39 22 34 24 21 29 29 20 24 21 20
internal_value=0 0.34038 -0.359483 -0.842602 -0.219633 0.578095 0.347803 -0.0651324 -0.0413379 0.493274 0.20423 -0.496815 0.0655207 -0.22035 0.796356 -1.21374 0.636485 0.888272 -0.0977079 -0.393545 0.283159 -0.472329 0.376688 0.768719 -0.128458 0.994138 -0.0319874 -0.357134 1.09883
internal_weight=0 414 392 88 304 261 127 153 185 105 78 119 126 107 134 49 77 99 72 95 54 73 54 52 87 68 53 45 40
internal_count=806 414 392 88 304 261 127 153 185 105 78 119 126 107 134 49 77 99 72 95 54 73 54 52 87 68 53 45 40
shrinkage=0.05


Tree=5
num_leaves=31
num_cat=0
split_feature=0 35 25 35 12 12 24 30 0 0 12 0 1 12 24 24 24 0 17 24 0 19 28 25 1 18 12 29 35 29
split_gain=89.0314 36.3706 22.1048 16.8551 13.7005 11.9238 11.5636 10.7438 8.4157 5.84986 5.41412 5.1121 4.75846 4.54328 4.2622 3.32496 2.8955 2.74001 2.13972 2.03374 1.82796 1.69081 1.40703 1.35092 1.32452 1.26309 0.908097 0.612274 0.586829 0.322346
threshold=27.500000000000004 3629.5000000000005 1.1413128394633072 3845.0333333333338 73.500000000000014 80.500000000000014 3.4928308488862858 214.34280386805679 5.5000000000000009 183.50000000000003 65.500000000000014 95.500000000000014 4.5000000000000009 74.500000000000014 2.7716948648305437 2.1800048397656453 2.6410261509470847 17.500000000000004 29.066142191142195 2.3813661126053116 117.50000000000001 258.38050479625093 0.017695303982811949 1.4720565209193532 3.5000000000000004 220.78784937888202 139.00000000000003 0.25127027375860173 2872.8333333333335 0.24393442494592701
decision_type=2 2 2 2 2 2 2 2 2 2 2 2 2 2 2 2 2 2 2 2 2 2 2 2 2 2 2 2 2 2
left_child=2 5 -1 10 9 14 7 11 13 -3 -4 23 20 -5 -2 -10 26 18 -17 -13 28 -22 -18 -6 -15 -21 -12 29 -7 -27
right_child=1 4 3 8 6 12 -8 -9 15 -11 16 19 -14 24 -16 17 22 -19 -20 25 21 -23 -24 -25 -26 27 -28 -29 -30 -31
leaf_value=-0.066608557493790341 -0.012383574420320136 -0.010353482235223055 -0.051246107965707777 -0.038026679863991303 0.020824467068588412 -0.014883881809973075 -0.0038316992958160965 0.0020402582767217055 0.02027612219564617 0.021711408503353596 -0.023949483500865218 0.057838561871777411 0.019680371162960203 -0.019984256441670439 -0.04260490916669369 -0.0015375028341645149 -0.042794267740100624 0.0093251486411592109 -0.020866796746850016 0.033360643667930907 0.014288687075410658 -0.00513842414532389 -0.024837546572089197 0.035102240306635696 -0.0049470129117253243 0.044327189773321153 -0.010857498411227157 0.03846499412542298 -0.0033352822361683307 0.053097786280241879
leaf_weight=23 28 33 25 23 37 22 22 23 20 25 26 23 36 27 20 41 24 34 22 33 24 21 20 30 32 20 27 21 22 22
leaf_count=23 28 33 25 23 37 22 22 23 20 25 26 23 36 27 20 41 24 34 22 33 24 21 20 30 32 20 27 21 22 22
internal_value=0 0.286789 -0.385164 -0.31731 0.503873 -0.0758549 0.612974 0.685564 -0.137892 0.0693518 -0.609968 0.765293 0.0868309 -0.383535 -0.499516 0.0342684 -0.503021 -0.0422788 -0.165748 0.889689 -0.0372584 0.104454 -0.692642 0.54435 -0.236569 0.8257 -0.3456 0.908717 -0.182192 0.978426
internal_weight=0 462 344 321 289 173 231 209 199 58 122 186 125 82 48 117 97 97 63 119 89 45 44 67 59 96 53 63 44 42
internal_count=806 462 344 321 289 173 231 209 199 58 122 186 125 82 48 117 97 97 63 119 89 45 44 67 59 96 53 63 44 42
shrinkage=0.05


Tree=6
num_leaves=29
num_cat=0
split_feature=0 35 19 25 35 19 25 19 0 1 12 12 1 0 12 12 12 28 12 30 12 0 27 9 34 1 0 17
split_gain=80.6584 32.5865 22.2842 12.9927 12.2577 11.0064 10.6563 10.6179 6.6338 5.67908 4.44315 4.09926 3.97974 3.49885 3.39223 2.64082 2.28974 2.19536 2.11086 2.0499 1.65752 1.64768 1.37211 1.30002 1.19712 1.13837 0.868897 0.557057
threshold=35.500000000000007 3629.5000000000005 324.28440071523124 1.4517920656020409 3856.8333333333339 273.16524694292735 1.4192253020611232 332.30130831184135 10.500000000000002 2.5000000000000004 79.500000000000014 65.500000000000014 4.5000000000000009 106.50000000000001 61.000000000000007 149.50000000000003 146.50000000000003 0.010272701823084764 117.50000000000001 198.83641108216548 119.50000000000001 22.500000000000004 -0.13676585582065812 0.49640628138159076 269.59461957490504 2.5000000000000004 4.5000000000000009 28.513132183908048
decision_type=2 2 2 2 2 2 2 2 2 2 2 2 2 2 2 2 2 2 2 2 2 2 2 2 2 2 2 2
left_child=2 7 4 15 11 13 -7 12 14 -8 -10 -1 16 20 -6 -4 24 -15 -11 -19 -3 22 -13 -12 -2 -16 -27 -24
right_child=1 5 3 -5 8 6 9 -9 10 18 23 21 -14 17 25 -17 -18 19 -20 -21 -22 -23 27 -25 -26 26 -28 -29
leaf_value=-0.040822466361957299 -0.0027245586917602591 0.013737705275416373 -0.068411643396724356 -0.016877473489596295 -0.028440380841493609 -0.014798269133704404 0.0056484023200799576 -0.031384739514302325 -0.008599303511437029 0.019969250515103343 0.023445369681399882 -0.030000048064227614 0.018722706885948296 0.050768678897135967 -0.014364383795047895 -0.045074667091722843 0.0073924658509592223 0.042313579278332847 0.038676444637148005 0.022247233023517766 0.03244809304717286 -0.0057000994301316422 -0.020878369854763153 0.0075315013616567561 -0.017824967152306012 -0.0098151751391758971 0.0026120828954914873 -0.0096829368034377708
leaf_weight=24 35 20 22 39 20 24 33 27 24 25 33 28 31 37 26 27 39 35 38 20 29 22 25 21 21 22 39 20
leaf_count=24 35 20 22 39 20 24 33 27 24 25 33 28 31 37 26 27 39 35 38 20 29 22 25 21 21 22 39 20
internal_value=0 0.307822 -0.325098 -0.768249 -0.196818 0.522627 0.300029 -0.0586094 -0.0357696 0.449028 0.186019 -0.447187 0.0633375 0.712072 -0.197448 -1.11105 -0.0381848 0.827035 0.625059 0.700335 0.496224 -0.353899 -0.426197 0.345133 -0.167744 -0.112077 -0.0373976 -0.318052
internal_weight=0 414 392 88 304 261 120 153 185 96 78 119 126 141 107 49 95 92 63 55 49 95 73 54 56 87 61 45
internal_count=806 414 392 88 304 261 120 153 185 96 78 119 126 141 107 49 95 92 63 55 49 95 73 54 56 87 61 45
shrinkage=0.05


Tree=7
num_leaves=31
num_cat=0
split_feature=0 35 25 35 12 25 24 30 19 0 0 12 1 19 0 12 24 17 12 0 17 33 12 30 16 19 18 34 12 2
split_gain=72.8696 29.5603 18.531 14.0461 11.7226 10.3654 9.37987 9.3791 9.03803 7.07339 4.82983 4.49202 4.46142 4.34128 4.0019 3.90587 2.92276 2.56507 2.36946 2.29421 1.76822 1.23869 1.18082 1.17093 1.03702 1.0167 0.787999 0.730358 0.510829 0.456086
threshold=27.500000000000004 3629.5000000000005 1.1413128394633072 3845.0333333333338 73.500000000000014 1.4409828910614528 3.4928308488862858 214.34280386805679 283.30908035103272 5.5000000000000009 183.50000000000003 65.500000000000014 4.5000000000000009 445.361938326641 166.50000000000003 74.500000000000014 2.1800048397656453 29.43225524475525 146.50000000000003 17.500000000000004 29.066142191142195 29.985546831264266 117.50000000000001 182.44683742474584 1.4645703885018517 215.27428303296753 226.4510416666667 245.63052674207654 149.50000000000003 8.5000000000000018
decision_type=2 2 2 2 2 2 2 2 2 2 2 2 2 2 2 2 2 2 2 2 2 2 2 2 2 2 2 2 2 2
left_child=2 5 -1 11 10 8 7 13 26 15 -3 -4 18 14 22 -5 -11 24 21 20 -18 -7 -6 -17 -13 -16 -2 -26 -27 -24
right_child=1 4 3 9 6 12 -8 -9 -10 16 -12 17 -14 -15 25 23 19 -19 -20 -21 -22 -23 29 -25 27 28 -28 -29 -30 -31
leaf_value=-0.060776684141677362 -0.01328027785445253 -0.0098969267568353447 -0.046572923339903358 -0.034864906719683307 0.021213205277919769 -0.00010646836377591604 -0.0032503675063542854 0.0009519582492825778 -0.047513830661773684 0.019168448513373734 0.019238593861460686 -0.027688297629356387 0.020773266343509452 0.012790621370077132 0.055735430419445044 -0.0041036934948351705 -0.0013367436644507618 -0.036602131538093094 0.0087291570699640688 0.00864342648864669 -0.018908095857213168 -0.017083585046401079 0.039846681533593012 -0.018242247764849003 -0.0094139975540700471 0.036442390385837783 0.00058728039963170894 -0.021490723941297758 0.046417965988318127 0.031062257828695389
leaf_weight=23 21 33 25 23 25 21 22 23 20 20 25 20 34 20 20 32 41 25 35 34 22 22 22 27 31 21 20 21 33 45
leaf_count=23 21 33 25 23 25 21 22 23 20 20 25 20 34 20 20 32 41 25 35 34 22 22 22 27 31 21 20 21 33 45
internal_value=0 0.259456 -0.348456 -0.286328 0.455164 -0.0674775 0.556082 0.62146 -0.399153 -0.122542 0.0532297 -0.553489 0.113167 0.695953 0.748982 -0.347744 0.0352925 -0.456074 -0.0186036 -0.0364759 -0.149455 -0.175849 0.60973 -0.211478 -0.360251 0.922106 -0.130312 -0.285823 0.850772 0.678934
internal_weight=0 462 344 321 289 173 231 209 61 199 58 122 112 186 166 82 117 97 78 97 63 43 92 59 72 74 41 52 54 67
internal_count=806 462 344 321 289 173 231 209 61 199 58 122 112 186 166 82 117 97 78 97 63 43 92 59 72 74 41 52 54 67
shrinkage=0.05


Tree=8
num_leaves=31
num_cat=0
split_feature=0 35 19 25 35 12 19 25 0 12 12 12 30 0 12 1 0 1 12 24 8 33 19 18 9 35 1 29 12 35
split_gain=66.029 26.6026 18.6017 11.0451 10.0695 9.54428 9.10872 9.32714 5.47412 4.14301 3.78674 3.68616 3.5917 3.14935 2.87601 2.74697 2.62454 2.59446 2.2937 1.92482 1.4727 1.44059 1.27096 1.21929 1.11449 1.0771 1.05762 0.891984 0.700363 0.676607
threshold=35.500000000000007 3629.5000000000005 324.28440071523124 1.4517920656020409 3845.0333333333338 81.500000000000014 271.7209905052311 1.4053502550703001 10.500000000000002 63.500000000000007 79.500000000000014 65.500000000000014 172.63000377712382 117.50000000000001 61.000000000000007 2.5000000000000004 85.500000000000014 4.5000000000000009 149.50000000000003 2.0866700288656412 0.86602540378440918 30.38866537056365 258.38050479625093 242.32314814814819 0.49640628138159076 5453.0000000000009 3.5000000000000004 0.24883393530465722 207.50000000000003 6365.5000000000009
decision_type=2 2 2 2 2 2 2 2 2 2 2 2 2 2 2 2 2 2 2 2 2 2 2 2 2 2 2 2 2 2
left_child=2 5 4 18 11 12 15 -8 14 -9 -10 -1 -2 28 -6 -3 -11 22 -4 -17 23 -21 -15 27 -12 -18 29 -13 -7 -16
right_child=1 6 3 -5 8 13 7 9 10 16 24 20 -14 17 26 19 25 -19 -20 21 -22 -23 -24 -25 -26 -27 -28 -29 -30 -31
leaf_value=-0.038354491532537283 -0.0093405155129730709 0.020683086613010215 -0.062738822214305406 -0.015095769428313735 -0.02609543178230524 -0.010623620990857792 -0.015567258110439236 0.0019913500330100459 -0.0077656020019203423 0.012553443401478804 0.021501436818278197 -0.014023663395124933 -0.037768168821930889 0.013482222067250405 -0.016998550714924933 0.050835990011692048 0.023879548457140725 0.027443879991769796 -0.040989630089865794 0.038897910062223678 -0.028019942967221143 0.025070118561627403 -0.0035841416940093039 -0.02044214855452689 0.0067668449311029354 0.037988449849428674 0.00052509896124193316 0.00041423033224418764 0.0020452361600473523 -0.004824436692520976
leaf_weight=23 25 35 22 39 20 24 22 24 25 26 33 23 20 24 21 20 24 20 27 48 20 31 20 30 21 31 43 20 20 25
leaf_count=23 25 35 22 39 20 24 22 24 25 26 33 23 20 24 21 20 24 20 27 48 20 31 20 30 21 31 43 20 20 25
internal_value=0 0.278511 -0.294142 -0.699025 -0.176939 -0.0525713 0.472594 0.280701 -0.0339786 0.404749 0.166459 -0.408634 -0.439501 0.108649 -0.17925 0.654463 0.512874 0.25024 -1.01509 0.739595 -0.319983 0.669436 0.114496 -0.254116 0.315426 0.636637 -0.102247 -0.146167 -0.097301 -0.207644
internal_weight=0 414 392 88 304 153 261 127 188 105 79 116 45 108 109 134 81 64 49 99 93 79 44 73 54 55 89 43 44 46
internal_count=806 414 392 88 304 153 261 127 188 105 79 116 45 108 109 134 81 64 49 99 93 79 44 73 54 55 89 43 44 46
shrinkage=0.05


Tree=9
num_leaves=31
num_cat=0
split_feature=0 35 25 35 12 19 30 19 25 0 0 0 16 30 1 12 0 8 13 24 21 12 35 0 25 19 17 2 33 12
split_gain=59.7666 23.9552 15.5802 11.587 10.512 9.30345 8.38471 7.23592 6.14907 6.02173 3.96761 3.93415 3.75481 3.42143 3.0048 2.84337 2.42287 2.22326 2.09439 1.94932 1.76698 1.74288 1.39483 1.31446 1.0568 0.951648 0.672793 0.554071 0.457811 0.445082
threshold=27.500000000000004 3876.6666666666674 1.1185889063044236 3845.0333333333338 73.500000000000014 324.28440071523124 214.34280386805679 329.85224818256222 1.4202362370472754 5.5000000000000009 117.50000000000001 183.50000000000003 1.4489113408521306 199.47101013936938 2.5000000000000004 55.500000000000007 166.50000000000003 0.8660254037844537 63.844003469546784 2.3561409156031172 13.363973481903901 84.500000000000014 2872.8333333333335 17.500000000000004 1.4685094033024504 254.12808270345423 28.811395369388482 8.5000000000000018 29.09054529387269 117.50000000000001
decision_type=2 2 2 2 2 2 2 2 2 2 2 2 2 2 2 2 2 2 2 2 2 2 2 2 2 2 2 2 2 2
left_child=2 5 -1 12 11 10 7 16 -9 13 22 -3 -4 21 -12 -11 27 20 -16 -17 -14 -5 29 26 -22 -18 -21 -6 -29 -2
right_child=1 4 3 9 6 -7 -8 8 -10 15 14 -13 17 -15 18 19 25 -19 -20 23 24 -23 -24 -25 -26 -27 -28 28 -30 -31
leaf_value=-0.058607495501637463 -0.01638379493462188 -0.0093356018377975993 -0.043940387192097585 -0.021385153400756064 0.034805272892117503 -0.026295954682582029 -0.0007224365961379731 -0.0085247467691078795 0.027774815474237713 -0.01516109482562613 -0.0048797946245897382 0.017269816695867728 -0.0053652787157757722 -0.032453573248146669 0.029753599954502927 0.019038970931433141 0.04905615683112826 -0.036074156300164764 0.0095546345607462266 0.0016616115277564084 -0.030340423402578937 -0.0035187588080775761 0.0022899114353848358 0.0099235248623480068 -0.016619694912676803 0.036974287319641849 -0.010271119348527421 0.020146919427206741 0.029790196556132287 -0.0059616477368399506
leaf_weight=20 21 33 22 21 28 33 26 20 28 21 21 24 22 23 21 20 28 20 33 27 23 39 35 29 36 39 21 20 32 20
leaf_count=20 21 33 22 21 28 33 26 20 28 21 21 24 22 23 21 20 28 20 33 27 23 39 35 29 36 39 21 20 32 20
internal_value=0 0.234974 -0.315576 -0.262701 0.420227 -0.0449195 0.518983 0.590107 0.253 -0.114767 0.0601996 0.0373336 -0.504447 -0.321145 0.223374 0.0303981 0.700183 -0.422903 0.348196 0.102625 -0.349179 -0.19544 -0.100828 0.0303772 -0.439369 0.840469 -0.0711792 0.582693 0.521625 -0.225996
internal_weight=0 462 344 324 278 184 221 195 48 201 151 57 123 83 75 118 147 101 54 97 81 60 76 77 59 67 48 80 52 41
internal_count=806 462 344 324 278 184 221 195 48 201 151 57 123 83 75 118 147 101 54 97 81 60 76 77 59 67 48 80 52 41
shrinkage=0.05


Tree=10
num_leaves=31
num_cat=0
split_feature=0 35 19 25 35 12 19 25 0 1 21 12 30 12 1 0 8 12 28 30 19 12 25 1 1 2 0 22 23 8
split_gain=53.9745 21.7985 15.5876 9.29425 8.36065 8.30207 7.55158 7.62026 5.40776 4.64145 3.26469 3.12073 3.05768 2.83702 2.74122 2.66331 2.3567 2.16965 1.82166 1.80708 1.5387 1.51376 1.50494 0.975746 0.859926 0.783934 0.745316 0.59761 0.49573 0.43615
threshold=35.500000000000007 3629.5000000000005 324.28440071523124 1.454206666575369 4346.1000000000013 81.500000000000014 273.16524694292735 1.4192253020611232 12.500000000000002 2.5000000000000004 13.608710125083654 61.000000000000007 172.63000377712382 151.00000000000003 4.5000000000000009 95.500000000000014 0.8660254037844537 149.50000000000003 0.010272701823084764 202.25546578044245 177.65917665479557 173.50000000000003 1.4914789972363298 3.5000000000000004 4.5000000000000009 10.500000000000002 15.500000000000002 -0.10200768260220636 0.010285518881780363 -3.576773328337835e-14
decision_type=2 2 2 2 2 2 2 2 2 2 2 2 2 2 2 2 2 2 2 2 2 2 2 2 2 2 2 2 2 2
left_child=2 5 4 17 10 12 15 -8 11 -9 16 -6 -2 -10 22 25 20 -4 -17 29 -1 -11 28 27 26 -3 -22 -13 -7 -20
right_child=1 6 3 -5 8 14 7 9 13 21 -12 23 -14 -15 -16 18 -18 -19 19 -21 24 -23 -24 -25 -26 -27 -28 -29 -30 -31
leaf_value=0.0010268498819483362 -0.008780752750113606 0.025300993919372562 -0.057744660276644447 -0.013189265288804708 -0.02450634252279997 0.0013900116352098329 -0.013043974045043191 0.0032649792730808261 0.0041648297641788505 0.019700427508602542 -0.034753782093702328 -0.0012002052096206518 -0.035010106414556506 0.027651920849457386 0.016875382708659507 0.042191433984982346 -0.028750431528758436 -0.03676202744245529 0.038801166285639226 0.015913431094959379 -0.021457891889980863 0.035362011249418616 0.011440471233800055 0.0036838880500807943 -0.0054066163168855659 0.011301579019054771 -0.010017877557159712 -0.012749883470435939 -0.0084370309712760386 0.028705308213829994
leaf_weight=23 25 20 22 38 20 21 24 33 36 36 21 21 20 20 34 38 21 28 23 20 35 27 20 36 23 20 24 24 33 20
leaf_count=23 25 20 22 38 20 21 24 33 36 36 21 21 20 20 34 38 21 28 23 20 35 27 20 36 23 20 24 24 33 20
internal_value=0 0.251808 -0.26594 -0.636571 -0.158652 -0.0478928 0.427495 0.243113 0.00181706 0.369111 -0.330038 -0.136378 -0.408765 0.251062 0.10247 0.584415 -0.269198 -0.919888 0.670906 0.566604 -0.208036 0.528251 -0.00551955 -0.0490325 -0.272148 0.366026 -0.336087 -0.147201 -0.0923081 0.682108
internal_weight=0 414 392 88 304 153 261 120 157 96 147 101 45 56 108 141 126 50 101 63 105 63 74 81 82 40 59 45 54 43
internal_count=806 414 392 88 304 153 261 120 157 96 147 101 45 56 108 141 126 50 101 63 105 63 74 81 82 40 59 45 54 43
shrinkage=0.05


Tree=11
num_leaves=31
num_cat=0
split_feature=0 35 1 25 35 19 19 0 12 1 35 12 16 24 0 35 17 0 24 12 0 24 12 19 0 34 0 17 24 8
split_gain=48.9046 19.9481 14.3518 13.162 9.8889 6.75415 6.30678 5.81249 4.16622 4.12349 3.33835 3.18023 3.05636 2.9503 2.89201 2.65355 2.01009 1.97717 1.65689 1.54975 1.46576 1.40256 1.24284 1.15833 1.13007 0.970593 0.829634 0.710434 0.685877 0.585659
threshold=27.500000000000004 5956.2500000000009 4.5000000000000009 1.1185889063044236 3359.8000000000006 319.58210978200015 305.20388537343223 5.5000000000000009 86.500000000000014 2.5000000000000004 2880.8333333333339 65.500000000000014 1.4531980140186918 2.1800048397656453 97.500000000000014 2022.4333333333336 29.43225524475525 107.50000000000001 2.6613340955971965 61.000000000000007 166.50000000000003 2.7207496566724099 133.50000000000003 266.38416187672271 17.500000000000004 249.11494751856185 202.50000000000003 28.87906638546578 2.5726778094405875 -3.8708123562605175e-14
decision_type=2 2 2 2 2 2 2 2 2 2 2 2 2 2 2 2 2 2 2 2 2 2 2 2 2 2 2 2 2 2
left_child=3 2 6 -1 11 10 9 12 -8 22 -4 -5 -6 -9 18 -11 25 -17 -3 -15 -12 26 -2 -14 27 29 -16 -21 -19 -13
right_child=1 14 5 4 7 -7 8 13 -10 15 20 16 23 19 21 17 -18 28 -20 24 -22 -23 -24 -25 -26 -27 -28 -29 -30 -31
leaf_value=-0.053637989796698093 -0.012940701147223392 0.027361241890036542 0.0084545084933051844 -0.041095066790214997 -0.030169460382312538 -0.0020707280591263305 -0.035059027196395968 0.018446762826559798 -0.0063978286518249668 -0.0066742390940856674 0.024969715965645654 -0.004816811567261106 -0.0023884819540156365 -0.014608033733675259 0.031962646792332336 0.0042598517315354913 -0.032494364715302773 0.026376649320480373 0.0079358331238230072 0.0013114007015246898 0.040170250833034521 0.023955755648405658 9.5297856199921989e-05 -0.015777465992474132 0.0086595094731698446 -0.023481490697873676 0.044631292830620499 -0.01036052385726097 0.013743652476378801 -0.01677208882989362
leaf_weight=20 41 23 20 22 25 28 21 21 32 23 35 21 30 20 24 38 23 21 21 32 29 23 33 35 30 23 28 22 22 20
leaf_count=20 41 23 20 22 25 28 21 21 32 23 35 21 30 20 24 38 23 21 21 32 29 23 33 35 30 23 28 22 22 20
internal_value=0 0.212552 0.0901592 -0.285462 -0.236864 0.383926 -0.0522733 -0.112471 -0.355083 0.0378891 0.525707 -0.482226 -0.306245 0.0270464 0.565332 0.166276 -0.396331 0.251394 0.3618 -0.0419889 0.637149 0.684737 -0.142547 -0.191959 0.0175759 -0.305209 0.775685 -0.0688766 0.398265 -0.212973
internal_weight=0 462 343 344 324 112 231 215 53 178 84 109 90 125 119 104 87 81 44 104 64 75 74 65 84 64 52 54 43 41
internal_count=806 462 343 344 324 112 231 215 53 178 84 109 90 125 119 104 87 81 44 104 64 75 74 65 84 64 52 54 43 41
shrinkage=0.05


Tree=12
num_leaves=31
num_cat=0
split_feature=0 35 25 19 35 12 19 25 0 12 12 12 12 1 25 1 25 30 1 26 35 0 35 27 1 0 22 0 12 1
split_gain=44.356 15.9946 14.0597 12.5449 8.92743 6.97961 6.39938 6.84912 5.92588 3.54592 3.50948 2.79654 2.55436 2.37751 2.28776 2.59338 2.0906 1.78957 1.75759 1.51722 1.49105 1.37078 1.36067 1.19116 0.925144 0.789857 0.72008 0.70829 0.586359 0.577618
threshold=46.500000000000007 3629.5000000000005 1.1413128394633072 612.66959251369497 3856.8333333333339 81.500000000000014 273.16524694292735 1.4053502550703001 12.500000000000002 63.500000000000007 151.00000000000003 67.500000000000014 61.000000000000007 2.5000000000000004 1.4329129321382845 2.5000000000000004 1.4453280677301124 199.47101013936938 2.5000000000000004 13.37856021710151 2492.9333333333338 28.500000000000004 4890.8000000000011 -0.13676585582065812 4.5000000000000009 214.00000000000003 -0.11456628272673768 4.5000000000000009 229.00000000000003 3.5000000000000004
decision_type=2 2 2 2 2 2 2 2 2 2 2 2 2 2 2 2 2 2 2 2 2 2 2 2 2 2 2 2 2 2
left_child=2 5 -1 4 11 16 13 -8 12 -9 19 -4 -6 -3 -7 -16 -2 28 -14 -10 -17 23 24 -13 -15 -24 -20 -28 -11 -25
right_child=1 6 3 -5 8 14 7 9 10 17 -12 21 18 22 15 20 -18 -19 26 -21 -22 -23 25 29 -26 -27 27 -29 -30 -31
leaf_value=-0.046781338350130965 -0.030268164068693294 0.01669526798133221 -0.029753719475896407 -0.042402696408904518 -0.021336868390440942 -0.0068250969159775049 -0.013670224196870218 -0.0012398164719343186 0.0082845324121818345 0.023533776105166632 0.022616132436263744 -0.022601876881505764 -0.013285550211245814 0.018037052200683815 -0.0043827472875515618 0.0085972947434389182 -0.0074066498177126046 0.012073488863041769 0.0079151121858993308 -0.0085421017371118072 0.025581005009977772 -0.0016941947012167912 0.031724520567162288 -0.01637924973217126 0.032895483300089838 0.044131982715233518 -0.010115548872854561 0.0017426289936445434 0.034921293556690214 -0.0062736911173429223
leaf_weight=26 20 36 30 26 25 26 22 20 37 26 33 35 33 22 21 28 20 26 23 21 24 23 29 26 20 23 20 34 20 31
leaf_count=26 20 36 30 26 25 26 22 20 37 26 33 35 33 22 21 28 20 26 23 21 24 23 29 26 20 23 20 34 20 31
internal_value=0 0.246536 -0.223223 -0.176566 -0.129508 -0.0242184 0.400777 0.227837 -0.00525513 0.3477 0.191973 -0.323171 -0.138201 0.552431 0.118218 0.20894 -0.376748 0.451171 -0.0726249 0.0438426 0.328719 -0.252239 0.636122 -0.306828 0.50225 0.744249 0.0101262 -0.0529858 0.569697 -0.217665
internal_weight=0 383 423 397 371 139 244 114 226 92 91 145 135 130 99 73 40 72 110 58 52 115 94 92 42 52 77 54 46 57
internal_count=806 383 423 397 371 139 244 114 226 92 91 145 135 130 99 73 40 72 110 58 52 115 94 92 42 52 77 54 46 57
shrinkage=0.05


Tree=13
num_leaves=31
num_cat=0
split_feature=0 35 25 19 35 25 12 30 0 34 12 12 0 12 12 0 1 18 27 14 31 24 21 24 35 0 22 0 0 20
split_gain=40.0313 14.5016 12.6889 11.3217 8.05701 8.00095 5.82406 5.37203 5.3481 5.07129 3.1673 2.91285 2.59298 2.48144 2.30531 1.64389 1.58623 1.56678 1.47585 1.47348 1.43352 1.33509 1.19989 1.22163 0.876558 0.784856 0.649872 0.639232 0.506072 0.421448
threshold=46.500000000000007 3142.1333333333337 1.1413128394633072 612.66959251369497 3856.8333333333339 1.208932804745672 86.500000000000014 214.34280386805679 12.500000000000002 211.71860698113002 151.00000000000003 117.50000000000001 15.500000000000002 65.500000000000014 61.000000000000007 117.50000000000001 2.5000000000000004 219.5151315789474 -0.14109714884848101 84.268601466245599 13575.786817538848 2.6616857276715713 13.537964482930112 2.5579936570687836 2382.7250000000004 189.00000000000003 -0.11456628272673768 4.5000000000000009 193.50000000000003 0.25766215883737481
decision_type=2 2 2 2 2 2 2 2 2 2 2 2 2 2 2 2 2 2 2 2 2 2 2 2 2 2 2 2 2 2
left_child=2 6 -1 4 12 -3 -2 9 14 20 18 17 13 -4 -6 -8 -16 -11 -10 -17 -7 29 23 -15 -14 -19 -18 -28 -23 -13
right_child=1 5 3 -5 8 7 15 -9 10 11 -12 21 24 22 16 19 26 25 -20 -21 -22 28 -24 -25 -26 -27 27 -29 -30 -31
leaf_value=-0.044442270524226703 -0.019022311698771208 -0.01198170870076865 -0.035902014914900068 -0.040282561930899435 -0.020270024999976159 0.018165760717931249 -0.004743203286391994 -0.00052691864279600287 -0.0077563928440213207 0.0075661147253413222 0.021485325802231357 0.042827160766831157 -0.014434114210307597 -0.0025273811249505907 -0.012621272681280972 0.018473334700012438 0.0075193565500819171 0.017002792246639729 0.0085480977528329411 0.0022107794322073458 0.00027769212416994072 0.022757541430022184 -0.025533072538066495 -0.018251075021301709 -0.0010080236584819374 0.030291606485843659 -0.0096097716852091269 0.0016554975865052685 0.032464963287115095 0.033616708542989648
leaf_weight=26 37 20 20 26 25 21 30 26 23 20 33 27 20 21 33 26 23 20 35 30 24 29 23 30 31 25 20 34 25 23
leaf_count=26 37 20 20 26 25 21 30 26 23 20 33 27 20 21 33 26 23 20 35 30 24 29 23 30 31 25 20 34 25 23
internal_value=0 0.234209 -0.212061 -0.167738 -0.123033 0.368045 -0.0486978 0.418685 -0.00499237 0.470834 0.182374 0.55027 -0.307012 -0.405512 -0.131291 0.0940312 -0.0689937 0.384206 0.0416505 0.195225 0.172509 0.65406 -0.321045 -0.235532 -0.125463 0.487709 0.00961992 -0.0503365 0.545034 0.771807
internal_weight=0 383 423 397 371 260 123 240 226 214 91 169 145 94 135 86 110 65 58 56 45 104 74 51 51 45 77 54 54 50
internal_count=806 383 423 397 371 260 123 240 226 214 91 169 145 94 135 86 110 65 58 56 45 104 74 51 51 45 77 54 54 50
shrinkage=0.05


Tree=14
num_leaves=31
num_cat=0
split_feature=0 25 35 19 0 19 35 35 19 25 25 12 1 35 12 1 1 28 19 35 1 35 30 35 17 0 0 35 8 12
split_gain=36.3748 14.5048 11.808 11.7539 8.96259 5.44751 4.92632 4.73347 4.35799 3.90801 3.1148 2.86857 2.77032 2.99583 2.64352 2.2715 1.76396 1.76227 1.13224 0.989327 1.03937 0.906955 0.876498 0.86683 0.810741 0.776356 0.757479 0.655343 0.462649 0.24422
threshold=76.500000000000014 1.1413128394633072 3629.5000000000005 612.66959251369497 15.500000000000002 329.85224818256222 4391.9166666666679 3041.2500000000005 305.20388537343223 1.4202362370472754 1.5652746208758039 93.000000000000014 2.5000000000000004 7771.0000000000009 61.000000000000007 4.5000000000000009 2.5000000000000004 0.014600035429807954 245.45107204815963 1879.5000000000002 2.5000000000000004 4890.8000000000011 178.33232978342994 6017.1250000000009 28.731077643908971 7.5000000000000009 205.50000000000003 4862.3333333333348 1.0000000180025095e-35 133.50000000000003
decision_type=2 2 2 2 2 2 2 2 2 2 2 2 2 2 2 2 2 2 2 2 2 2 2 2 2 2 2 2 2 2
left_child=1 -1 5 4 7 15 24 17 12 -10 14 -8 13 -4 -9 19 -16 -3 -13 -2 -21 22 -14 -20 28 27 -23 -18 -6 -26
right_child=2 3 8 -5 6 -7 11 10 9 -11 -12 18 21 -15 16 -17 25 -19 23 20 -22 26 -24 -25 29 -27 -28 -29 -30 -31
leaf_value=-0.043009808800857641 -0.0075767065120010595 -0.030492745360243136 0.0017019217186000036 -0.037907765991985802 -0.013876334339595184 -0.022789753130858854 -0.0015003550964077779 -0.022119361404656958 -0.0086828284220592609 0.018193658539339116 0.012162256626761519 0.026381015951152553 0.030347753413345502 0.028161546215415001 -0.015166424625717543 0.019022205131857293 -0.010409696558731255 -0.014469345609934346 0.0047477425355464224 -0.0036168443029358367 0.010886557151873907 0.027890430661765015 0.016219180312362455 0.018481488916074373 -0.0036522208247333765 0.0047770732517043758 0.039071524356092728 0.00041503968604956755 -0.0037611724436283113 0.0041615521721541883
leaf_weight=29 23 32 23 28 26 21 30 30 21 38 20 22 23 20 34 23 29 37 20 21 30 33 21 27 20 30 28 27 20 20
leaf_count=29 23 32 23 28 26 21 30 30 21 38 20 22 23 20 34 23 29 37 20 21 30 33 21 27 20 30 28 27 20 20
internal_value=0 -0.174623 0.258442 -0.130637 -0.0891974 0.00598384 0.0760546 -0.217112 0.402356 0.172549 -0.127454 0.228147 0.493968 0.280174 -0.17688 0.105957 -0.110504 -0.43801 0.340388 0.0206429 0.0982914 0.581522 0.472091 0.252747 -0.0990283 -0.0342704 0.660455 -0.103813 -0.189569 0.00509331
internal_weight=0 481 325 452 424 118 185 239 207 59 170 99 148 43 150 97 120 69 69 74 51 105 44 47 86 86 61 56 46 40
internal_count=806 481 325 452 424 118 185 239 207 59 170 99 148 43 150 97 120 69 69 74 51 105 44 47 86 86 61 56 46 40
shrinkage=0.05


Tree=15
num_leaves=31
num_cat=0
split_feature=0 25 35 19 0 35 19 12 24 8 12 25 1 1 35 3 19 35 12 35 1 15 17 35 1 35 34 31 16 22
split_gain=32.8283 13.0906 10.6567 10.6079 8.1271 5.18729 4.91637 4.27565 3.95318 2.94414 2.88493 2.76034 2.31183 2.05003 1.92157 1.39539 1.31433 1.06693 1.05905 0.892868 0.938031 0.875829 0.798228 0.788019 0.775218 1.03091 0.733428 0.671492 0.375286 0.309698
threshold=76.500000000000014 1.1413128394633072 3629.5000000000005 612.66959251369497 14.500000000000002 4391.9166666666679 329.85224818256222 63.500000000000007 2.7336003930048745 0.86602540378443404 93.000000000000014 1.4562136480049788 2.5000000000000004 4.5000000000000009 3173.9000000000005 10.500000000000002 245.45107204815963 4382.5000000000009 278.50000000000006 1879.5000000000002 2.5000000000000004 994.00000000000011 28.713199186991872 6017.1250000000009 2.5000000000000004 2422.7500000000005 238.08698642387063 13728.49173474381 1.4730898557770218 -0.10619209380411916
decision_type=2 2 2 2 2 2 2 2 2 2 2 2 2 2 2 2 2 2 2 2 2 2 2 2 2 2 2 2 2 2
left_child=1 -1 6 4 7 24 13 15 12 14 -7 -10 -4 19 22 -3 -12 -14 21 -2 -21 29 -9 -18 -6 -26 -19 -23 -27 -16
right_child=2 3 8 -5 5 10 -8 9 11 -11 16 -13 17 -15 18 -17 23 26 -20 20 -22 27 -24 -25 25 28 -28 -29 -30 -31
leaf_value=-0.04085931716294125 -0.0071978711442131074 -0.034135240055620672 0.013842963481223897 -0.036012377895947016 -0.013591185652396896 -0.0014656928320619046 -0.021650265769234726 -0.0065218970437696117 0.00044925906021442072 -0.021230907380701075 0.026444193016251796 0.019770018425252705 0.01932133441247667 0.018071094997551131 0.0060544852431948211 -0.016568343248218299 0.0046432198335727062 0.037288428458475298 0.0090471524491228857 -0.0034360020122091682 0.010342229468127092 -0.014052187967235627 -0.019843747557818214 0.017557414590070645 -0.0111291117578124 0.0061658161530352158 0.027042129794135689 -0.0018335851819508454 -0.0030791267819170443 -0.0025423275445064066
leaf_weight=29 23 20 38 28 22 32 21 23 38 31 23 36 24 23 22 26 21 31 22 21 30 23 22 27 24 23 40 22 21 20
leaf_count=29 23 20 38 28 22 32 21 23 38 31 23 36 24 23 22 26 21 31 22 21 30 23 22 27 24 23 40 22 21 20
internal_value=0 -0.165892 0.24552 -0.124105 -0.0847376 0.0667274 0.00568465 -0.211286 0.382238 -0.143446 0.219975 0.196971 0.485319 0.100659 -0.0868462 -0.484122 0.332331 0.568703 -0.0150733 0.0196108 0.0933768 -0.0646407 -0.260696 0.238149 -0.108656 -0.0558666 0.630317 -0.161573 0.0350691 0.0392153
internal_weight=0 481 325 452 424 193 118 231 207 185 103 74 133 97 154 46 71 95 109 74 51 87 45 48 90 68 71 45 44 42
internal_count=806 481 325 452 424 193 118 231 207 185 103 74 133 97 154 46 71 95 109 74 51 87 45 48 90 68 71 45 44 42
shrinkage=0.05


Tree=16
num_leaves=30
num_cat=0
split_feature=0 12 35 25 35 19 0 1 1 25 12 30 24 0 19 0 21 0 0 16 35 1 33 12 12 8 12 28 35
split_gain=29.6365 13.548 8.33541 8.21021 6.36633 6.3379 4.01479 3.38799 3.14232 2.97427 2.31992 2.30314 2.16246 2.04891 1.82603 1.71767 1.44286 1.37911 1.37263 1.13128 0.984575 1.13941 0.729273 0.629863 0.563564 0.559183 0.438497 0.399441 0.367555
threshold=27.500000000000004 74.500000000000014 4302.5833333333348 1.1185889063044236 3359.8000000000006 332.30130831184135 5.5000000000000009 1.5000000000000002 4.5000000000000009 1.3182447689297005 65.500000000000014 199.47101013936938 2.1800048397656453 181.50000000000003 192.15842220131364 179.00000000000003 13.537964482930112 75.500000000000014 216.00000000000003 1.4629039115646261 6017.1250000000009 3.5000000000000004 29.985546831264266 149.50000000000003 278.50000000000006 -5.6349227276692945e-14 129.00000000000003 0.011291949417399286 3014.6666666666674
decision_type=2 2 2 2 2 2 2 2 2 2 2 2 2 2 2 2 2 2 2 2 2 2 2 2 2 2 2 2 2
left_child=3 5 8 -1 10 13 11 -4 18 -9 -5 19 -8 22 -11 -10 25 -16 24 -6 21 -14 -2 -19 28 -12 -21 -25 -3
right_child=1 2 7 4 6 -7 12 9 15 14 16 -13 20 -15 17 -17 -18 23 -20 26 -22 -23 -24 27 -26 -27 -28 -29 -30
leaf_value=-0.042201452986337248 -0.00077686983909781859 -0.0084902651205256193 0.0031173983961343766 -0.03354121253148399 -0.01651524754495106 -0.027401112174165659 0.016231172208097718 0.004857053244486452 0.0064712344706058514 0.037427666554084194 -0.0055536292286382785 -0.025150970800314101 -0.012503226040380783 0.0097001514688599862 0.014644227184665702 0.025197985814884305 -0.024473496738435893 0.020745806222160657 0.0086915732544651774 -0.0079897411388810732 0.0049214991800582567 0.00081408754663748876 -0.013664344103918188 0.034552434148887798 0.0038383561672399877 -0.015395970347021976 0.0021332467683469474 0.025521793693304064 -0.00064232143014669426
leaf_weight=20 23 37 25 22 22 29 21 20 25 26 27 25 29 32 36 24 29 30 37 20 39 36 21 24 23 31 23 25 25
leaf_count=20 23 37 25 22 22 29 21 20 25 26 27 25 29 32 36 24 29 30 37 20 39 36 21 24 23 31 23 25 25
internal_value=0 0.165464 0.258334 -0.222222 -0.183839 -0.150295 -0.084031 0.404846 0.0989714 0.458029 -0.380708 -0.245076 0.0319211 0.0014699 0.509218 0.31287 -0.307346 0.455108 0.0130611 -0.145866 -0.0271823 -0.10255 -0.138554 0.529032 -0.0569213 -0.216284 -0.0515024 0.598899 -0.106515
internal_weight=0 462 357 344 324 105 215 186 171 161 109 90 125 76 141 49 87 115 122 65 104 65 44 79 85 58 43 49 62
internal_count=806 462 357 344 324 105 215 186 171 161 109 90 125 76 141 49 87 115 122 65 104 65 44 79 85 58 43 49 62
shrinkage=0.05


Tree=17
num_leaves=31
num_cat=0
split_feature=0 12 35 35 0 25 19 24 12 1 19 3 0 1 19 25 24 35 35 1 19 20 23 35 33 12 22 21 12 30
split_gain=27.063 11.4667 9.03401 7.39665 4.81774 4.32752 4.27314 3.41822 2.94531 2.53674 2.28601 2.2573 2.19283 2.13334 1.94412 1.84964 1.71958 1.59889 1.47872 3.34226 1.25206 1.25049 1.06945 0.937551 0.830916 0.826867 0.458537 0.442039 0.307205 0.284451
threshold=76.500000000000014 63.500000000000007 3629.5000000000005 4346.1000000000013 10.500000000000002 1.4329129321382845 301.54947107765014 3.4928308488862858 73.500000000000014 2.5000000000000004 324.28440071523124 17.500000000000004 14.500000000000002 2.5000000000000004 299.95516295522299 1.4317423959112443 2.1259973539997721 2351.4666666666672 6035.7500000000009 4.5000000000000009 238.31705273052037 0.25523555379376295 0.0075132459747243889 2382.7250000000004 31.084503124729164 159.50000000000003 -0.10680598712049356 13.46783682653461 149.50000000000003 186.87276413513575
decision_type=2 2 2 2 2 2 2 2 2 2 2 2 2 2 2 2 2 2 2 2 2 2 2 2 2 2 2 2 2 2
left_child=1 6 5 10 14 -2 11 8 -4 -6 21 12 -1 -7 26 -12 -10 -15 19 27 -11 22 -3 -23 -25 -22 -5 -18 -20 -28
right_child=2 3 7 4 9 13 -8 -9 16 20 15 -13 -14 17 -16 -17 18 -19 28 -21 25 23 -24 24 -26 -27 29 -29 -30 -31
leaf_value=-0.031047783612406683 -0.014640349296054671 -0.010506474169059879 0.0071819233266930838 0.0042023498731266172 -0.0024559238052461298 -0.005546067905827211 -0.038834719705106373 -0.0016818920616060496 0.036040983029774258 0.025530109412613369 -0.031100037177516655 -0.0022943378204391116 -0.0096739608971845546 0.0035082347883746545 -0.016780218557239726 -0.010090729906223714 0.011521413279697299 0.020259146255973196 0.021944585578008134 0.028342653562625247 0.0059523279126551644 -0.019430189794645863 0.004014755487514776 -0.0036734033938652525 -0.015655926274864573 0.018229581772660219 7.6145918574184175e-05 0.001009050386492163 0.029484672461237229 -0.0083566931076347831
leaf_weight=28 35 21 38 28 28 26 29 21 21 21 22 21 21 29 26 20 20 28 22 30 32 26 32 39 23 24 20 20 35 20
leaf_count=28 35 21 38 28 28 26 29 21 21 21 22 21 21 29 26 20 20 28 22 30 32 26 32 39 23 24 20 20 35 20
internal_value=0 -0.150623 0.222921 -0.0720206 0.0614191 0.00209914 -0.453915 0.348801 0.391979 0.208638 -0.217127 -0.320192 -0.437751 0.126457 -0.103028 -0.421912 0.455742 0.234735 0.411911 0.31454 0.302368 -0.156127 -0.0347788 -0.229212 -0.162371 0.22428 -0.0141015 0.125305 0.531489 -0.0828055
internal_weight=0 481 325 382 199 118 99 207 186 105 183 70 49 83 94 42 148 57 127 70 77 141 53 88 62 56 68 40 57 40
internal_count=806 481 325 382 199 118 99 207 186 105 183 70 49 83 94 42 148 57 127 70 77 141 53 88 62 56 68 40 57 40
shrinkage=0.05


Tree=18
num_leaves=31
num_cat=0
split_feature=0 24 35 1 12 35 16 12 0 15 24 25 8 0 30 0 25 12 21 12 35 1 22 35 12 19 12 24 0 8
split_gain=24.5443 12.7193 10.6852 9.7768 5.7551 3.8507 3.71831 3.0797 2.59996 2.58133 2.45391 2.38703 2.02154 1.66944 1.37378 1.371 1.22515 1.1291 0.910946 0.884758 0.822368 0.782211 0.741847 0.70172 0.656048 0.591821 0.53945 0.446954 0.441455 0.348746
threshold=20.500000000000004 3.534794199002389 5956.2500000000009 4.5000000000000009 63.500000000000007 3359.8000000000006 1.449770642201835 61.000000000000007 107.50000000000001 708.00000000000011 2.6410261509470847 1.5243918660726814 0.86602540378442938 189.00000000000003 203.15988306740644 233.50000000000003 1.4914789972363298 123.50000000000001 13.481913536437796 146.50000000000003 4614.166666666667 2.5000000000000004 -0.10510258830548554 2880.8333333333339 154.50000000000003 310.81107444386527 213.00000000000003 2.6173263266985871 5.5000000000000009 -0.2588190451025304
decision_type=2 2 2 2 2 2 2 2 2 2 2 2 2 2 2 2 2 2 2 2 2 2 2 2 2 2 2 2 2 2
left_child=4 2 3 7 9 10 -5 22 21 -1 19 12 14 17 25 20 24 29 -11 -6 -8 -9 -2 -23 -10 26 28 -15 -7 -4
right_child=1 -3 13 6 5 11 15 8 16 18 -12 -13 -14 27 -16 -17 -18 -19 -20 -21 -22 23 -24 -25 -26 -27 -28 -29 -30 -31
leaf_value=-0.039283544778715755 -0.0076398252724454961 -0.023831229579991488 0.01562189593911171 -0.0017961881204467756 -0.015384946128522809 -0.0062965536125652172 0.012006072484770189 -0.0099362994477269241 -0.0014550437099699464 -0.010090114871272819 -0.026001538906712085 0.012372099049389363 -0.020421035764738919 0.034512408152222639 -0.013862231932580472 0.030150993720248893 0.015250227434350359 0.022760663690363489 -0.025181051930412653 -0.00085444787982851271 0.023418709208016045 -0.007933221633235614 -0.020448507985565814 0.0036915449476937821 0.0088131723093933297 -0.0075830446132882081 0.0077073732296557874 0.024484213083982468 0.0036104955492853399 0.0062845204025506977
leaf_weight=21 26 32 20 23 22 23 38 40 35 20 38 21 20 20 24 27 31 41 20 20 27 21 20 34 28 22 25 25 22 20
leaf_count=21 26 32 20 23 22 23 38 40 35 20 38 21 20 20 24 27 31 41 20 20 27 21 20 34 28 22 25 25 22 20
internal_value=0 0.133655 0.174682 0.0847861 -0.227841 -0.157337 0.323704 -0.0321314 0.0243452 -0.501763 -0.335904 -0.0663481 -0.114801 0.424392 -0.0641769 0.413611 0.142255 0.338596 -0.352712 -0.169313 0.334934 -0.0923236 -0.264176 -0.01494 0.0621722 -0.00859402 0.0363699 0.578824 -0.0290621 0.219064
internal_weight=0 508 476 350 298 237 115 235 189 61 80 157 136 126 116 92 94 81 40 42 65 95 46 55 63 92 70 45 45 40
internal_count=806 508 476 350 298 237 115 235 189 61 80 157 136 126 116 92 94 81 40 42 65 95 46 55 63 92 70 45 45 40
shrinkage=0.05


Tree=19
num_leaves=31
num_cat=0
split_feature=0 25 19 35 35 19 0 12 1 0 1 24 12 8 3 1 35 30 25 12 10 19 27 12 17 12 1 35 11 35
split_gain=22.3861 9.61101 8.47938 7.64597 5.66875 3.9876 3.83602 2.81889 2.63948 1.98297 2.01433 1.98082 1.82725 1.74905 1.56481 1.44209 1.63018 1.42538 1.40131 1.06174 1.03512 0.930673 0.786362 0.726117 0.653958 0.561954 0.436385 0.805593 0.368882 0.245273
threshold=76.500000000000014 1.1413128394633072 612.66959251369497 3629.5000000000005 4346.1000000000013 329.85224818256222 12.500000000000002 73.500000000000014 2.5000000000000004 15.500000000000002 4.5000000000000009 2.1259973539997721 151.00000000000003 0.70710678118657866 9.5000000000000018 2.5000000000000004 2351.4666666666672 210.48202762227683 1.370894375941899 126.50000000000001 -4.8509011839603532e-14 284.26944273122933 -0.12282826931915919 117.50000000000001 28.731077643908971 84.500000000000014 4.5000000000000009 6153.8333333333339 -0.050857429058581892 6112.5000000000009
decision_type=2 2 2 2 2 2 2 2 2 2 2 2 2 2 2 2 2 2 2 2 2 2 2 2 2 2 2 2 2 2
left_child=1 -1 4 5 9 15 13 21 -8 10 14 -9 25 19 -3 -2 -17 18 -13 20 -6 -5 -16 -20 28 -10 27 -25 -11 -21
right_child=3 2 -4 7 6 -7 8 11 12 24 -12 17 -14 -15 22 16 -18 -19 23 29 -22 -23 -24 26 -26 -27 -28 -29 -30 -31
leaf_value=-0.034752614211676448 -0.0048543623058746261 -0.025386274595921104 -0.03170864302347972 0.011538705158801307 -0.014498134060572324 -0.019774513736012439 -0.0039332197079884603 0.033179384150675367 0.0018220350601371718 -0.0032994485081871971 -0.003115680068731308 0.0075831872168118548 0.023422309011220933 -0.016846776042472235 -0.017452205097875918 0.0010985542813109028 0.016740600543937858 0.0043553601647727189 0.013200974709947001 0.00091031059312323727 0.0012186206877231598 -0.0035320780612528324 -0.0044435032222065185 0.013061029692180454 0.0012149106448468491 0.012587309977108684 0.029453912512822585 0.025458556678342195 -0.012262903240678663 0.0080586355878040205
leaf_weight=29 30 37 28 21 22 21 29 21 22 24 33 23 30 22 26 36 31 20 22 30 20 20 21 20 39 27 22 38 22 20
leaf_count=29 30 37 28 21 22 21 29 21 22 24 33 23 30 22 26 36 31 20 22 30 20 20 21 20 39 27 22 38 22 20
internal_value=0 -0.136991 -0.101186 0.202746 -0.0659885 -0.00040493 0.0443076 0.318552 0.179361 -0.187205 -0.271655 0.376547 0.274079 -0.0836375 -0.353896 0.085129 0.166718 0.334976 0.374635 -0.0230662 -0.140279 0.0837421 -0.232796 0.424912 -0.0709621 0.155078 0.469158 0.423671 -0.151726 0.0753928
internal_weight=0 481 452 325 424 118 222 207 108 202 117 166 79 114 84 97 67 145 125 92 42 41 47 102 85 49 80 58 46 50
internal_count=806 481 452 325 424 118 222 207 108 202 117 166 79 114 84 97 67 145 125 92 42 41 47 102 85 49 80 58 46 50
shrinkage=0.05


Tree=20
num_leaves=31
num_cat=0
split_feature=0 12 35 35 12 0 19 19 25 1 1 3 1 35 0 35 0 24 24 19 0 20 25 0 12 30 0 35 30 19
split_gain=20.2034 9.14324 6.91884 5.4831 4.01133 3.55954 3.47897 2.72344 2.71373 2.03489 1.90644 1.90111 1.8032 1.97437 1.72634 1.5894 1.52316 1.4645 1.13815 1.04995 1.01297 0.832532 0.744768 0.657385 0.604364 0.567564 0.485854 0.424144 0.370153 0.287969
threshold=76.500000000000014 63.500000000000007 3322.5000000000005 4346.1000000000013 99.000000000000014 10.500000000000002 301.54947107765014 305.20388537343223 1.4202362370472754 2.5000000000000004 2.5000000000000004 17.500000000000004 2.5000000000000004 7771.0000000000009 14.500000000000002 2351.4666666666672 221.50000000000003 2.7779888582430656 2.6410261509470847 238.31705273052037 5.5000000000000009 0.25863513296225626 1.4838637349920443 150.00000000000003 159.50000000000003 199.47101013936938 117.50000000000001 4890.8000000000011 176.91982056657005 255.73426804159507
decision_type=2 2 2 2 2 2 2 2 2 2 2 2 2 2 2 2 2 2 2 2 2 2 2 2 2 2 2 2 2 2
left_child=1 6 4 9 -2 17 11 12 -9 21 -7 14 13 -4 -1 18 26 25 -11 -12 -17 -3 28 -14 -21 -5 -6 -25 -22 -29
right_child=2 3 7 5 16 10 -8 8 -10 15 19 -13 23 -15 -16 20 -18 -19 -20 24 22 -23 -24 27 -26 -27 -28 29 -30 -31
leaf_value=-0.02753743023412036 -0.01446534187133823 -0.01199999660253525 0.0010972526121454745 0.0029682492794976994 -0.0049046467989683155 -0.0020985749084502458 -0.034610618304075871 -0.0080830265471542439 0.013983076227228403 -0.0061684935131952881 0.022671139896625565 -0.0014287350433213372 0.016277497015236057 0.021993163451552392 -0.0085729032815877529 -0.010506991864812951 0.015798476562262156 -0.014151936828124304 -0.022442038204859606 0.0050629749865038322 0.00081863175811512125 -0.026426815185695885 0.0085047668823972338 0.020258583248622956 0.015559193522979818 -0.0067239994952536146 0.0050113787082955242 0.031916582652113661 -0.0079628898108023271 0.023626835048198701
leaf_weight=28 35 20 26 44 21 28 29 22 38 21 21 21 34 20 21 31 26 27 22 32 28 20 20 31 24 23 30 22 21 20
leaf_count=28 35 20 26 44 21 28 29 22 38 21 21 21 34 20 21 31 26 27 22 32 28 20 20 31 24 23 30 22 21 20
internal_value=0 -0.130141 0.192609 -0.059953 -0.00860407 0.0549365 -0.400968 0.298411 0.117843 -0.184887 0.18148 -0.280309 0.369221 0.203649 -0.388196 -0.129117 0.118988 -0.0864152 -0.28989 0.262735 -0.0599841 -0.384268 0.0074772 0.440402 0.191227 -0.00717881 0.0185662 0.493895 -0.0588975 0.559382
internal_weight=0 481 325 382 112 199 99 213 60 183 105 70 153 46 49 143 77 94 43 77 100 40 69 107 56 67 51 73 49 42
internal_count=806 481 325 382 112 199 99 213 60 183 105 70 153 46 49 143 77 94 43 77 100 40 69 107 56 67 51 73 49 42
shrinkage=0.05


Tree=21
num_leaves=31
num_cat=0
split_feature=0 24 19 35 30 12 12 19 21 25 2 0 0 28 0 1 19 35 18 35 24 1 17 12 15 11 10 16 1 35
split_gain=18.3438 10.9711 8.91116 7.43341 6.56507 4.34613 3.70586 2.70692 2.28407 1.87925 1.7966 1.69751 1.47463 1.32475 1.27384 1.0968 0.903502 0.767633 0.964076 0.692377 0.690594 0.670966 0.655265 0.610949 0.414834 0.362157 0.353861 0.334873 0.334851 0.856876
threshold=14.500000000000002 3.534794199002389 629.7640746686169 3161.7500000000005 218.1016398544929 63.500000000000007 121.50000000000001 332.30130831184135 13.449545899050358 1.4217017262256768 2.5000000000000004 117.50000000000001 85.500000000000014 0.0097565817228448867 166.50000000000003 2.5000000000000004 252.90822339331399 4128.0833333333348 239.3525073746313 2094.4750000000004 2.5183993907927475 3.5000000000000004 28.483238636363641 61.000000000000007 1110.0000000000002 -0.050857429058581892 -0.49999999999997746 1.4719973009446696 3.5000000000000004 7007.666666666667
decision_type=2 2 2 2 2 2 2 2 2 2 2 2 2 2 2 2 2 2 2 2 2 2 2 2 2 2 2 2 2 2
left_child=5 2 3 11 6 8 12 10 -1 -9 -7 22 23 -12 20 -13 -14 18 -15 -17 -8 -18 25 -5 -19 -2 -16 -24 29 -22
right_child=1 -3 -4 4 -6 7 14 9 -10 -11 13 15 16 17 26 19 21 24 -20 -21 28 -23 27 -25 -26 -27 -28 -29 -30 -31
leaf_value=-0.010051555915270002 -0.00484569475054741 -0.022673720976507123 -0.022664459166117014 -0.0028977826336378477 -0.011726587520912289 -0.018638514946214855 0.024722488280385733 -0.029848713716492059 -0.031346039823941234 -0.0092858677357435231 0.0053670797307093293 -0.0045318464003503327 0.021021724359265397 -0.0037774049970148889 0.031236451566219334 0.0022362058838119822 0.004848071585955291 0.0016975911081923796 -0.017877772848375821 0.013994721997709526 0.0042088839114599284 0.016427710669284518 0.0043166221212595701 0.0071981432522798695 -0.0070172285682267759 -0.013641712958501143 0.023215332127768884 -0.0047235629077823395 0.018336190000690266 0.018492378347686359
leaf_weight=20 25 33 24 23 25 20 20 20 34 25 38 20 28 27 20 21 29 36 22 31 21 22 20 43 22 22 44 21 29 21
leaf_count=20 25 33 24 23 25 20 20 20 34 25 38 20 28 27 20 21 29 36 22 31 21 22 20 43 22 22 44 21 29 21
internal_value=0 0.105288 0.141514 0.170948 0.257812 -0.216159 0.298841 -0.151096 -0.469184 -0.368498 -0.0918046 -0.00549533 0.183929 -0.0530507 0.406339 0.108378 0.276104 -0.110012 -0.202164 0.184922 0.330313 0.196864 -0.0986642 0.0735973 -0.0321606 -0.17926 0.514439 -0.00627433 0.284078 0.227013
internal_weight=0 542 509 485 325 264 300 210 54 45 165 160 145 145 155 72 79 107 49 52 91 51 88 66 58 47 64 41 71 42
internal_count=806 542 509 485 325 264 300 210 54 45 165 160 145 145 155 72 79 107 49 52 91 51 88 66 58 47 64 41 71 42
shrinkage=0.05


Tree=22
num_leaves=31
num_cat=0
split_feature=0 12 35 1 19 25 12 35 15 1 0 21 19 8 35 0 30 19 35 25 19 12 35 11 18 10 24 1 12 28
split_gain=16.6467 9.9045 6.6927 8.11846 5.02915 4.67106 4.14763 2.50047 2.43459 2.32607 1.79461 1.76809 1.66616 1.50877 1.4937 1.34417 1.14661 0.921017 0.849764 0.667781 0.665972 0.651511 0.501962 0.482878 0.466223 0.430437 0.406516 0.338106 0.314887 0.304903
threshold=20.500000000000004 50.500000000000007 5956.2500000000009 4.5000000000000009 301.54947107765014 1.6954367357967983 63.500000000000007 3739.5416666666674 796.00000000000011 1.5000000000000002 233.50000000000003 13.529856510514913 305.20388537343223 0.86602540378442938 1701.7500000000002 107.50000000000001 203.15988306740644 212.43783938149321 2736.5000000000005 1.4927431568021732 255.73426804159507 173.50000000000003 3853.5000000000005 0.25403967337810901 228.80934959349597 0.25881904510254333 2.7066383863035774 3.5000000000000004 154.50000000000003 0.011177683295415429
decision_type=2 2 2 2 2 2 2 2 2 2 2 2 2 2 2 2 2 2 2 2 2 2 2 2 2 2 2 2 2 2
left_child=5 4 3 9 20 6 8 11 -1 -3 18 24 14 16 -11 27 25 -4 -5 28 -2 29 -14 -20 -8 -9 -23 -16 -17 -19
right_child=1 2 17 10 -6 -7 7 13 -10 12 -12 -13 22 -15 15 19 -18 21 23 -21 -22 26 -24 -25 -26 -27 -28 -29 -30 -31
leaf_value=-0.03531796596556281 0.0038264626613818114 -0.013520146012888291 0.027168881731188817 0.0032931064814329149 -0.03233694579790939 0.012263842708552661 -0.0035866149945095894 -0.0023615021433726186 -0.014388501686467367 -0.0087973170872871955 0.027570324018597603 -0.024528097012831318 -0.013249342055946946 -0.016817013910040261 -0.0018008506334283286 0.0027102209825534372 -0.011777495899392913 0.015971334779570842 0.011856379389064387 0.018157119020110087 -0.0089222210625718758 0.025195161998271945 -0.0021812499221414328 0.021303798790488923 -0.013692312732338905 0.0044046743733633783 0.01544831432402134 0.0060124044679105287 0.01158274450339377 0.0085146382880898625
leaf_weight=24 20 32 23 20 22 23 21 57 33 21 25 31 21 20 45 20 24 29 38 21 21 23 20 21 25 40 20 20 20 26
leaf_count=24 20 32 23 20 22 23 21 57 33 21 25 31 21 20 45 20 24 29 38 21 21 23 20 21 25 40 20 20 20 26
internal_value=0 0.110071 0.162609 0.0876643 -0.261032 -0.187638 -0.223845 -0.161047 -0.464018 -0.021171 0.317893 -0.305973 0.0212515 -0.0819034 0.0709694 0.112122 -0.0398477 0.363287 0.243996 0.218741 -0.054067 0.321021 -0.157005 0.30438 -0.181577 0.00857347 0.413235 0.0120646 0.14293 0.248927
internal_weight=0 508 445 324 63 298 275 218 57 220 104 77 188 141 147 126 121 121 79 61 41 98 41 59 46 97 43 65 40 55
internal_count=806 508 445 324 63 298 275 218 57 220 104 77 188 141 147 126 121 121 79 61 41 98 41 59 46 97 43 65 40 55
shrinkage=0.05


Tree=23
num_leaves=31
num_cat=0
split_feature=0 25 19 35 35 30 12 12 35 12 12 24 0 25 16 30 20 22 25 34 25 21 12 0 19 21 8 33 23 24
split_gain=15.2511 7.50688 6.52984 5.39895 4.09512 3.5705 3.24988 2.17506 2.07273 2.06669 1.57614 1.55302 1.24219 1.21603 1.02716 1.00305 0.876089 0.908167 0.859174 0.899393 0.790357 0.645449 0.630738 0.616032 0.496383 0.401844 0.342098 0.283549 0.256582 0.162334
threshold=76.500000000000014 1.1185889063044236 659.79695902081528 3322.5000000000005 3990.0000000000005 199.47101013936938 99.000000000000014 119.50000000000001 6017.1250000000009 73.500000000000014 67.500000000000014 2.1259973539997721 13.500000000000002 1.4754511391077449 1.4724747682518788 210.48202762227683 0.25174784506323677 -0.092497670282750202 1.370894375941899 214.85166132681113 1.4879347154830174 13.537964482930112 133.50000000000003 22.500000000000004 256.60827733864181 13.446557761295074 0.25881904510254233 29.476522927804599 0.011942855756186256 2.6838231202360574
decision_type=2 2 2 2 2 2 2 2 2 2 2 2 2 2 2 2 2 2 2 2 2 2 2 2 2 2 2 2 2 2
left_child=1 -1 4 6 10 7 -2 23 14 20 -3 -11 26 28 -7 18 -12 21 -13 -20 -5 27 -21 25 -14 -6 -9 -18 -8 -24
right_child=3 2 -4 9 5 8 13 12 -10 11 16 15 24 -15 -16 -17 17 -19 19 22 -22 -23 29 -25 -26 -27 -28 -29 -30 -31
leaf_value=-0.033527335670331247 -0.013152894723628248 -0.017777483753467861 -0.030831672251224518 -0.0030736846606368605 0.0010749491407874635 -0.02272153111640364 0.0037769468221813445 0.0076671101696168384 0.0034606333248890365 0.028247017892343657 0.0014428746950780524 0.0065785344062454024 0.021537126451730729 0.012288633162867935 -0.0080930926130774114 0.0033043935685418547 -0.0038590429262036368 -0.0015109887353473288 0.0082397693746977235 0.013629584849394603 0.010516859441995622 -0.018560475737533787 0.025409870967268947 0.0050623863763003436 0.011367902614486716 -0.0076489764773710212 -0.00077506707340944557 -0.01124856522142449 -0.0039665786832894971 0.019976182240578864
leaf_weight=23 35 38 22 23 22 20 20 30 26 21 29 23 20 34 30 20 21 34 22 29 20 22 28 27 30 33 20 34 23 27
leaf_count=23 35 38 22 23 22 20 20 30 26 21 29 23 20 34 30 20 21 34 22 29 20 22 28 27 30 33 20 34 23 27
internal_value=0 -0.113071 -0.0850756 0.167345 -0.0582539 0.0222451 -0.0103982 0.0982647 -0.159802 0.260807 -0.174932 0.310347 0.197258 0.104447 -0.278889 0.274464 -0.125907 -0.166341 0.306771 0.344786 0.06495 -0.226447 0.391926 -0.0224592 0.308712 -0.0831881 0.0858048 -0.168542 -0.00729878 0.454848
internal_weight=0 481 458 325 436 258 112 182 76 213 178 170 100 77 50 149 140 111 129 106 43 77 84 82 50 55 50 55 43 55
internal_count=806 481 458 325 436 258 112 182 76 213 178 170 100 77 50 149 140 111 129 106 43 77 84 82 50 55 50 55 43 55
shrinkage=0.05


Tree=24
num_leaves=31
num_cat=0
split_feature=0 24 19 35 30 25 19 12 12 15 29 12 25 12 17 0 24 29 0 35 35 35 25 2 35 1 35 32 29 5
split_gain=13.891 9.02667 7.08699 5.59322 4.95015 3.88166 3.54052 3.73077 2.87593 1.90564 1.86869 1.34287 1.13066 1.08088 0.963099 0.946676 0.804214 0.758542 0.760095 0.678846 0.628393 0.592764 0.39866 0.392563 0.330804 0.290492 0.523922 0.257678 0.290386 0.0851168
threshold=14.500000000000002 3.534794199002389 629.7640746686169 3014.6666666666674 218.1016398544929 1.5652746208758039 246.17997719900589 63.500000000000007 123.50000000000001 796.00000000000011 0.23250529178067339 40.500000000000007 1.6954367357967983 146.50000000000003 28.458613782051284 97.500000000000014 2.7956326549720587 0.258877827555625 64.500000000000014 3990.0000000000005 6103.5000000000009 1947.8750000000002 1.4750489647453835 13.500000000000002 4614.166666666667 4.5000000000000009 6103.5000000000009 1.477204832186845 0.25054947395859356 3.5000000000000004
decision_type=2 2 2 2 2 2 2 2 2 2 2 2 2 2 2 2 2 2 2 2 2 2 2 2 2 2 2 2 2 2
left_child=6 2 3 13 5 8 12 9 11 -8 -9 -5 19 14 -2 24 20 18 -13 -1 23 -15 -23 -12 -10 26 -17 28 -20 -26
right_child=1 -3 -4 4 -6 -7 7 10 15 -11 16 17 -14 21 -16 25 -18 -19 27 -21 -22 22 -24 -25 29 -27 -28 -29 -30 -31
leaf_value=-0.009695441667632811 -0.010414864768823371 -0.02076059768089291 -0.020297967436878631 -0.0048837734993709171 -0.010509805497713388 0.033370453403109596 -0.036988490021654538 -0.023120838381527439 0.0063144218706293028 -0.015687698046011583 -0.010473093130470564 0.0038726478761860307 0.0092834169832279999 -0.0029608584195375443 0.00069703151686833457 0.011494748884745476 -0.01359926926564764 -0.00069159667473286392 0.0061708661168813706 0.00094725168610532455 0.0024525772615258275 0.0025899769458919766 0.012573209069669248 -0.0024975255752603216 0.012018981417296111 0.024443101170270341 0.021382714113270918 0.017221043420874556 0.014002307459455113 0.01615818620699903
leaf_weight=29 39 33 24 23 25 21 21 21 20 21 36 35 21 20 39 21 33 20 20 31 24 20 20 27 27 23 37 23 29 23
leaf_count=29 39 33 24 23 25 21 21 21 20 21 36 35 21 20 39 21 33 20 20 31 24 20 20 27 27 23 37 23 29 23
internal_value=0 0.0916224 0.124482 0.150731 0.218453 0.251734 -0.188104 -0.265149 0.222733 -0.526762 -0.187222 0.12466 -0.0140373 -0.0195578 -0.0971783 0.320156 -0.139063 0.164926 0.198338 -0.0839343 -0.0886443 0.0813489 0.151632 -0.1411 0.234983 0.393763 0.356052 0.257102 0.216116 0.27846
internal_weight=0 542 509 485 347 322 264 183 301 42 141 150 81 138 78 151 120 127 107 60 87 60 40 63 70 81 58 72 49 50
internal_count=806 542 509 485 347 322 264 183 301 42 141 150 81 138 78 151 120 127 107 60 87 60 40 63 70 81 58 72 49 50
shrinkage=0.05


Tree=25
num_leaves=30
num_cat=0
split_feature=0 25 19 35 35 1 25 0 28 35 19 0 3 12 1 8 24 12 35 35 1 12 25 16 3 12 12 12 25
split_gain=12.6437 7.36323 5.82095 4.46371 3.76339 3.80664 2.95526 2.1443 1.826 1.75099 1.72574 1.56966 1.50688 1.33037 1.17921 0.945645 0.878815 0.837752 0.723752 0.59183 0.548303 0.547875 0.535394 0.488297 0.403556 0.357763 0.301412 0.241353 0.111251
threshold=97.500000000000014 1.1185889063044236 659.79695902081528 3109.4166666666674 3856.8333333333339 2.5000000000000004 1.4329129321382845 13.500000000000002 0.010272701823084764 7731.2500000000009 305.20388537343223 15.500000000000002 9.5000000000000018 151.00000000000003 2.5000000000000004 0.70710678118657866 2.5579936570687836 105.50000000000001 2326.4333333333338 2422.7500000000005 3.5000000000000004 67.500000000000014 1.5063426681656602 1.4748737373737375 18.500000000000004 139.00000000000003 147.50000000000003 116.50000000000001 1.4745452179161818
decision_type=2 2 2 2 2 2 2 2 2 2 2 2 2 2 2 2 2 2 2 2 2 2 2 2 2 2 2 2 2
left_child=1 -1 4 6 11 9 -2 15 22 23 14 12 -3 21 -10 24 -14 -8 -19 -13 -21 -9 26 -6 25 -7 -5 -16 -23
right_child=3 2 -4 8 5 7 17 13 10 -11 -12 19 16 -15 27 -17 -18 18 -20 20 -22 28 -24 -25 -26 -27 -28 -29 -30
leaf_value=-0.029945134171457208 -0.015941070833081463 -0.019674096902293204 -0.028295421427438589 0.012467933339732035 -0.019398870813061617 -0.0035644520872979073 -0.0025804575746102881 -0.00065392456239178078 0.0044402258675545455 0.00070567090358389058 0.00065255105973368417 -0.0078899149782955657 0.00046114283759379759 0.017740850922602573 0.01314930414692277 -0.0097122721804771585 -0.012035332698210636 0.0028717599131844263 0.016013813465833665 -0.0043205497262533759 0.0052602512046827808 0.0062338246032595636 0.026674554608762266 -0.0091479063011670053 0.0085989316599443567 0.0042894143735636671 0.02067033941857517 0.01986049638708701 0.011153932258538488
leaf_weight=27 23 38 22 21 21 29 24 21 25 38 38 37 24 38 21 20 34 22 20 32 28 20 20 26 20 29 24 37 27
leaf_count=27 23 38 22 21 21 29 24 21 25 38 38 37 24 38 21 20 34 22 20 32 28 20 20 26 20 29 24 37 27
internal_value=0 -0.0901341 -0.0628787 0.174041 -0.0399188 0.0322909 -0.0101395 0.106373 0.26217 -0.145507 0.18955 -0.148046 -0.238698 0.204953 0.270356 -0.000253654 -0.137288 0.0974315 0.182598 -0.0583294 0.00300981 0.121206 0.397356 -0.274562 0.0494878 0.00724962 0.336851 0.348612 0.181205
internal_weight=0 531 504 275 482 289 89 204 186 85 121 193 96 106 83 98 58 66 42 97 60 68 65 47 78 58 45 58 47
internal_count=806 531 504 275 482 289 89 204 186 85 121 193 96 106 83 98 58 66 42 97 60 68 65 47 78 58 45 58 47
shrinkage=0.05


Tree=26
num_leaves=31
num_cat=0
split_feature=0 12 25 19 19 35 1 35 0 30 0 28 3 1 25 25 0 19 1 35 19 1 35 5 12 24 18 12 12 12
split_gain=11.4587 6.80364 4.07943 3.9983 3.4377 3.24888 4.20459 2.73822 2.02759 1.2205 1.18054 1.08779 1.22075 1.01974 1.14546 0.9956 0.987395 0.770835 0.667421 0.990328 0.621663 0.492728 0.468352 0.423992 0.372487 0.361801 0.31927 0.289448 0.234773 0.218552
threshold=28.500000000000004 74.500000000000014 1.1185889063044236 332.30130831184135 612.66959251369497 6017.1250000000009 4.5000000000000009 3041.2500000000005 4.5000000000000009 192.79310887960187 233.50000000000003 0.014600035429807954 10.500000000000002 1.5000000000000002 1.4914789972363298 1.5300318374835522 181.50000000000003 221.17042535069803 3.5000000000000004 6171.3333333333348 296.13025642254803 2.5000000000000004 4352.791666666667 2.5000000000000004 119.50000000000001 2.7517563041418325 242.13499045757112 173.50000000000003 133.50000000000003 117.50000000000001
decision_type=2 2 2 2 2 2 2 2 2 2 2 2 2 2 2 2 2 2 2 2 2 2 2 2 2 2 2 2 2 2
left_child=2 3 -1 16 7 6 13 11 9 -9 22 12 -4 -3 20 18 23 -7 19 -10 21 -15 -8 -2 -20 27 -13 -19 -23 -21
right_child=1 5 4 -5 -6 17 10 8 15 -11 -12 26 -14 14 -16 -17 -18 25 24 29 -22 28 -24 -25 -26 -27 -28 -29 -30 -31
leaf_value=-0.02870130714029074 9.954985053766343e-05 -0.0093367434439382384 -0.025976602444868713 -0.021786154312049524 -0.025544906551949683 0.025006172202882315 0.0072635279300524609 -0.004001120406125362 -0.009258027550365245 -0.019193205777555705 0.023839224983627599 -0.0030206548981368542 -0.008716207100078463 -0.0033645675362398231 0.0097828072018157214 0.011554950402139432 0.0067340496141696351 0.012440359219908714 -0.00014809196982241702 -0.0014372483408078554 -0.0064770310699682815 0.000765135269612074 0.015700813045660997 -0.009947859389441354 0.0073156020969950735 0.0084038496576249594 -0.011291994126513601 0.019906655809393638 0.007713509329985227 0.0059544961387291559
leaf_weight=20 21 21 21 29 20 21 38 39 35 20 24 28 20 27 39 22 32 25 32 20 29 20 29 21 35 20 20 27 31 20
leaf_count=20 21 21 21 29 20 21 38 39 35 20 24 28 20 27 39 22 32 25 32 20 29 20 29 21 35 20 20 27 31 20
internal_value=0 0.104989 -0.135412 -0.120995 -0.10899 0.171304 0.113541 -0.0832262 -0.0240429 -0.18302 0.286479 -0.231517 -0.351138 0.0193056 0.0489416 0.03315 0.00234462 0.331547 0.00248185 -0.0623163 -0.00453378 0.0419431 0.21831 -0.0984831 0.0750171 0.282379 -0.129341 0.326342 0.0997731 0.0451725
internal_weight=0 454 352 103 332 351 258 312 223 59 91 89 41 167 146 164 74 93 142 75 107 78 67 42 67 72 48 52 51 40
internal_count=806 454 352 103 332 351 258 312 223 59 91 89 41 167 146 164 74 93 142 75 107 78 67 42 67 72 48 52 51 40
shrinkage=0.05


Tree=27
num_leaves=31
num_cat=0
split_feature=0 12 35 25 1 35 25 35 0 25 0 12 0 25 24 29 8 12 12 35 0 19 31 31 0 19 25 35 12 31
split_gain=10.537 6.35955 3.88998 3.15601 3.10029 2.86466 2.51985 2.17467 2.08989 1.65329 1.53181 1.34713 1.25003 1.22309 1.12466 0.938273 0.805363 0.726246 0.706298 0.631786 0.501658 0.486716 0.472285 1.03636 0.3213 0.310283 0.2906 0.222262 0.200005 0.180134
threshold=97.500000000000014 65.500000000000014 3109.4166666666674 1.3811491538764267 2.5000000000000004 2472.2000000000003 1.4329129321382845 5722.8750000000009 13.500000000000002 1.5352572034514775 15.500000000000002 116.50000000000001 8.5000000000000018 1.4192253020611232 2.6799705465671635 0.24642934521265383 0.86602540378441695 105.50000000000001 151.00000000000003 2326.4333333333338 11.500000000000002 228.68334244447655 13712.23351230478 13439.782584239285 37.500000000000007 268.45920736329083 1.4211253559654384 4482.6000000000013 145.50000000000003 13800.65685905823
decision_type=2 2 2 2 2 2 2 2 2 2 2 2 2 2 2 2 2 2 2 2 2 2 2 2 2 2 2 2 2 2
left_child=1 3 6 -1 7 15 -2 10 16 11 -3 14 -5 -10 -4 -6 21 -8 27 -19 -9 -7 23 -13 -14 -20 -23 -15 -28 -24
right_child=2 4 9 12 5 8 17 20 13 -11 -12 22 24 18 -16 -17 -18 19 25 -21 -22 26 29 -25 -26 -27 28 -29 -30 -31
leaf_value=-0.030892176617150352 -0.014904614840634168 -0.024104399875236247 0.0098678590491032003 -0.016945054506262144 -0.01500787294159333 0.006769632592331618 -0.002624657764802881 -0.0056614101864397529 -0.00084136339024670672 0.025271145227764337 -0.0079823114964015351 0.016777033632000289 -0.0011117873785014335 0.0026459350995719434 -0.0038887830606351296 -0.0021600489918556479 -0.0096487855052818441 0.0024315161440013489 0.01992333782836795 0.014710245272144677 0.0043631833046674732 -0.006116883177310229 0.020823368751867254 0.00266991696300228 -0.0095413073711097252 0.011407948560688807 -0.0027888402585750042 0.0091578653027107448 0.0034084735923291497 0.014728383778559943
leaf_weight=24 23 26 39 39 30 25 24 26 31 21 34 30 26 20 24 27 23 22 20 20 24 22 22 23 20 23 23 38 30 27
leaf_count=24 23 26 39 39 30 25 24 26 31 21 34 30 26 20 24 27 23 22 20 20 24 22 22 23 20 23 23 38 30 27
internal_value=0 -0.0822828 0.158881 -0.297615 -0.0266639 0.0242298 -0.0130561 -0.171017 0.0695328 0.241152 -0.299371 0.207517 -0.207198 0.156922 0.0925447 -0.178441 -0.0242507 0.0862747 0.210251 0.165571 -0.0169921 0.0145561 0.278529 0.213102 -0.0955359 0.307372 -0.0257228 0.138247 0.0143815 0.349298
internal_weight=0 531 275 109 422 312 89 110 255 186 60 165 85 132 63 57 123 66 101 42 50 100 102 53 46 43 75 58 53 49
internal_count=806 531 275 109 422 312 89 110 255 186 60 165 85 132 63 57 123 66 101 42 50 100 102 53 46 43 75 58 53 49
shrinkage=0.05


Tree=28
num_leaves=31
num_cat=0
split_feature=0 25 19 24 35 25 0 30 35 30 1 35 33 28 30 12 34 35 35 12 24 12 35 0 12 8 12 18 8 14
split_gain=9.52822 5.03911 4.56345 3.63614 3.2885 3.07096 2.66544 1.65425 1.63586 1.547 1.34803 1.27681 1.18787 1.12064 1.09962 1.03648 0.965674 0.92591 0.71321 0.663082 0.614599 0.593579 0.397725 0.386355 0.384972 0.333502 0.276199 0.255227 0.225721 0.211394
threshold=75.500000000000014 1.1413128394633072 659.79695902081528 3.5120460024743254 3109.4166666666674 1.7262178565229254 15.500000000000002 214.34280386805679 3990.0000000000005 202.25546578044245 3.5000000000000004 6017.1250000000009 28.339357907638423 0.014278901460200564 175.82800724309041 105.50000000000001 251.44217664646948 4191.9583333333348 2622.5833333333339 148.50000000000003 2.3813661126053116 119.50000000000001 2132.0000000000005 339.00000000000006 93.000000000000014 0.25881904510254233 123.50000000000001 230.86692892023876 3.4788015844060482e-14 73.576530031732133
decision_type=2 2 2 2 2 2 2 2 2 2 2 2 2 2 2 2 2 2 2 2 2 2 2 2 2 2 2 2 2 2
left_child=1 -1 5 4 10 6 8 12 13 21 15 14 -6 16 18 -2 -3 -14 -8 -16 -19 28 -12 26 -20 -23 -22 -15 -10 -13
right_child=3 2 -4 -5 7 -7 11 -9 9 -11 22 29 17 27 19 -17 -18 20 24 -21 23 25 -24 -25 -26 -27 -28 -29 -30 -31
leaf_value=-0.02471379895919356 -0.013724519074894487 -0.010106430378241035 -0.025413405277173631 -0.012627059113963144 0.0048137000429310968 0.016131483204662799 -0.0054085308033972983 -0.0017004109076446013 -0.00067901457183655698 -0.012063426286913455 0.0018892735894769431 0.011909308067212503 0.0077873142271795695 -0.0023840353511332072 -0.011875486307378327 0.00047188991965312104 -0.024014858443600438 0.025143750645220283 0.00013396877108053082 -0.00041782955598572029 0.010619371373738563 0.0068023114743868286 0.011436280913282342 0.021692200321704151 0.0086099134179184571 -0.0011452172755856405 0.016666677480608953 -0.0099319061463964842 -0.0079261991927134148 0.0052012607875361067
leaf_weight=29 20 26 22 23 35 22 20 21 22 35 20 24 34 24 28 36 24 20 21 23 35 33 24 20 37 22 41 21 21 23
leaf_count=29 20 26 22 23 35 22 20 21 22 35 20 24 34 24 28 36 24 20 21 23 35 33 24 20 37 22 41 21 21 23
internal_value=0 -0.0902978 -0.0641474 0.130918 0.15974 -0.0412116 -0.0610247 0.231968 -0.132389 -0.060801 0.0109508 0.0314248 0.26216 -0.232613 -0.0199867 -0.0919651 -0.33565 0.300867 0.0546691 -0.134166 0.343402 0.00365163 0.141935 0.310178 0.110821 0.072466 0.277635 -0.118128 -0.0843667 0.172533
internal_weight=0 477 448 329 306 426 404 206 228 133 100 176 185 95 129 56 50 150 78 51 116 98 44 96 58 55 76 45 43 47
internal_count=806 477 448 329 306 426 404 206 228 133 100 176 185 95 129 56 50 150 78 51 116 98 44 96 58 55 76 45 43 47
shrinkage=0.05


Tree=29
num_leaves=30
num_cat=0
split_feature=0 25 19 25 35 1 35 0 25 35 12 12 3 24 16 12 33 12 18 12 24 1 1 24 8 0 15 2 35
split_gain=8.6947 5.77091 4.42174 2.96651 2.94023 3.01589 2.89665 1.71025 1.63099 1.37497 1.18686 1.09553 0.894579 0.865722 0.849438 0.840276 0.835444 0.563152 0.509299 0.483384 0.470299 0.426123 0.41613 0.370509 0.349347 0.288445 0.27148 0.190303 0.152861
threshold=106.50000000000001 1.1413128394633072 612.66959251369497 1.5424415240929006 3020.1666666666674 2.5000000000000004 3109.4166666666674 13.500000000000002 1.4409828910614528 7731.2500000000009 67.500000000000014 149.50000000000003 18.500000000000004 2.7336003930048745 1.4655363984674332 100.50000000000001 31.084503124729164 84.500000000000014 244.24043367346943 232.50000000000003 2.4820143367275267 3.5000000000000004 3.5000000000000004 2.5688882183278134 0.25881904510249215 202.50000000000003 926.00000000000011 10.500000000000002 4862.3333333333348
decision_type=2 2 2 2 2 2 2 2 2 2 2 2 2 2 2 2 2 2 2 2 2 2 2 2 2 2 2 2 2
left_child=1 -1 4 6 10 9 8 12 -2 14 -3 13 17 21 -6 18 19 -7 -9 23 -17 -8 -10 -12 -11 -13 -19 -27 -22
right_child=3 2 -4 -5 5 7 11 15 22 24 16 25 -14 -15 -16 20 -18 26 -20 -21 28 -23 -24 -25 -26 27 -28 -29 -30
leaf_value=-0.023513318410636308 -0.014525802289135754 -0.015951199165234964 -0.021564389781893366 0.024309671165732048 -0.019425509651191535 -0.0084136643619449041 0.005378079480461536 -0.0027717118716931773 -0.0023659639866449515 0.0056465412676334386 0.0010489486553706231 0.010162588053208311 0.0083208018913865089 -0.0017614682541332314 -0.0065737211507641618 0.018070519403554499 -0.01122704516830189 0.003774441668667413 0.007610392453217949 0.0041533147308813493 0.0059027248019860555 0.014360419385459112 0.0064185083411367879 -0.0073978269372329698 -0.003698871824890375 0.013332475401461125 -0.0027673422927702116 0.01970865477553823 0.011115146734011479
leaf_weight=34 20 30 28 24 20 27 31 21 26 20 20 32 25 27 36 20 35 29 27 23 22 23 28 37 20 25 35 22 39
leaf_count=34 20 30 28 24 20 27 31 21 26 20 20 32 25 27 36 20 35 29 27 23 22 23 28 37 20 25 35 22 39
internal_value=0 -0.0712655 -0.0448725 0.15137 -0.0226098 0.0281101 0.117029 0.0869787 -0.046571 -0.122127 -0.141889 0.192694 -0.0011288 0.110975 -0.223273 0.166207 -0.0956802 -0.0471576 0.0613644 -0.0393036 0.228336 0.184078 0.043779 -0.0886809 0.0194767 0.276482 0.00393807 0.326341 0.184705
internal_weight=0 548 514 258 486 341 234 245 74 96 145 160 116 81 56 129 115 91 48 80 81 54 54 57 40 79 64 47 61
internal_count=806 548 514 258 486 341 234 245 74 96 145 160 116 81 56 129 115 91 48 80 81 54 54 57 40 79 64 47 61
shrinkage=0.05


Tree=30
num_leaves=30
num_cat=0
split_feature=12 0 23 35 30 0 25 25 8 12 35 25 25 30 34 13 20 30 0 31 12 8 12 0 0 12 12 18 10
split_gain=8.07542 6.48644 3.76112 2.93771 2.43022 2.16978 2.05699 1.80148 1.69464 1.48855 1.18902 0.98423 0.982319 0.902951 0.791812 0.760798 0.681592 0.638135 0.633328 0.426666 0.343291 0.333313 0.329798 0.289019 0.284484 0.213747 0.160291 0.133203 0.131698
threshold=63.500000000000007 19.500000000000004 0.021624061781302963 3014.6666666666674 211.37125917287861 181.50000000000003 1.5424415240929006 1.5652746208758039 0.8660254037844537 31.000000000000004 3990.0000000000005 1.2047057537706751 1.4534588435509821 185.60081602252373 210.98181324147856 76.660781407072548 0.25294855145974993 203.15988306740644 64.500000000000014 13478.855645104732 205.50000000000003 0.70710678118655779 218.00000000000003 7.5000000000000009 339.00000000000006 229.00000000000003 207.50000000000003 220.78784937888202 0.49999999999997796
decision_type=2 2 2 2 2 2 2 2 2 2 2 2 2 2 2 2 2 2 2 2 2 2 2 2 2 2 2 2 2
left_child=2 7 5 13 6 9 11 8 10 -1 12 -5 -2 15 19 20 -11 22 26 -13 -3 -18 23 -12 25 27 -16 -20 -14
right_child=1 3 -4 4 -6 -7 -8 -9 -10 16 17 14 28 -15 18 -17 21 -19 24 -21 -22 -23 -24 -25 -26 -27 -28 -29 -30
leaf_value=-0.021008902343667368 -0.017144314352966226 0.0019571439028741458 -0.025288556019465131 -0.0015165632753632965 -0.004017180239845237 0.0072183543440284374 0.025788382133468984 0.0090420871487130305 -0.016700606755524254 -0.014080246253870428 -0.0041740427755059739 0.0085258787420267861 -0.0070901289761353004 -0.0093989816929578134 0.0051542185369827277 -0.0045190693189700445 -0.00026212947936180762 -0.0078230894869193435 0.0076705044077243663 -0.0013623775355517866 0.009557490943310161 -0.0083967698737978935 0.0052268781747175927 0.0034229900596463789 0.018549172628832902 0.015349371103863968 0.010497843449854334 0.012404838166175745 -0.0017664422702399038
leaf_weight=22 24 39 33 20 33 24 20 23 30 20 31 24 26 23 36 33 34 24 24 20 24 20 34 21 23 38 23 39 21
leaf_count=22 24 39 33 20 33 24 20 23 30 20 31 24 26 23 36 33 34 24 24 20 24 20 34 21 23 38 23 39 21
internal_value=0 0.0484512 -0.206788 0.122932 0.175669 -0.124568 0.207311 -0.084915 -0.113884 -0.191802 -0.0773983 0.182335 -0.178282 -0.0100164 0.201072 0.0326206 -0.123906 -0.0122823 0.230032 0.0806243 0.0970503 -0.0654992 0.0279538 -0.0221202 0.270611 0.247754 0.144747 0.212026 -0.0942292
internal_weight=0 653 153 419 300 120 267 234 211 96 181 247 71 119 227 96 74 110 183 44 63 54 86 52 124 101 59 63 47
internal_count=806 653 153 419 300 120 267 234 211 96 181 247 71 119 227 96 74 110 183 44 63 54 86 52 124 101 59 63 47
shrinkage=0.05


Tree=31
num_leaves=30
num_cat=0
split_feature=0 12 35 1 25 24 8 1 19 0 35 20 25 17 24 12 20 25 13 15 30 0 25 0 18 0 3 5 13
split_gain=7.37369 6.69451 4.64719 5.26652 2.17278 1.99417 1.63002 1.38391 1.29589 1.22258 1.15683 1.06015 1.05558 0.951654 0.930452 0.775504 0.751618 0.629345 0.617083 0.444643 0.433791 0.354351 0.317796 0.303641 0.179024 0.168527 0.163667 0.118618 0.0655215
threshold=7.5000000000000009 31.000000000000004 5956.2500000000009 4.5000000000000009 1.4393503222026951 3.5464091293991511 0.25881904510253567 1.5000000000000002 340.19550328223266 190.50000000000003 1980.0666666666668 0.25733666676974193 1.4914789972363298 29.43225524475525 3.030610961131424 235.00000000000003 0.25807544200126969 1.5063426681656602 66.208596190641117 1014.0000000000001 161.85874219418906 101.00000000000001 1.4317423959112443 71.500000000000014 240.88236469072169 31.500000000000004 9.5000000000000018 4.5000000000000009 69.395655945159561
decision_type=2 2 2 2 2 2 2 2 2 2 2 2 2 2 2 2 2 2 2 2 2 2 2 2 2 2 2 2 2
left_child=4 -2 3 5 8 7 11 -3 -1 15 19 -6 13 20 17 22 -8 23 -14 -9 -12 27 -5 28 -13 -24 -25 -22 -4
right_child=1 2 14 9 6 -7 16 10 -10 -11 12 24 18 -15 -16 -17 -18 -19 -20 -21 21 -23 25 26 -26 -27 -28 -29 -30
leaf_value=-0.010931468804577186 -0.022224238866832682 -0.010422243837169127 0.01049803522016321 -0.00094781201870109029 0.0064567522005306499 -0.017535694528903283 -0.019959714170545342 -0.011787050245329738 -0.027018075445223423 0.016537293678937623 0.0063542302599120318 -0.0029178608451997314 0.013202527157962322 -0.0079139681473939811 0.0027828729745966417 0.013269916037097575 -0.007128500934690237 0.020295886218082163 0.002566181595126788 -0.0019180072914986386 -0.0056739059722293976 0.0043592477673276642 0.0024561915014471329 0.016521446619715011 -0.0085580541247812416 0.0083375933849060072 0.011012336133549419 -0.00064903625752776861 0.0067741940599969691
leaf_weight=31 26 38 21 26 29 21 21 25 21 39 33 34 25 35 27 28 25 24 30 21 23 24 21 28 24 29 26 24 27
leaf_count=31 26 38 21 26 29 21 21 25 21 39 33 34 25 35 27 28 25 24 30 21 23 24 21 28 24 29 26 24 27
internal_value=0 0.0522054 0.0739095 0.0219133 -0.175241 -0.0535756 -0.107477 -0.0311299 -0.34856 0.179754 -0.00305499 -0.0269781 0.030752 -0.0156481 0.224121 0.123132 -0.259725 0.26022 0.148018 -0.145632 0.0323529 -0.0116774 0.0707177 0.225938 -0.105035 0.117348 0.277378 -0.0621603 0.168067
internal_weight=0 621 595 442 185 299 133 278 52 143 240 87 194 139 153 104 46 126 55 46 104 71 76 102 58 50 54 47 48
internal_count=806 621 595 442 185 299 133 278 52 143 240 87 194 139 153 104 46 126 55 46 104 71 76 102 58 50 54 47 48
shrinkage=0.05


Tree=32
num_leaves=30
num_cat=0
split_feature=12 0 19 25 25 35 35 0 30 21 3 0 24 0 8 25 19 1 8 1 2 32 8 16 12 15 1 9 16
split_gain=6.84309 5.33241 4.3648 5.07185 2.25469 1.79897 1.69087 1.43936 1.42707 1.21812 1.11601 0.930451 0.912244 0.711206 1.1007 0.576273 0.901637 0.544005 0.537586 0.506642 0.506225 0.372424 0.313065 0.277311 0.258516 0.254539 0.129291 0.126929 0.104205
threshold=74.500000000000014 29.500000000000004 332.30130831184135 1.4429214972008151 1.5579366225141664 4029.2500000000005 3322.5000000000005 70.000000000000014 214.34280386805679 13.529856510514913 18.500000000000004 4.5000000000000009 2.269620116863281 5.5000000000000009 1.0000000180025095e-35 1.4254352515453761 329.85224818256222 2.5000000000000004 0.25881904510250736 4.5000000000000009 10.500000000000002 1.4752284795876949 0.49999999999994577 1.4758463044308636 161.50000000000003 668.00000000000011 3.5000000000000004 -0.053070585230154156 1.4748737373737375
decision_type=2 2 2 2 2 2 2 2 2 2 2 2 2 2 2 2 2 2 2 2 2 2 2 2 2 2 2 2 2
left_child=2 6 7 -4 5 19 9 10 15 22 13 20 -13 -1 -15 16 -7 -14 -9 21 -8 23 -2 -3 26 -19 -17 -27 -26
right_child=1 4 3 -5 -6 8 11 18 -10 -11 -12 12 17 14 -16 24 -18 25 -20 -21 -22 -23 -24 -25 28 27 -28 -29 -30
leaf_value=-0.018584406806067343 -0.0011415559655198685 -0.0010401260999164412 -0.036214003111952199 -0.0039810250128578884 0.020547808044486578 0.011099789075313076 -0.010947464653872885 0.0079229001994602956 -0.0029378320271462146 -0.015523616636970215 0.0012444242835044862 0.011905982651348625 -0.0053375097473376786 -0.014884548374296478 0.00059882841094143022 0.0073602071621765705 -0.0023185007308798265 0.0072427789098583164 -0.0022447906168123993 0.0060958227058025925 -0.0001766737806610763 0.0028175477598172925 -0.0088358059292659163 -0.008420631624758243 0.016339304456637511 0.0033252768658308522 0.011964662961902158 -0.0014794786331809261 0.01213126360172672
leaf_weight=21 39 35 26 23 27 31 24 26 24 35 26 21 29 24 22 30 21 22 26 33 20 36 20 20 31 27 31 28 28
leaf_count=21 39 35 26 23 27 31 24 26 24 35 26 21 29 24 22 30 21 22 26 33 20 36 20 20 31 27 31 28 28
internal_value=0 0.0518781 -0.163657 -0.421685 0.133451 0.110036 -0.0549358 -0.0764609 0.169674 -0.162673 -0.150962 0.00428812 0.0477065 -0.219202 -0.149589 0.201548 0.113617 0.0099831 0.0567811 0.0157705 -0.121033 -0.022722 -0.0749955 -0.0744789 0.239651 0.0539476 0.194004 0.0175844 0.286845
internal_weight=0 612 194 49 347 320 265 145 196 94 93 171 127 67 46 172 52 106 52 124 44 91 59 55 120 77 61 55 59
internal_count=806 612 194 49 347 320 265 145 196 94 93 171 127 67 46 172 52 106 52 124 44 91 59 55 120 77 61 55 59
shrinkage=0.05


Tree=33
num_leaves=31
num_cat=0
split_feature=12 0 23 25 13 1 35 35 35 25 0 20 19 25 30 12 24 24 34 26 12 12 13 8 0 25 35 30 12 34
split_gain=6.19943 4.94446 3.20644 2.00812 1.99835 1.95587 1.85704 1.70306 1.41302 1.13817 1.1154 0.95142 0.940826 1.17122 0.841371 0.635211 0.620721 0.550659 0.537807 0.50368 0.463544 0.354113 0.350531 0.332801 0.294605 0.271789 0.248763 0.210926 0.162615 0.141282
threshold=63.500000000000007 61.500000000000007 0.025934176281773923 1.5652746208758039 81.527044688165219 2.5000000000000004 2351.4666666666672 3014.6666666666674 5722.8750000000009 1.5316965904194644 7.5000000000000009 0.26171370274988459 216.08700641002898 1.4409828910614528 214.34280386805679 40.500000000000007 2.6410261509470847 3.4641708580246839 211.71860698113002 13.347312388717564 197.50000000000003 188.50000000000003 75.015847340224312 0.70710678118655779 339.00000000000006 1.4116010976899027 3770.3750000000005 181.90338895810501 229.00000000000003 238.08698642387063
decision_type=2 2 2 2 2 2 2 2 2 2 2 2 2 2 2 2 2 2 2 2 2 2 2 2 2 2 2 2 2 2
left_child=2 5 4 7 12 8 16 19 11 10 23 -2 -1 -14 17 -15 -7 18 -9 22 25 -10 -3 27 28 -12 -27 -8 -20 -22
right_child=1 3 -4 -5 -6 6 9 14 21 -11 20 -13 13 15 -16 -17 -18 -19 24 -21 29 -23 -24 -25 -26 26 -28 -29 -30 -31
leaf_value=0.0070671335258521142 -0.0080741718135498193 0.004812573263975415 -0.027206533969867799 0.021816709211894447 -0.016827759965125359 -0.0031745834799949083 0.0005579538690555539 0.0045120978450042112 -0.0060874505032023248 0.013473817436024547 -0.0031630433452803463 -0.02246243065223098 -0.015529223997145892 -0.0085070211063360875 -0.0011965969183837018 0.00232859590078557 -0.015482529305985995 0.0015869839466176928 0.0091866729768511849 -0.0073174609741545292 0.01095843602987853 0.0029897969482200488 -0.0032753394825184457 -0.0092269984411541377 0.016982264395641246 -0.0009148093289695681 0.0056484112141853464 -0.0055394704013293529 0.013350767745460207 0.0051519808545708659
leaf_weight=20 27 37 21 21 33 20 37 31 22 20 21 20 20 21 21 38 21 20 64 20 22 21 21 20 23 22 42 23 37 20
leaf_count=20 27 37 21 21 33 20 37 31 22 20 21 20 20 21 21 38 21 20 64 20 22 21 21 20 23 22 42 23 37 20
internal_value=0 0.0424519 -0.181184 0.138311 -0.123442 -0.0365381 0.00629529 0.11547 -0.164087 0.0416724 0.0196623 -0.283937 -0.0524046 -0.101455 0.165204 -0.030563 -0.189573 0.187901 0.208051 -0.00950414 0.0779226 -0.0330875 0.0376838 -0.0728259 0.237503 0.035455 0.0678461 -0.0355878 0.214243 0.163869
internal_weight=0 653 153 295 132 358 268 274 90 227 207 47 99 79 196 59 41 175 155 78 127 43 58 80 124 85 64 60 101 42
internal_count=806 653 153 295 132 358 268 274 90 227 207 47 99 79 196 59 41 175 155 78 127 43 58 80 124 85 64 60 101 42
shrinkage=0.05


Tree=34
num_leaves=30
num_cat=0
split_feature=19 0 25 0 35 1 24 35 35 25 1 35 33 12 21 12 13 0 33 10 28 35 8 1 30 9 21 17 19
split_gain=5.95393 5.82337 5.79742 2.23176 2.34901 1.86111 1.43807 1.09765 1.01033 0.968691 0.908906 1.24595 0.799262 0.787158 0.560475 0.529726 0.501119 0.423439 0.374388 0.35608 0.309625 0.279345 0.259419 0.251867 0.252986 0.22437 0.168662 0.142868 0.0242965
threshold=675.84350948765211 140.50000000000003 1.1185889063044236 3.5000000000000004 3020.1666666666674 2.5000000000000004 1.9734582491079327 3109.4166666666674 7750.0000000000009 1.5579366225141664 3.5000000000000004 7145.8333333333348 30.505801786804618 158.00000000000003 13.598079949511794 235.00000000000003 70.423739736939694 30.500000000000004 30.678212915043805 0.49999999999997796 0.011696982254373238 4452.0833333333348 0.49999999999998984 2.5000000000000004 155.05643291426446 0.3517978653467933 13.525030634064946 28.87906638546578 263.22775881534227
decision_type=2 2 2 2 2 2 2 2 2 2 2 2 2 2 2 2 2 2 2 2 2 2 2 2 2 2 2 2 2
left_child=1 2 -1 -4 13 8 -3 23 16 12 11 25 17 14 19 20 -6 22 -15 -5 -14 -19 27 -8 -25 -9 -12 -7 -23
right_child=-2 6 3 4 5 9 7 10 -10 -11 26 -13 15 18 -16 -17 -18 21 -20 -21 -22 28 -24 24 -26 -27 -28 -29 -30
leaf_value=-0.023648569318626463 -0.022244146973665418 0.019288797891931608 -0.012199750393091773 -0.0090760018575029126 -0.0019291571430152374 0.0082654884729820959 -0.0037473916448652746 -0.0033387718188654016 0.0027585444317476172 0.015299526375019924 0.011804774979827926 0.012463196692988277 0.0010705139830379802 0.0030041231623138577 -0.015186261586932231 0.0066044841446969461 -0.011809468124005379 0.0044348253391771801 -0.0056171877356246116 -0.0021801031944859361 -0.0058386293016449223 0.012744736566673964 -0.00065105203054069243 -0.00088113676534876942 0.006791272070470521 0.0038318783184513451 0.017657931260764599 0.0031183146906966744 0.010361882542138516
leaf_weight=29 29 24 39 39 21 26 20 24 37 20 32 36 34 34 20 23 33 21 20 36 31 20 24 21 22 20 20 28 23
leaf_count=29 29 24 39 39 21 26 20 24 37 20 32 36 34 34 20 23 33 21 20 36 31 20 24 21 22 20 20 28 23
internal_value=0 0.0166044 -0.0376308 -0.0137653 0.0045591 0.050327 0.154793 0.126364 -0.0721228 0.0948987 0.178196 0.111296 0.0765428 -0.100185 -0.154984 0.0016598 -0.159342 0.122949 -0.0037791 -0.115319 -0.0444923 0.183234 0.0734847 0.0177639 0.0608856 -0.00158771 0.28112 0.111932 0.229404
internal_weight=0 777 558 529 490 341 219 195 91 250 132 80 230 149 95 88 54 142 54 75 65 64 78 63 43 44 52 54 43
internal_count=806 777 558 529 490 341 219 195 91 250 132 80 230 149 95 88 54 142 54 75 65 64 78 63 43 44 52 54 43
shrinkage=0.05


Tree=35
num_leaves=31
num_cat=0
split_feature=12 0 19 25 25 35 1 19 30 35 21 12 35 1 12 8 12 0 18 13 21 0 33 0 31 10 22 12 25 31
split_gain=5.41867 4.0012 3.58823 4.09787 1.84487 1.55499 1.42987 1.22786 1.51754 1.18736 1.19647 0.927706 0.744193 0.951918 0.742392 0.773339 0.427396 0.338309 0.327662 0.323817 0.320995 0.282367 0.219439 0.206685 0.203662 0.155741 0.141828 0.12094 0.0867418 0.0567874
threshold=74.500000000000014 19.500000000000004 332.30130831184135 1.4429214972008151 1.5579366225141664 2326.4333333333338 1.5000000000000002 224.86859677215668 195.62570550942476 3359.8000000000006 13.529856510514913 48.000000000000007 5359.8500000000013 3.5000000000000004 335.50000000000006 0.86602540378444959 149.50000000000003 6.5000000000000009 232.84046648550728 78.819757369810844 13.347180455281821 129.50000000000003 30.92756574994231 216.00000000000003 13767.753226419429 3.7728406123287307e-14 -0.10630945037932528 139.00000000000003 1.4421293230058507 13439.782584239285
decision_type=2 2 2 2 2 2 2 2 2 2 2 2 2 2 2 2 2 2 2 2 2 2 2 2 2 2 2 2 2 2
left_child=2 9 7 -4 5 21 -7 20 11 10 18 -9 13 22 15 17 29 25 -2 24 -1 -3 28 -18 27 -11 -19 -14 -8 -15
right_child=1 4 3 -5 -6 6 12 8 -10 14 -12 -13 19 16 -16 -17 23 26 -20 -21 -22 -23 -24 -25 -26 -27 -28 -29 -30 -31
leaf_value=0.0084612407989334316 0.00096918495304028828 -0.0073322327621281151 -0.032578787868484282 -0.0036055694982085537 0.017939079387320412 -0.0046262112657617155 8.9480411261320115e-05 -0.0082999642484968428 -0.016710991125840409 -0.0051689229734862849 -0.015890684962893527 0.0026773591033326322 0.0072063715837430214 0.0058855953678721568 0.0078484407858923078 -0.010931180298211985 0.0085544965940674671 0.0062593583425041288 -0.0072929511836264289 0.0053634541275511894 -0.00029095718954605138 -8.1119031227868185e-05 -0.0031578986665139115 0.014834097772836686 0.015249447954388765 0.00017452986188436627 0.00050221865024903552 0.011842167256947827 0.0045072741284966468 0.0021177232430636649
leaf_weight=20 24 25 26 23 27 30 20 38 26 30 30 39 24 20 23 20 38 20 24 28 22 29 27 20 26 25 23 34 25 20
leaf_count=20 24 25 26 23 27 30 20 38 26 30 30 39 24 20 23 20 38 20 24 28 22 29 27 20 26 25 23 34 25 20
internal_value=0 0.0461641 -0.145631 -0.379582 0.106524 0.0879143 0.115031 -0.0665715 -0.125333 -0.0621522 -0.161152 -0.0548004 0.137112 0.095415 -0.00738663 -0.039422 0.159555 -0.00285025 -0.0632377 0.200402 0.0775351 -0.0687623 0.00811339 0.214398 0.231446 -0.0548016 0.0635992 0.198478 0.0508762 0.0800332
internal_weight=0 612 194 49 393 366 312 145 103 219 78 77 282 170 141 118 98 98 48 112 42 54 72 58 84 55 43 58 45 40
internal_count=806 612 194 49 393 366 312 145 103 219 78 77 282 170 141 118 98 98 48 112 42 54 72 58 84 55 43 58 45 40
shrinkage=0.05


Tree=36
num_leaves=31
num_cat=0
split_feature=19 24 0 12 35 1 25 12 2 1 22 35 0 12 24 29 30 29 12 0 12 19 18 15 13 23 33 35 13 22
split_gain=5.0958 5.05552 4.35251 2.01642 1.99214 2.78697 1.50144 1.19298 0.98694 0.960402 0.879967 0.755588 0.687249 0.51015 0.488261 0.469382 0.464491 0.368937 0.327928 0.313834 0.299128 0.280873 0.271668 0.224779 0.216106 0.193233 0.179645 0.174436 0.173586 0.165428
threshold=675.84350948765211 3.5018982658754561 15.500000000000002 108.50000000000001 5987.6000000000013 4.5000000000000009 1.7099415338935062 63.500000000000007 2.5000000000000004 1.5000000000000002 -0.098370339675577609 1980.0666666666668 179.00000000000003 222.50000000000003 2.3039938785008611 0.23809724924850126 175.82800724309041 0.24505761057263467 116.50000000000001 183.50000000000003 133.50000000000003 228.68334244447655 232.39022321428573 956.00000000000011 73.439452192828114 0.014822915758835485 29.853302005227548 4143.166666666667 60.417057496946306 -0.11332760197928103
decision_type=2 2 2 2 2 2 2 2 2 2 2 2 2 2 2 2 2 2 2 2 2 2 2 2 2 2 2 2 2 2
left_child=1 2 6 -3 5 9 7 10 -9 -4 -1 23 18 15 -6 -10 24 20 -7 22 -18 -17 -16 -11 28 -23 -15 -20 -13 -19
right_child=-2 3 4 -5 14 12 -8 8 13 11 -12 16 -14 26 19 21 17 29 27 -21 -22 25 -24 -25 -26 -27 -28 -29 -30 -31
