tree
version=v3
num_class=1
num_tree_per_iteration=1
label_index=0
max_feature_idx=35
objective=regression
feature_names=Column_0 Column_1 Column_2 Column_3 Column_4 Column_5 Column_6 Column_7 Column_8 Column_9 Column_10 Column_11 Column_12 Column_13 Column_14 Column_15 Column_16 Column_17 Column_18 Column_19 Column_20 Column_21 Column_22 Column_23 Column_24 Column_25 Column_26 Column_27 Column_28 Column_29 Column_30 Column_31 Column_32 Column_33 Column_34 Column_35
feature_infos=[2:500] [1:6] [0:23] [0:23] [1:7] [1:7] [0:1] [0:1] [-1:1] [-0.9999533615201901:0.99999998260297063] [-1:1] [-0.9999533615201901:0.9997533958313618] [30:474] [51.198572830651038:101.78029538623399] [51.60980634736309:101.98591214459002] [300:2500] [1.3434065934065933:1.5888157894736843] [0:89.684294871794876] [0:903.26635514018687] [54.372712356915649:1138.0554989293762] [0.20888121334754814:0.29239885472489185] [12.887404123409217:14.251260504201682] [-0.17490679824596808:-0.030477997979942554] [-0.058044791479289357:0.080918861054415744] [1.744202420397599:4.0777385159010597] [1.0268907563025209:1.8271276595744681] [12.264865073004733:14.009596677452848] [-0.34791470352025644:-0.071562156261160179] [-0.00018499130811489711:0.077529824421025684] [0.18077169761751849:0.26719241079007411] [103.34501093310698:244.46882254211138] [9162.9349492232504:15386.599851150248] [1.2314575194355701:1.7162184184971254] [24.095732446518237:35.479002013320468] [152.87779866978451:451.71227330708223] [806.75:15426]
tree_sizes=2633 2684 2605 2687 2687 2687 2691 2691 2618 2686 2696 2532 2691 2704 2704 2609 2628 2625 2632 2625 2710 2630 2722 2714 2718 2712 2720 2733 2643 2718 2715 2748 2729 2734 2737 2737 2732 2737 2748 2743 2665 2748 2584 2505 2763 2760 2755 2686 2763 2781 2758 2687 2758 2766 2772 2785 2701 2768 2686 2780 2700 2788 2790 2776 2794 2691 2783 2784 2794 2771 2780 2786 2787 2789 2698 2788 2805 2813 2790 2802 2813 2813 2788 2721 2794 2815 2798 2737 2818 2784 2725 2633 2817 2812 2825 2811 2644 2816 2736 2815

Tree=0
num_leaves=31
num_cat=0
split_feature=0 35 25 25 35 12 12 19 30 12 0 1 0 12 16 24 12 19 33 1 25 19 19 5 0 0 3 8 18 0
split_gain=179.603 60.9936 33.5625 30.9967 28.0149 15.0578 13.4316 11.4278 10.7229 10.4529 9.78831 6.46653 6.26425 6.18751 4.97593 4.88765 4.59501 3.76963 3.34729 2.79837 2.5393 2.47005 2.02446 1.86196 1.83866 1.33068 1.14812 1.05318 0.938791 0.810505
threshold=27.500000000000004 3629.5000000000005 1.1827308010693593 1.2047057537706751 3359.8000000000006 61.000000000000007 88.000000000000014 464.60792786399185 214.34280386805679 66.000000000000014 10.500000000000002 4.5000000000000009 95.500000000000014 74.500000000000014 1.4508845196098779 2.7517563041418325 88.000000000000014 273.16524694292735 28.339357907638423 2.5000000000000004 1.434608986223237 254.62991911022633 242.44709401163189 5.5000000000000009 101.50000000000001 6.5000000000000009 13.500000000000002 -5.6349227276692945e-14 232.46406542056079 221.50000000000003
decision_type=2 2 2 2 2 2 2 2 2 2 2 2 2 2 2 2 2 2 2 2 2 2 2 2 2 2 2 2 2 2
left_child=2 6 -1 -3 9 17 15 10 12 -4 13 20 22 -6 -11 -2 -12 -5 -14 -15 -8 29 -7 27 -22 26 -21 -16 -24 -20
right_child=1 3 4 5 7 8 11 -9 -10 14 16 -13 18 19 23 -17 -18 -19 21 25 24 -23 28 -25 -26 -27 -28 -29 -30 -31
leaf_value=-2.2059443309789719 -2.1303612119022732 -2.1431339900556701 -2.189901209868887 -2.0877595290716489 -2.1508627445353152 -2.068695426872551 -2.1335604897021376 -2.1657057063735774 -2.1052547662835481 -2.1737673846883281 -2.126951789584731 -2.0943825205186752 -2.0787658337212851 -2.1402705038407301 -2.1360678273893643 -2.1620648515678695 -2.0967484069149473 -2.1163994360846874 -2.0558156018413354 -2.132049533096164 -2.1257912254519979 -2.0647930151728886 -2.0952835598949093 -2.1587003885167091 -2.1064656423818766 -2.1117324967051405 -2.1167782685242345 -2.149615783874379 -2.0809911183722067 -2.0415809144533923
leaf_weight=21 31 20 23 20 36 22 24 20 23 22 20 36 25 28 32 20 34 27 20 32 20 59 20 24 32 23 20 26 27 20
leaf_count=21 31 20 23 20 36 22 24 20 23 22 20 36 25 28 32 20 34 27 20 32 20 59 20 24 32 23 20 26 27 20
internal_value=0 0.42443 -0.524365 0.705086 -0.448587 0.796351 -0.0628453 -0.226937 0.907967 -0.82033 -0.152373 0.130862 0.984882 -0.29274 -0.685414 -0.488242 0.208942 0.283394 1.11927 -0.168007 -0.0345134 1.20184 0.743369 -0.572115 0.0896672 -0.0672943 -0.155881 -0.475183 0.626178 1.39367
internal_weight=0 446 361 283 340 263 163 213 216 127 193 112 193 139 104 51 54 47 124 103 76 99 69 82 52 75 52 58 47 40
internal_count=807 446 361 283 340 263 163 213 216 127 193 112 193 139 104 51 54 47 124 103 76 99 69 82 52 75 52 58 47 40
shrinkage=1


Tree=1
num_leaves=31
num_cat=0
split_feature=0 35 25 24 35 12 12 19 12 30 0 1 0 19 19 12 24 12 33 19 25 1 19 13 5 0 8 2 13 18
split_gain=162.091 55.0467 30.2901 28.0365 25.3191 13.3807 12.122 10.6878 10.03 8.786 8.21068 5.83604 5.70642 5.01649 4.90804 4.90267 4.4111 4.147 3.31826 2.51853 2.29171 2.27437 1.75227 1.74739 1.43836 1.34052 1.31189 0.824958 0.760477 0.432666
threshold=27.500000000000004 3629.5000000000005 1.1827308010693593 3.5199396176019397 3664.7500000000005 71.000000000000014 88.000000000000014 464.60792786399185 66.000000000000014 214.34280386805679 10.500000000000002 4.5000000000000009 95.500000000000014 268.36756322903415 351.01394717884324 74.500000000000014 2.7517563041418325 88.000000000000014 28.339357907638423 254.62991911022633 1.434608986223237 2.5000000000000004 236.60916516495911 77.003476004332597 5.5000000000000009 6.5000000000000009 -5.6349227276692945e-14 10.500000000000002 73.816416249814168 230.80398170731709
decision_type=2 2 2 2 2 2 2 2 2 2 2 2 2 2 2 2 2 2 2 2 2 2 2 2 2 2 2 2 2 2
left_child=2 6 -1 5 8 13 16 10 -4 12 15 20 22 -3 24 -6 -2 -12 -14 -20 -8 -17 -7 -22 26 27 -10 -23 -24 -21
right_child=1 3 4 -5 7 9 11 -9 14 -11 17 -13 18 -15 -16 21 -18 -19 19 29 23 25 28 -25 -26 -27 -28 -29 -30 -31
leaf_value=-0.083184293622062325 -0.01138032681774348 0.035467976225273951 -0.06670942032337189 -0.023577548265457157 -0.029582506453152746 0.048056313693523409 -0.014419640655008456 -0.044957598093897107 -0.015282586397712723 0.013040613826541675 -0.0081413750769570477 0.022799430259813867 0.037635282143950462 0.0045564627311458546 -0.05109893035888672 -0.019845560406921089 -0.041498785167932511 0.020551838227273786 0.068507738080289635 0.045911521712938948 0.011505279313132633 -0.013914047546374301 0.024890684595124592 -0.0073345429403707391 -0.036265987592438861 0.0078063840623058024 -0.030045144301321769 -0.00093602907564491037 0.037577191527400702 0.05494225025177002
leaf_weight=21 31 21 25 20 34 20 24 20 34 21 20 36 25 35 25 27 20 34 36 21 32 24 27 20 24 21 27 25 21 36
leaf_count=21 31 21 25 20 34 20 24 20 34 21 20 36 25 35 25 27 20 34 36 21 32 24 27 20 24 21 27 25 21 36
internal_value=0 0.403208 -0.498147 0.669832 -0.426157 0.756629 -0.059703 -0.204708 -0.762432 0.873949 -0.129633 0.124319 0.943174 0.322966 -0.632488 -0.264891 -0.46383 0.198494 1.07614 1.16308 -0.0327877 -0.150358 0.71244 0.0851839 -0.517932 -0.0552582 -0.436337 -0.145852 0.608821 1.0323
internal_weight=0 446 361 283 340 263 163 205 135 207 185 112 186 56 110 131 51 54 118 93 76 97 68 52 85 70 61 49 48 57
internal_count=807 446 361 283 340 263 163 205 135 207 185 112 186 56 110 131 51 54 118 93 76 97 68 52 85 70 61 49 48 57
shrinkage=0.05


Tree=2
num_leaves=30
num_cat=0
split_feature=0 35 19 25 19 25 35 12 30 0 0 12 12 12 12 24 8 0 1 19 13 18 25 12 24 9 1 22 19
split_gain=146.747 55.3827 27.3588 24.7334 14.1588 13.9781 12.7347 12.4969 9.52354 8.17271 7.67831 6.91288 5.08491 4.86367 4.23365 3.82125 3.57254 2.90926 2.6856 2.36583 2.20913 1.93893 1.67232 1.65135 1.69724 1.34565 0.87107 0.789297 0.688188
threshold=20.500000000000004 3864.8666666666672 333.28939055933461 1.2047057537706751 319.46339670868389 1.4498908296943234 3046.7500000000005 61.000000000000007 214.34280386805679 49.500000000000007 107.00000000000001 99.500000000000014 99.500000000000014 81.500000000000014 154.50000000000003 2.1793879938007321 -0.2588190451025304 9.5000000000000018 2.5000000000000004 256.05619867793206 68.367572153379413 213.6103372434018 1.4559312812378968 118.50000000000001 2.7038950427173485 0.051041004283905976 3.5000000000000004 -0.11350960911795213 266.46877675597301
decision_type=2 2 2 2 2 2 2 2 2 2 2 2 2 2 2 2 2 2 2 2 2 2 2 2 2 2 2 2 2
left_child=2 4 6 -3 10 14 13 16 9 28 21 19 -12 -1 -4 -11 -5 22 -17 -8 -14 -2 -13 -20 -25 -15 -23 -24 -9
right_child=1 3 5 7 -6 -7 11 8 -10 15 12 17 20 25 -16 18 -18 -19 23 -21 -22 26 27 24 -26 -27 -28 -29 -30
leaf_value=-0.055871791392564776 -0.019775120828948594 -0.021761157514438745 -0.088197298385202891 0.025950581199772983 -0.031184589747633593 -0.02881558930767434 -0.012275052175391467 0.032041183960708701 0.010290540218353272 0.065397328883409503 -0.0031853745370171967 -0.018103478735555772 0.03532046688099702 -0.035020475256545794 -0.05674278230770774 0.032722376817555139 -0.0011018220063236256 0.01380865230140361 0.037355798821557651 -0.033042101160390303 0.013385233261876487 -0.009360837744100502 0.0052907403685491195 0.061568146850913767 0.046031275563515155 -0.019916123294581971 0.0027488586083618985 -0.006730287951439904 0.020223881503833193
leaf_weight=20 23 21 20 23 38 35 24 22 25 28 25 23 24 29 23 33 26 22 22 32 22 27 22 32 39 30 33 36 28
leaf_count=20 23 21 20 23 38 35 24 22 25 28 25 23 24 29 23 33 26 22 22 32 22 27 22 32 39 30 33 36 28
internal_value=0 0.342099 -0.531552 0.611228 -0.0770146 -1.04553 -0.363105 0.690277 0.788352 0.859742 0.0578797 -0.200054 0.299305 -0.691269 -1.42746 0.973791 0.231925 -0.0463075 0.899534 -0.482839 0.496594 -0.14864 -0.133895 0.986501 1.06068 -0.546806 -0.0540101 -0.0434118 0.50847
internal_weight=0 491 316 299 192 78 238 278 229 204 154 159 71 79 43 154 49 103 126 56 46 83 81 93 71 59 60 58 50
internal_count=807 491 316 299 192 78 238 278 229 204 154 159 71 79 43 154 49 103 126 56 46 83 81 93 71 59 60 58 50
shrinkage=0.05


Tree=3
num_leaves=31
num_cat=0
split_feature=0 35 25 24 19 35 12 25 30 12 12 0 12 0 1 19 33 1 0 19 19 24 13 20 0 9 0 0 35 17
split_gain=132.563 44.9617 25.4976 22.937 21.2592 17.1997 10.9356 10.573 7.13902 6.96454 6.65537 5.70264 5.34078 4.73473 4.59764 4.25855 3.1842 2.53555 2.43468 1.87568 1.72049 1.60636 1.33918 1.39977 1.2149 1.27657 0.92015 0.79723 0.608133 0.29905
threshold=27.500000000000004 3629.5000000000005 1.1827308010693593 3.5199396176019397 492.83229308974654 3844.9333333333338 71.000000000000014 1.3018616383599981 214.34280386805679 66.000000000000014 84.500000000000014 10.500000000000002 88.000000000000014 76.500000000000014 4.5000000000000009 268.36756322903415 28.304258510797371 2.5000000000000004 9.5000000000000018 255.88479193144832 266.46877675597301 2.4469403009213821 77.140553843236617 0.25751590456950507 6.5000000000000009 -0.0049222640154256946 220.50000000000003 5.5000000000000009 4998.3666666666677 28.834461966604827
decision_type=2 2 2 2 2 2 2 2 2 2 2 2 2 2 2 2 2 2 2 2 2 2 2 2 2 2 2 2 2 2
left_child=2 7 -1 6 5 9 15 -2 13 -4 18 17 -9 20 22 -3 -15 -12 -7 26 -8 -11 23 -14 25 -23 -18 29 -21 -19
right_child=1 3 4 -5 -6 10 8 12 -10 21 11 -13 14 16 -16 -17 19 27 -20 28 -22 24 -24 -25 -26 -27 -28 -29 -30 -31
leaf_value=-0.075992924968401598 -0.031917654310997863 0.032403730175324851 -0.05583872035855339 -0.021338702980428934 -0.058695372545550906 -0.028161824669908075 0.037610905120770144 -0.0130732381322703 0.011874055791468848 -0.013224529005587102 -0.018981972308113024 0.017731261641408005 0.015445466932247987 0.031504105776548386 0.024215733604476999 0.0039229989884396283 0.052269197255373004 -0.00026984179858118295 -0.0073619924417774501 0.03871626902371645 0.019202116211156615 -0.041897631809115411 -0.0080634693139775959 -0.0028311923798173665 -0.02116038170013879 -0.024443814903497698 0.066901493072509768 0.0069849274789347592 0.049159800293652911 -0.0088128155585201016
leaf_weight=21 26 21 21 20 31 34 30 38 21 25 26 36 22 25 33 35 22 20 24 20 22 22 24 20 37 20 21 23 46 21
leaf_count=21 26 21 21 20 31 34 30 38 21 25 26 36 22 25 33 35 22 20 24 20 22 22 24 20 37 20 21 23 46 21
internal_value=0 0.364637 -0.450493 0.605602 -0.384444 -0.305242 0.68411 -0.0537263 0.79017 -0.591486 -0.110784 0.018251 0.0572247 0.852571 0.17955 0.292065 0.95196 -0.116299 -0.3911 1.02579 0.596451 -0.485418 0.0271676 0.134846 -0.555331 -0.671726 1.1883 -0.00931645 0.919902 -0.0929102
internal_weight=0 446 361 283 340 309 263 163 207 125 184 126 137 186 99 56 134 90 58 109 52 104 66 42 79 42 43 64 66 41
internal_count=807 446 361 283 340 309 263 163 207 125 184 126 137 186 99 56 134 90 58 109 52 104 66 42 79 42 43 64 66 41
shrinkage=0.05


Tree=4
num_leaves=31
num_cat=0
split_feature=0 35 19 25 19 12 35 0 25 0 12 30 35 12 12 0 24 19 24 13 0 35 35 17 9 19 24 24 12 18
split_gain=120.267 46.9216 22.0484 19.3223 13.5099 12.1011 10.5449 9.10756 8.4922 7.09778 5.04002 4.46509 4.89504 4.19935 3.55784 3.24944 3.1167 2.36337 2.21958 1.83996 1.79655 1.58609 1.55175 1.61593 1.40711 1.15246 1.01536 0.557154 0.539972 0.398622
threshold=15.500000000000002 3864.8666666666672 340.19550328223266 1.2047057537706751 319.46339670868389 61.000000000000007 3038.4000000000005 76.500000000000014 1.4393503222026951 107.00000000000001 99.500000000000014 193.28668877948613 6749.1250000000009 99.500000000000014 88.000000000000014 99.500000000000014 2.4820143367275267 256.05619867793206 2.7153875046094353 68.367572153379413 4.5000000000000009 6112.5000000000009 3061.9750000000004 28.513132183908048 0.051041004283905976 214.73456096716396 2.5475367410832179 2.5999214041343452 163.50000000000003 248.08634603750758
decision_type=2 2 2 2 2 2 2 2 2 2 2 2 2 2 2 2 2 2 2 2 2 2 2 2 2 2 2 2 2 2
left_child=2 4 6 -3 9 15 14 16 -4 22 17 18 -13 -11 -1 -5 -7 -8 25 -15 -12 -18 23 27 -16 -9 -22 -2 -27 -28
right_child=1 3 8 5 -6 7 10 11 -10 13 20 12 -14 19 24 -17 21 -19 -20 -21 26 -23 -24 -25 -26 28 29 -29 -30 -31
leaf_value=-0.051438557729125027 -0.022014986488806166 -0.01956946026697378 -0.067301141843199727 -0.0067971493416864957 -0.030646876606326076 0.038941363493601486 -0.010151191328821536 0.064205737411975869 -0.032713265958914738 -0.002513249943032861 -0.012833458869991935 0.017421822582061094 0.04935612089931965 0.032519927558799587 -0.035171249523758892 0.018514911554666471 0.010145283666880507 -0.031579197612741298 0.038980302900860186 0.012501203353432092 0.0097974132098581496 0.025672031065513346 0.0048089088184670326 -0.0011008582629815297 -0.018709175771585217 0.043953670206524076 -0.0083799015171825888 -0.010604269979521633 0.055292310743104846 0.001483302279597237
leaf_weight=20 23 21 35 21 39 21 22 20 36 25 34 30 20 24 25 32 38 31 38 22 23 29 21 27 27 21 20 20 21 21
leaf_count=20 23 21 35 21 39 21 22 20 36 25 34 30 20 24 25 32 38 31 38 22 23 29 21 27 27 21 20 20 21 21
internal_value=0 0.292247 -0.509942 0.534991 -0.0845493 0.601844 -0.355419 0.698075 -0.995273 0.0426552 -0.205262 0.847908 0.603911 0.279626 -0.670333 0.169712 0.442677 -0.453691 0.969906 0.458915 -0.0709073 0.337316 -0.142234 -0.213758 -0.532473 1.08654 0.0277787 -0.334154 0.99246 -0.0665603
internal_weight=0 513 294 312 201 291 223 238 71 162 151 150 50 71 72 53 88 53 100 46 98 67 91 70 52 62 64 43 42 41
internal_count=807 513 294 312 201 291 223 238 71 162 151 150 50 71 72 53 88 53 100 46 98 67 91 70 52 62 64 43 42 41
shrinkage=0.05


Tree=5
num_leaves=31
num_cat=0
split_feature=0 35 19 25 19 25 35 12 30 0 0 12 12 12 12 0 24 8 1 8 30 18 16 0 25 12 21 1 19 17
split_gain=108.678 40.7094 20.615 18.1715 11.0437 10.0257 9.99468 9.22173 7.24193 6.09275 5.88942 4.81908 4.39285 3.78992 3.77394 3.51789 3.15195 3.01098 2.23648 1.7559 1.71052 1.49031 1.47351 1.44119 1.24943 1.20817 1.07683 0.704802 0.60829 0.573855
threshold=20.500000000000004 3864.8666666666672 340.19550328223266 1.2047057537706751 319.46339670868389 1.4498908296943234 3664.7500000000005 61.000000000000007 214.34280386805679 49.500000000000007 107.00000000000001 61.000000000000007 81.500000000000014 99.500000000000014 154.50000000000003 6.5000000000000009 2.1793879938007321 -0.2588190451025304 2.5000000000000004 0.25881904510255227 159.42081855234872 213.6103372434018 1.4812754065040652 236.50000000000003 1.4721428046300005 246.50000000000003 13.345195175142534 3.5000000000000004 261.46891547769451 28.860945170147271
decision_type=2 2 2 2 2 2 2 2 2 2 2 2 2 2 2 2 2 2 2 2 2 2 2 2 2 2 2 2 2 2
left_child=2 4 6 -3 10 14 12 17 9 -9 21 -8 -1 -12 -4 26 -11 -5 -18 24 -15 -2 -17 25 -14 29 -13 -23 -28 -20
right_child=1 3 5 7 -6 -7 11 8 -10 16 13 15 19 20 -16 22 18 -19 23 -21 -22 27 -24 -25 -26 -27 28 -29 -30 -31
leaf_value=-0.047392506832661836 -0.017154548483212358 -0.018590987351490184 -0.07762505454011262 0.023135982275657035 -0.027386869636584862 -0.025382318760966884 -0.026146337908825708 0.021805057175457478 0.0084577196817845115 0.057067686425788071 -0.0023875875547528271 -0.0004166517878184095 -0.026595155522227288 0.011278484176312175 -0.047615065696564596 0.015755138672888282 0.027338636702342864 -0.0016994128290277262 0.039443420052528384 -0.033984534679488705 0.030635253630578521 -0.008176072555835601 -0.001780952250018068 0.052754900634288796 -0.010350500679061075 0.048686074217160542 -0.0081689283373239246 0.0027167488199969134 -0.019234265095588787 0.028371098773045972
leaf_weight=23 23 21 20 23 38 34 28 50 25 28 25 20 20 21 22 25 33 26 25 22 25 27 23 25 29 21 23 33 27 22
leaf_count=23 23 21 20 23 38 34 28 50 25 28 25 20 20 21 22 25 33 26 25 22 25 27 23 25 29 21 23 33 27 22
internal_value=0 0.2944 -0.457437 0.525139 -0.0649289 -0.911324 -0.313707 0.592895 0.677144 0.739397 0.0542057 -0.149962 -0.568033 0.265645 -1.23811 -0.0614622 0.83787 0.19916 0.770429 -0.444994 0.435969 -0.126664 0.147049 0.849791 -0.339619 0.774311 -0.204441 -0.0437004 -0.282884 0.685213
internal_weight=0 491 316 299 192 76 240 278 229 204 154 146 94 71 42 118 154 49 126 71 46 83 48 93 49 68 70 60 50 47
internal_count=807 491 316 299 192 76 240 278 229 204 154 146 94 71 42 118 154 49 126 71 46 83 48 93 49 68 70 60 50 47
shrinkage=0.05


Tree=6
num_leaves=31
num_cat=0
split_feature=0 35 19 25 25 19 1 35 25 0 35 16 0 12 16 11 0 24 12 0 0 12 12 12 25 0 35 0 34 33
split_gain=98.3216 38.3015 17.9635 15.7656 11.0979 9.95487 8.74703 8.71646 7.36977 6.47554 5.9698 5.7659 4.57954 4.2778 3.87227 3.11681 2.91812 2.80761 2.97631 1.90781 1.84199 1.54927 1.4974 1.43423 1.10549 0.984012 0.83305 0.614848 0.484651 0.154462
threshold=15.500000000000002 3864.8666666666672 340.19550328223266 1.2047057537706751 1.2208222516909537 463.8742262642923 2.5000000000000004 3038.4000000000005 1.4075824367042722 49.500000000000007 7716.5000000000009 1.4526776425301708 235.00000000000003 73.000000000000014 1.4532838656670435 0.22124383531930938 119.50000000000001 2.1706849279189151 118.50000000000001 28.500000000000004 5.5000000000000009 149.50000000000003 120.50000000000001 151.50000000000003 1.4740795378689147 151.50000000000003 6112.5000000000009 152.50000000000003 254.05403831732716 30.332402117801752
decision_type=2 2 2 2 2 2 2 2 2 2 2 2 2 2 2 2 2 2 2 2 2 2 2 2 2 2 2 2 2 2
left_child=2 4 7 -3 -2 6 10 15 -4 23 -5 -6 19 -9 -10 22 -12 -11 27 -13 24 28 -1 -8 -15 -20 -22 -19 -21 -27
right_child=1 3 8 5 11 -7 9 13 14 17 16 12 -14 20 -16 -17 -18 18 25 21 26 -23 -24 -25 -26 29 -28 -29 -30 -31
leaf_value=-0.048944736719131472 -0.038206196833579315 -0.017661437973202694 -0.068998486413197085 0.0019792523302245312 -0.016811924742964598 -0.0051402304998852989 0.012460848756341472 -0.023766445655277687 -0.045836097747087481 0.057217346714890531 0.015636298975441606 -0.012503016432747245 0.02001729137893464 -0.02010523346718401 -0.01723802087828517 -0.017728043964196898 0.042322618833609993 0.021374597661197189 0.037820222508162263 0.001899671288440004 -0.0026543517870938078 0.011400253558531404 -0.03023819116794545 0.029451839868789131 -0.0055823028139696512 0.052690651267766953 0.01001159935258329 0.033244842818627759 -0.0085428635962307466 0.046476522535085683
leaf_weight=20 21 21 22 39 39 22 27 38 29 23 20 25 37 20 20 29 21 20 32 25 34 34 23 23 38 20 21 24 20 20
leaf_count=20 21 21 22 39 39 22 27 38 29 23 20 25 37 20 20 29 21 20 32 25 34 34 23 23 38 20 21 24 20 20
internal_value=0 0.264243 -0.461076 0.483558 -0.0761878 0.543945 0.596839 -0.321601 -0.899148 0.714158 0.319673 0.00407138 0.0981996 -0.185081 -0.683268 -0.607913 0.586098 0.825174 0.761889 -0.00929467 -0.0874755 0.066897 -0.778778 0.405534 -0.211804 0.887108 0.0436348 0.556986 -0.0548291 0.991672
internal_weight=0 513 294 312 201 291 269 223 71 189 80 180 141 151 49 72 41 139 116 104 113 79 43 50 58 72 55 44 45 40
internal_count=807 513 294 312 201 291 269 223 71 189 80 180 141 151 49 72 41 139 116 104 113 79 43 50 58 72 55 44 45 40
shrinkage=0.05


Tree=7
num_leaves=31
num_cat=0
split_feature=0 35 25 24 35 12 12 12 12 30 1 0 19 24 24 0 0 24 25 34 18 21 1 20 0 19 12 0 12 35
split_gain=89.202 30.0558 18.5011 15.4345 15.1046 8.63841 7.76859 6.69403 6.3786 5.02332 4.4967 3.84473 4.49957 3.61209 3.56488 3.55312 3.30195 3.2992 2.86218 2.10738 1.51639 1.81452 1.51235 1.2037 1.25896 1.15404 1.05414 1.0091 0.737198 0.601139
threshold=27.500000000000004 3629.5000000000005 1.1827308010693593 3.5199396176019397 3664.7500000000005 81.500000000000014 71.000000000000014 66.000000000000014 90.500000000000014 214.34280386805679 4.5000000000000009 8.5000000000000018 274.19558340358896 2.1425217557954563 2.6819318431020656 11.500000000000002 76.500000000000014 2.7541397134469947 1.4422736193643353 214.85166132681113 212.99697008113594 13.52377633221626 2.5000000000000004 0.25751590456950507 6.5000000000000009 248.12104928668637 242.50000000000003 168.50000000000003 218.50000000000003 6142.1250000000009
decision_type=2 2 2 2 2 2 2 2 2 2 2 2 2 2 2 2 2 2 2 2 2 2 2 2 2 2 2 2 2 2
left_child=2 5 -1 6 7 18 14 -4 11 13 20 12 -6 -8 -3 22 29 23 -2 -18 -7 -22 -10 -9 -25 -24 27 -21 -27 -15
right_child=1 3 4 -5 8 10 9 17 15 -11 -12 -13 -14 16 -16 -17 19 -19 -20 26 21 -23 25 24 -26 28 -28 -29 -30 -31
leaf_value=-0.06402253551142556 -0.034566452875733379 0.020907637368266785 -0.052005240857601165 -0.01753703273832798 -0.012001480049608897 -0.012601278234400194 0.051002161105473835 -0.0099648826156875925 -0.015686777042225004 0.0093153394972129416 0.019854842729142144 -0.0052340653642507584 -0.044358534315092998 0.013925642971880734 -0.0054204872064292434 0.01457312014574806 0.022657906530763619 -0.038524933849219928 -0.0096106878412818477 0.027459002489393411 0.0094781850741521741 -0.0089233715353267528 0.0081456909607037567 -0.030128589079582265 -0.014996608758897143 -0.010497472155839205 0.047209515189751985 0.040981335152645376 0.0011748432259385787 0.025778219071419348
leaf_weight=21 20 36 25 20 21 22 30 28 25 21 36 30 22 20 20 30 22 27 27 22 37 21 22 28 27 31 32 37 24 23
leaf_count=21 20 36 25 20 21 22 30 28 25 21 36 30 22 20 20 30 22 27 27 22 37 21 22 28 27 31 32 37 24 23
internal_value=0 0.299114 -0.369542 0.496128 -0.31328 -0.042941 0.560529 -0.573012 -0.142238 0.649921 0.103595 -0.379436 -0.571125 0.702265 0.230095 -0.01106 0.641154 -0.466854 -0.404603 0.7309 -0.0284815 0.0563111 -0.100037 -0.368078 -0.454003 -0.0306546 0.798047 0.718782 -0.108082 0.405308
internal_weight=0 446 361 283 340 163 263 135 205 207 116 73 43 186 56 132 156 110 47 113 80 58 102 83 55 77 91 59 55 43
internal_count=807 446 361 283 340 163 263 135 205 207 116 73 43 186 56 132 156 110 47 113 80 58 102 83 55 77 91 59 55 43
shrinkage=0.05


Tree=8
num_leaves=30
num_cat=0
split_feature=0 25 35 19 25 35 0 1 35 12 12 12 12 24 12 8 1 12 27 35 1 35 0 25 19 25 12 0 0
split_gain=80.533 24.0712 21.5025 19.6629 11.9695 11.2219 6.64048 6.57493 6.01495 5.21337 4.29548 4.20883 3.59722 3.5157 3.6248 3.10114 2.65459 1.81153 1.64981 1.64515 1.50131 1.48626 1.21741 1.57371 1.02874 0.978457 0.703333 0.614014 0.607988
threshold=35.500000000000007 1.1827308010693593 3170.6500000000005 319.46339670868389 1.4393503222026951 3844.9333333333338 12.500000000000002 2.5000000000000004 7716.5000000000009 66.000000000000014 88.000000000000014 149.50000000000003 61.000000000000007 2.1706849279189151 116.50000000000001 0.25881904510257409 4.5000000000000009 119.50000000000001 -0.14323680850731083 1816.7500000000002 2.5000000000000004 4909.9000000000005 15.500000000000002 1.4792427007299274 231.28381046488113 1.4912621029771065 131.50000000000003 119.50000000000001 5.5000000000000009
decision_type=2 2 2 2 2 2 2 2 2 2 2 2 2 2 2 2 2 2 2 2 2 2 2 2 2 2 2 2 2
left_child=3 -2 10 5 11 9 12 8 26 -1 -3 -5 -7 -9 18 -6 25 -8 -15 -11 -14 -16 23 -21 -22 -12 -4 -23 -26
right_child=1 2 7 4 15 6 17 13 -10 19 16 -13 20 14 21 -17 -18 -19 -20 22 24 27 -24 -25 28 -27 -28 -29 -30
leaf_value=-0.042266457446891337 -0.028025597364717998 -0.011903010160466167 -0.0046808256953954699 -0.070500102359801531 -0.0083072801390963232 -0.025940835577520457 0.0016672976105473936 0.048703956552620595 0.031032829638570548 -0.028885871581733225 -0.003543169871078466 -0.040468599407800607 -0.013510118348390929 0.0080152651853859416 0.027940817010637959 -0.033192516340031508 0.020597132815626161 0.020737652198383305 0.026017224091504306 -0.023891210747773159 0.0094483249044666692 0.034161142395301297 -0.0036774364672601222 -0.0075501036124758407 -0.0079663963027996939 0.010069832287130836 0.0085793901607394227 0.044820992180279323 0.002982508708235054
leaf_weight=23 29 38 20 20 31 22 20 29 32 20 33 28 28 20 38 21 29 33 35 34 21 22 25 26 32 22 20 35 21
leaf_count=23 29 38 20 20 31 22 20 29 32 20 33 28 28 20 38 21 29 33 35 34 21 22 25 26 32 22 20 35 21
internal_value=0 0.317077 0.385308 -0.314728 -0.699538 -0.188561 -0.025443 0.552699 0.297506 -0.414123 0.0409204 -1.05963 -0.152074 0.655347 0.593725 -0.367142 0.167126 0.270826 0.389421 -0.319668 -0.0729726 0.712007 -0.258951 -0.336201 0.00165482 0.0380406 0.0389856 0.814133 -0.072563
internal_weight=0 402 373 405 100 305 177 251 72 128 122 48 124 179 150 52 84 53 55 105 102 95 85 60 74 55 40 57 53
internal_count=807 402 373 405 100 305 177 251 72 128 122 48 124 179 150 52 84 53 55 105 102 95 85 60 74 55 40 57 53
shrinkage=0.05


Tree=9
num_leaves=31
num_cat=0
split_feature=0 35 19 24 19 19 12 0 12 35 0 30 35 12 35 3 1 15 12 24 20 12 1 24 35 17 35 8 12 0
split_gain=73.1241 28.5568 14.0058 11.3916 9.51821 8.27954 6.86651 6.77652 6.30483 4.88179 4.69615 4.43302 3.87641 3.79436 2.88493 2.26563 2.027 1.96572 1.95526 1.95277 1.65392 1.62395 1.23294 1.20142 1.0232 1.21402 0.937012 0.625019 0.596627 0.447762
threshold=15.500000000000002 3864.8666666666672 340.19550328223266 3.5018982658754561 319.46339670868389 463.8742262642923 66.000000000000014 76.500000000000014 135.50000000000003 4513.0833333333348 107.00000000000001 193.28668877948613 6663.2083333333348 79.500000000000014 1958.9000000000003 11.500000000000002 3.5000000000000004 950.00000000000011 116.50000000000001 2.3685733525055093 0.25751590456950507 109.50000000000001 2.5000000000000004 2.5128530852356703 3020.1666666666674 28.483238636363641 6184.7083333333348 0.25881904510247467 135.50000000000003 231.50000000000003
decision_type=2 2 2 2 2 2 2 2 2 2 2 2 2 2 2 2 2 2 2 2 2 2 2 2 2 2 2 2 2 2
left_child=2 4 6 5 10 7 15 13 -4 16 24 19 -13 -3 -12 -1 -8 -10 -16 -9 -18 -21 -15 -11 25 -2 -24 -22 -25 -23
right_child=1 3 8 -5 -6 -7 9 11 17 23 14 12 -14 22 18 -17 20 -19 -20 21 27 29 26 28 -26 -27 -28 -29 -30 -31
leaf_value=-0.042377018118682115 -0.01415752905420959 -0.0015640301331877708 -0.05715318920797316 -0.014702236408456451 -0.025479073077440264 -0.0060618994249538941 -0.026460843083785018 0.051455270573496817 -0.016024377684862839 0.0091823482197587909 -0.0024315134932597479 0.0099950899044051779 0.037589265108108526 0.01091948722799619 0.007527474198667776 -0.019366840748116374 0.00028834170196205381 -0.037658325405347914 0.02804028271482541 0.024849023141207235 -0.011225225194357336 0.035734268989075314 0.019531829391830957 -0.0092441438999958346 0.0036318527175235038 -0.00058286997040600649 0.033399996161460881 -0.023575711185112598 0.0007277067502339681 0.044343029934427014
leaf_weight=23 40 25 29 21 39 22 36 20 21 23 24 35 20 21 21 20 20 21 26 31 21 44 29 30 23 28 21 20 30 23
leaf_count=23 40 25 29 21 39 22 36 20 21 23 24 35 20 21 21 20 20 21 26 31 21 44 29 30 23 28 21 20 30 23
internal_value=0 0.227881 -0.39763 0.417254 -0.0660701 0.468585 -0.274473 0.516823 -0.784445 -0.188707 0.0407011 0.635056 0.400587 0.303757 0.233456 -0.633492 -0.341045 -0.536827 0.3775 0.744343 -0.229992 0.686228 0.421727 -0.0106745 -0.10969 -0.171359 0.507129 -0.344997 -0.0851644 0.77379
internal_weight=0 513 294 312 201 291 223 269 71 180 162 173 55 96 71 43 97 42 47 118 61 98 71 83 91 68 50 41 60 67
internal_count=807 513 294 312 201 291 223 269 71 180 162 173 55 96 71 43 97 42 47 118 61 98 71 83 91 68 50 41 60 67
shrinkage=0.05


Tree=10
num_leaves=31
num_cat=0
split_feature=0 25 35 25 19 35 0 1 35 12 12 24 12 12 1 1 12 35 1 27 16 0 25 8 0 12 27 35 10 33
split_gain=66.1029 20.1579 17.487 16.2232 15.3583 11.3475 5.82442 5.52825 5.00634 4.63599 3.73618 2.977 3.03551 2.78133 2.47212 2.378 2.27651 1.59069 1.67168 1.43549 1.29102 1.02445 0.824366 0.764215 0.722783 0.620504 0.47162 0.44844 0.347795 0.17499
threshold=35.500000000000007 1.1827308010693593 3170.6500000000005 1.1827308010693593 492.83229308974654 3844.9333333333338 12.500000000000002 2.5000000000000004 7716.5000000000009 66.000000000000014 88.000000000000014 2.1706849279189151 116.50000000000001 61.000000000000007 2.5000000000000004 4.5000000000000009 99.500000000000014 1804.2500000000002 2.5000000000000004 -0.14323680850731083 1.4538098044351322 151.50000000000003 1.4912621029771065 0.25881904510253567 5.5000000000000009 131.50000000000003 -0.13624950718474363 6184.7083333333348 0.2588190451025788 30.332402117801752
decision_type=2 2 2 2 2 2 2 2 2 2 2 2 2 2 2 2 2 2 2 2 2 2 2 2 2 2 2 2 2 2
left_child=3 -2 10 -1 5 9 13 8 25 -5 -3 -9 19 -7 -15 22 -8 -11 -19 -13 -14 -22 -12 28 -20 -4 -26 -18 -16 -23
right_child=1 2 7 4 -6 6 16 11 -10 17 15 12 20 14 23 -17 27 18 24 -21 21 29 -24 -25 26 -27 -28 -29 -30 -31
leaf_value=-0.055039969281010008 -0.025791109526722596 -0.011052412324045835 -0.0046870171080809087 -0.039049233429133891 -0.044405105190746717 -0.022398659778991716 -0.0010237377631710843 0.044404148438881186 0.0280737689929083 -0.027851914649917965 -0.0032648989272825988 0.0068701795861124994 0.021028762725181879 -0.015275307990271936 0.0010799738211613712 0.019427572695763205 0.013007378142501694 -0.024825435119088402 -0.015558679820138165 0.023662177742059743 0.028908917526988421 0.043835268134162546 0.0092303002512463452 -0.0058210446016996042 -0.0096390283373953695 0.0077679390087723732 0.00041390006430447101 0.023468768366035963 0.0091960259078239844 0.037300291135907174
leaf_weight=23 29 38 20 25 33 24 24 29 32 21 33 20 20 33 33 29 20 22 28 35 34 21 22 28 28 20 20 21 22 20
leaf_count=23 29 38 20 25 33 24 24 29 32 21 33 20 20 33 33 29 20 22 28 35 34 21 22 28 28 20 20 21 22 20
internal_value=0 0.287268 0.349707 -0.28514 -0.23603 -0.174373 -0.0232457 0.500662 0.266661 -0.389519 0.0391365 0.594785 0.538081 -0.138099 -0.0739867 0.156839 0.22413 -0.307279 -0.253759 0.35112 0.646321 0.70652 0.0346636 0.0180632 -0.183489 0.0308092 -0.109006 0.367313 0.0865279 0.812949
internal_weight=0 402 373 405 382 349 205 251 72 144 122 179 150 140 116 84 65 119 98 55 95 75 55 83 76 40 48 41 55 41
internal_count=807 402 373 405 382 349 205 251 72 144 122 179 150 140 116 84 65 119 98 55 95 75 55 83 76 40 48 41 55 41
shrinkage=0.05


Tree=11
num_leaves=29
num_cat=0
split_feature=0 35 19 24 19 19 25 35 1 35 0 0 12 12 21 12 35 21 1 0 34 17 24 19 29 0 12 22
split_gain=60.0683 22.412 12.0901 9.45907 7.27329 6.29934 6.2685 6.02739 5.26346 4.32513 3.69106 3.4665 3.23396 2.99001 2.97137 2.44842 2.43656 1.77425 1.64508 1.58423 1.44985 1.02711 0.94436 0.824708 0.803553 0.662394 0.559959 0.534351
threshold=20.500000000000004 3864.8666666666672 340.19550328223266 3.5018982658754561 319.46339670868389 463.8742262642923 1.4075824367042722 3038.4000000000005 2.5000000000000004 7716.5000000000009 107.00000000000001 186.50000000000003 99.500000000000014 94.500000000000014 13.70271654412015 145.50000000000003 1958.9000000000003 13.363481973486666 3.5000000000000004 5.5000000000000009 243.95801686568043 24.127920110192843 2.5393930050003513 231.28381046488113 0.24803803753766313 77.500000000000014 149.50000000000003 -0.12057698257023387
decision_type=2 2 2 2 2 2 2 2 2 2 2 2 2 2 2 2 2 2 2 2 2 2 2 2 2 2 2 2
left_child=2 4 7 5 10 8 -4 15 9 -3 21 13 17 -10 -8 20 -12 -9 -18 27 -1 -2 -21 -15 -13 -25 -23 -14
right_child=1 3 6 -5 -6 -7 14 12 11 -11 16 24 19 23 -16 -17 18 -19 -20 22 -22 26 -24 25 -26 -27 -28 -29
leaf_value=-0.020713991917331111 -0.013974206835370174 0.0010399599191977791 -0.055520628827313581 -0.012853464322342051 -0.021978041141195909 -0.0050847182422876364 -0.037049308091402056 -0.0037855377642526515 0.011457381669768237 0.025056340122545092 -0.0021456633461639286 0.032741636462095713 -0.00085471066413447263 0.037586736381053927 -0.013127267091854099 -0.012144472341969959 0.0078796776092570752 -0.021981761551688656 0.026592662899444505 0.013563288224949725 -0.038313453197479252 -0.0055010625686762599 -1.2734566222537646e-07 0.02059038705386532 0.04382157365481059 0.031012403844825683 0.004186008016740044 -0.011478208464465971
leaf_weight=22 22 38 24 21 38 20 25 21 36 37 24 36 20 20 27 32 23 37 24 21 25 35 33 30 30 31 26 29
leaf_count=22 22 38 24 21 38 20 25 21 36 37 24 36 20 20 27 32 23 37 24 21 25 35 33 30 30 31 26 29
internal_value=0 0.218871 -0.340082 0.390075 -0.0477436 0.438961 -0.687675 -0.230011 0.480872 0.257761 0.0489386 0.572311 -0.119001 0.46894 -0.492565 -0.456245 0.216327 -0.307869 0.348705 -0.012648 -0.601508 -0.094249 0.105491 0.575514 0.755559 0.517736 -0.0274429 -0.142842
internal_weight=0 491 316 299 192 278 76 240 258 75 154 183 161 117 52 79 71 58 47 103 47 83 54 81 66 61 61 49
internal_count=807 491 316 299 192 278 76 240 258 75 154 183 161 117 52 79 71 58 47 103 47 83 54 81 66 61 61 49
shrinkage=0.05


Tree=12
num_leaves=31
num_cat=0
split_feature=0 35 19 24 25 12 12 12 0 35 16 0 0 30 3 1 15 24 1 20 24 35 12 24 35 8 12 19 8 31
split_gain=54.4321 21.1697 10.4587 8.21062 7.65803 6.77152 5.47114 5.39616 3.95471 3.80979 3.77587 3.02769 2.49849 2.20255 1.963 1.73391 1.65287 1.57934 1.48956 1.36279 1.32274 1.10619 1.00516 0.968067 0.908201 0.562682 0.517555 0.516381 0.505626 0.252944
threshold=15.500000000000002 3864.8666666666672 340.19550328223266 3.5018982658754561 1.2208222516909537 73.000000000000014 135.50000000000003 66.000000000000014 76.500000000000014 4513.0833333333348 1.4485766324878577 235.00000000000003 183.50000000000003 193.28668877948613 11.500000000000002 3.5000000000000004 950.00000000000011 2.4820143367275267 2.5000000000000004 0.25751590456950507 2.7053346429865521 1958.9000000000003 114.50000000000001 2.5128530852356703 6101.0000000000009 0.25881904510247467 135.50000000000003 220.3030059113336 0.50000000000002165 13361.722889982639
decision_type=2 2 2 2 2 2 2 2 2 2 2 2 2 2 2 2 2 2 2 2 2 2 2 2 2 2 2 2 2 2
left_child=2 4 7 5 -2 12 -4 14 17 15 -6 21 -3 20 -1 -9 -8 -7 -15 -17 27 -12 -23 -11 -19 -21 -25 -10 -22 -24
right_child=1 3 6 -5 10 8 16 9 13 23 11 -13 -14 18 -16 19 -18 24 -20 25 28 22 29 26 -26 -27 -28 -29 -30 -31
leaf_value=-0.037707384805316518 -0.031397183616423893 -0.0025334028243968213 -0.050569791089871835 -0.012210791061321896 -0.013974022482094976 0.027756504751741885 -0.012414122727655229 -0.02346112331789401 0.044813168403648199 0.0085548795192785885 -0.0087357286297317076 0.016239218747145252 0.017067736538191294 0.011351318086456993 -0.016289049581391737 0.0010765679040923716 -0.032251971090833352 0.0059249804411647903 0.029157808516174555 -0.0091271398419935628 0.021088456809520723 -0.0036072845433783884 0.0043784052764143178 -0.0081537704771229378 0.01805330726221718 -0.020845554289408028 0.0011338090244680642 0.034895596163613457 0.03233151871711016 0.011991966282948852
leaf_weight=23 21 37 29 21 36 20 21 36 21 23 28 38 29 23 20 20 21 33 24 21 20 34 24 30 29 20 30 35 20 20
leaf_count=23 21 37 29 21 36 20 21 36 21 23 28 38 29 23 20 20 21 33 24 21 20 34 24 30 29 20 30 35 20 20
internal_value=0 0.19661 -0.343065 0.35966 -0.0564818 0.403238 -0.677327 -0.23664 0.485857 -0.16061 0.0101887 0.082606 0.121584 0.58625 -0.554907 -0.295186 -0.446661 0.310781 0.40888 -0.192475 0.673088 -0.00421265 0.0569932 -0.00333412 0.231958 -0.296869 -0.0701996 0.772294 0.5342 0.156782
internal_weight=0 513 294 312 201 291 71 223 225 180 180 144 66 143 43 97 42 82 47 61 96 106 78 83 62 41 60 56 40 44
internal_count=807 513 294 312 201 291 71 223 225 180 180 144 66 143 43 97 42 82 47 61 96 106 78 83 62 41 60 56 40 44
shrinkage=0.05


Tree=13
num_leaves=31
num_cat=0
split_feature=0 25 35 25 19 35 1 0 35 12 12 24 1 12 1 12 12 35 1 27 31 31 26 12 2 25 29 0 35 12
split_gain=49.5552 15.5511 12.8772 12.7556 11.9879 8.82412 4.27355 4.21787 3.87484 3.83182 3.1817 2.42133 2.34755 2.31911 2.02684 1.73722 1.57428 1.38215 1.3221 1.1796 1.10949 1.08615 1.03637 0.811064 0.73064 0.640192 0.635403 0.506168 0.340377 0.339028
threshold=35.500000000000007 1.1827308010693593 3170.6500000000005 1.1827308010693593 492.83229308974654 3844.9333333333338 2.5000000000000004 12.500000000000002 7771.0000000000009 66.000000000000014 88.000000000000014 2.1706849279189151 2.5000000000000004 116.50000000000001 4.5000000000000009 99.500000000000014 68.500000000000014 1804.2500000000002 2.5000000000000004 -0.14323680850731083 13706.686392248836 13168.865023399196 13.424851493478146 127.50000000000001 6.5000000000000009 1.4912621029771065 0.25165403270636905 8.5000000000000018 6184.7083333333348 218.50000000000003
decision_type=2 2 2 2 2 2 2 2 2 2 2 2 2 2 2 2 2 2 2 2 2 2 2 2 2 2 2 2 2 2
left_child=3 -2 10 -1 5 9 8 12 23 -5 -3 -8 22 19 25 -9 -14 -11 -19 -13 21 -15 -7 -4 -18 -12 27 -20 -17 -26
right_child=1 2 6 4 -6 7 11 15 -10 17 14 13 16 20 -16 28 24 18 26 -21 -22 -23 -24 -25 29 -27 -28 -29 -30 -31
leaf_value=-0.048506919132626579 -0.022832621826693933 -0.010152216187041057 -0.0051858265440733664 -0.034724181311205027 -0.038971782690196327 -0.0078557646297849719 0.039018780134361365 -0.0009380087063618703 0.02549265850463818 -0.024831563913972961 -0.0027604143107027718 0.0053786699473857879 -0.014118801476433874 0.030963554126875743 0.017979869140354227 0.011331527088768781 -0.0067113312333822259 -0.021490536393089732 -0.016198147519025954 0.020600604239319052 0.033313505304977301 0.015674972218962815 -0.023952095825225117 0.0085517731156538844 0.0014639923520582288 0.0082508736586367534 -0.001585988430971546 -0.0059291793382726613 0.020445699626136394 0.0092633704485541035
leaf_weight=23 29 38 21 25 33 20 29 24 29 21 33 20 20 21 29 20 20 22 24 35 48 26 20 22 38 22 28 24 21 22
leaf_count=23 29 38 21 25 33 20 29 24 29 21 33 20 20 21 29 20 20 22 24 35 48 26 20 22 38 22 28 24 21 22
internal_value=0 0.248727 0.303569 -0.246884 -0.203338 -0.148864 0.433107 -0.0155957 0.227368 -0.338586 0.0370586 0.515863 -0.113333 0.464724 0.145677 0.194916 -0.0314354 -0.263818 -0.21393 0.301307 0.559333 0.450121 -0.318079 0.0368543 0.0312998 0.032882 -0.151438 -0.221273 0.319995 0.0864753
internal_weight=0 402 373 405 382 349 251 205 72 144 122 179 140 150 84 65 100 119 98 55 95 47 40 43 80 55 76 48 41 60
internal_count=807 402 373 405 382 349 251 205 72 144 122 179 140 150 84 65 100 119 98 55 95 47 40 43 80 55 76 48 41 60
shrinkage=0.05


Tree=14
num_leaves=31
num_cat=0
split_feature=0 25 35 25 19 35 12 0 12 12 24 12 1 35 30 1 20 0 11 35 1 31 0 20 12 18 8 33 21 12
split_gain=44.7236 14.0348 11.6217 11.5119 10.8191 7.97617 4.00783 3.75525 3.55445 2.87279 2.67309 2.45554 2.22524 2.19529 2.19071 1.69575 1.4823 1.39321 1.35696 1.17158 1.15303 1.117 1.05334 0.736946 0.711426 0.667802 0.559827 0.559426 0.510528 0.476654
threshold=35.500000000000007 1.1827308010693593 3170.6500000000005 1.1827308010693593 492.83229308974654 3963.5666666666671 71.000000000000014 5.5000000000000009 66.000000000000014 116.50000000000001 2.0674719380585747 56.500000000000007 2.5000000000000004 7716.5000000000009 199.47101013936938 3.5000000000000004 0.26026846842115875 231.50000000000003 -0.76648234048506902 1958.9000000000003 2.5000000000000004 13706.686392248836 107.00000000000001 0.25168195046772002 135.50000000000003 250.28817791762017 0.25881904510255227 30.435080738873694 13.512024961507626 151.50000000000003
decision_type=2 2 2 2 2 2 2 2 2 2 2 2 2 2 2 2 2 2 2 2 2 2 2 2 2 2 2 2 2 2
left_child=3 -2 9 -1 5 8 15 14 -5 16 -8 -9 13 -12 24 -4 -3 21 -10 -11 -13 25 -21 -20 -7 -14 28 29 -25 -22
right_child=1 2 6 4 -6 7 10 11 18 19 12 20 17 -15 -16 -17 -18 -19 23 22 27 -23 -24 26 -26 -27 -28 -29 -30 -31
leaf_value=-0.046081572511921763 -0.021690990544598679 0.0011603741215602044 0.00033250385373509656 -0.032987971543334431 -0.037023193304511634 -0.0080516903674887393 0.040340954607183288 -0.011071281683689449 -0.024271816592663528 -0.00096972756553441279 0.0028460519280857767 -0.00034510367710528702 0.011827134494004507 0.024306474727663129 -0.022076723331828481 0.017917688950323141 -0.014864311470753616 0.033487472743601414 -0.0014261301071383061 0.0051507426606258386 0.010329335310066549 0.028142824862152339 0.020687465214480959 -0.0058642842161871905 0.0038327132025733589 0.023622275205949943 -0.018562661367468536 0.0057267499846164827 -0.015227782089884082 0.02059645786881447
leaf_weight=23 29 31 29 25 33 34 22 20 20 20 26 29 28 22 23 26 27 37 20 20 26 40 24 37 20 21 24 27 24 20
leaf_count=23 29 31 29 25 33 34 22 20 20 20 26 29 28 22 23 26 27 37 20 20 26 40 24 37 20 21 24 27 24 20
internal_value=0 0.23629 0.28839 -0.23454 -0.193171 -0.141421 0.411452 -0.0101696 -0.315548 0.0352057 0.47839 0.098964 0.436864 0.253642 -0.183083 0.17291 -0.125988 0.506663 -0.246705 0.181287 0.161786 0.438863 0.272506 -0.201233 -0.0730012 0.337644 -0.24187 0.228798 -0.190966 0.295866
internal_weight=0 402 373 405 382 349 251 199 150 122 196 122 174 48 77 55 58 126 125 64 102 89 44 105 54 49 85 73 61 46
internal_count=807 402 373 405 382 349 251 199 150 122 196 122 174 48 77 55 58 126 125 64 102 89 44 105 54 49 85 73 61 46
shrinkage=0.05


Tree=15
num_leaves=30
num_cat=0
split_feature=0 35 19 12 19 25 12 12 30 19 35 25 0 21 24 12 0 15 34 1 1 8 18 12 0 12 12 20 17
split_gain=40.8101 15.7784 7.79664 6.6531 6.18775 4.90489 4.81797 4.71082 3.8591 3.85052 2.91179 2.8837 2.85412 2.04852 1.92988 1.83966 1.51804 1.34551 1.29049 1.13122 1.1205 0.771831 0.701948 0.680245 0.642662 0.490428 0.37682 0.343662 0.193581
threshold=15.500000000000002 3864.8666666666672 340.19550328223266 53.500000000000007 319.46339670868389 1.5723692154703983 63.500000000000007 135.50000000000003 214.34280386805679 297.05096569596873 4513.0833333333348 1.4209891872978488 107.00000000000001 13.461766402015988 2.0674719380585747 204.00000000000003 76.500000000000014 950.00000000000011 246.40626717628933 3.5000000000000004 2.5000000000000004 0.2588190451025561 213.6103372434018 159.50000000000003 5.5000000000000009 163.50000000000003 135.50000000000003 0.25134382921247556 28.483238636363641
decision_type=2 2 2 2 2 2 2 2 2 2 2 2 2 2 2 2 2 2 2 2 2 2 2 2 2 2 2 2 2
left_child=2 4 5 13 12 6 -1 -4 9 14 19 -11 22 -3 -5 18 26 -9 -14 -8 -18 -21 -2 -13 -12 -22 -16 -24 -29
right_child=1 3 7 8 -6 -7 10 17 -10 11 24 23 15 -15 16 -17 20 -19 -20 21 25 -23 27 -25 -26 -27 -28 28 -30
leaf_value=-0.0286368324911516 -0.011105920679867268 0.0082311120966915043 -0.044782210322867694 0.037802875430687617 -0.020292861241465197 0.013366441279649735 -0.02231976683357392 -0.0096315514357272723 0.00081287406584514043 -0.0051379201843658288 -0.0061801212447646419 0.010872568670575592 0.01102442810119226 -0.014128159487708694 0.01124994823924051 0.021823795263965926 0.017546580346035106 -0.027530140338820366 -0.0052506602191854093 -0.0060744608918737088 0.025314157445811565 -0.018025985006666322 0.0040134873551627001 0.023044645576737823 0.0030774997968881115 0.033687831702477793 0.019539528237334614 -0.0073992558615282172 -0.0007995785400271415
leaf_weight=38 25 20 29 23 39 20 33 21 28 21 38 22 29 21 26 21 28 21 21 35 36 22 21 24 37 34 29 20 25
leaf_count=38 25 20 29 23 39 20 33 21 28 21 38 22 29 21 26 21 28 21 21 35 36 22 21 24 37 34 29 20 25
internal_value=0 0.17024 -0.297052 0.311005 -0.0482604 -0.205164 -0.251715 -0.585656 0.367804 0.408311 -0.177783 0.20429 0.0378278 -0.064424 0.485979 0.188097 0.445378 -0.371617 0.0837778 -0.299051 0.52 -0.213747 -0.0794152 0.344464 -0.0322606 0.587627 0.312416 -0.025361 -0.0746554
internal_weight=0 513 294 312 201 223 203 71 271 243 165 67 162 41 176 71 153 42 50 90 98 57 91 46 75 70 55 66 45
internal_count=807 513 294 312 201 223 203 71 271 243 165 67 162 41 176 71 153 42 50 90 98 57 91 46 75 70 55 66 45
shrinkage=0.05


Tree=16
num_leaves=30
num_cat=0
split_feature=0 25 19 25 35 35 0 1 35 0 12 16 8 12 12 12 25 0 1 1 22 20 19 12 12 18 12 10 3
split_gain=37.0564 12.8177 10.5959 8.48905 8.3878 7.14116 4.71718 3.56582 3.63477 3.42255 2.22164 2.20392 2.13578 1.99986 1.84445 1.73442 1.62179 1.39239 0.977966 0.841812 0.752486 0.620408 0.611311 0.688867 0.608847 0.589427 0.527901 0.452484 0.38015
threshold=64.500000000000014 1.1827308010693593 492.83229308974654 1.1827308010693593 4331.5000000000009 3014.6666666666674 12.500000000000002 2.5000000000000004 7771.0000000000009 7.5000000000000009 102.00000000000001 1.4332069580731492 0.25881904510254422 61.000000000000007 99.500000000000014 118.50000000000001 1.4721428046300005 151.50000000000003 3.5000000000000004 2.5000000000000004 -0.10067297094267459 0.2585013278308082 179.78516015162589 127.50000000000001 121.50000000000001 241.59433016877639 246.50000000000003 -5.8308662155328701e-14 13.500000000000002
decision_type=2 2 2 2 2 2 2 2 2 2 2 2 2 2 2 2 2 2 2 2 2 2 2 2 2 2 2 2 2
left_child=1 -1 4 -2 9 14 13 8 21 12 -8 -9 16 -6 -5 25 -3 24 -16 -15 -12 -7 -19 -24 -13 -11 28 -17 -21
right_child=3 2 -4 5 6 7 10 11 -10 15 20 17 -14 19 18 27 -18 22 -20 26 -22 -23 23 -25 -26 -27 -28 -29 -30
leaf_value=-0.041899836808443072 -0.01604061124380678 -0.023277789238840343 -0.033008223860007194 -0.0087314510395607135 -0.017196264360909878 0.007135114287534221 0.0013600315517661248 0.008789163844829256 0.024777949515443584 -0.018116397023774111 0.023735753791751687 0.01340169330815906 -0.029929143106264457 -0.0083879502403929277 0.00057473990600556137 -0.0046214031344600798 -0.0063945986316398242 0.036600557932009302 0.013567643171797199 -0.0047147834931300691 0.011567821574863047 -0.0047393069221553482 0.02059708698264634 0.031533038036690823 0.02413852651333136 -0.0073638002946972841 0.0086360169108957059 0.004211180484331823 0.0038608181406743825
leaf_weight=28 24 25 36 26 23 22 33 22 26 26 27 23 31 27 28 29 33 24 30 28 24 22 24 36 31 25 21 29 24
leaf_count=28 24 25 36 26 23 22 33 22 26 26 27 23 31 27 28 29 33 24 30 28 24 22 24 36 31 25 21 29 24
internal_value=0 -0.181914 -0.140258 0.25242 -0.0940445 0.296234 0.0467041 0.387371 0.199124 -0.241191 0.229375 0.469728 -0.38669 -0.0780466 0.0466915 -0.122389 -0.273437 0.516589 0.145904 -0.0168945 0.360193 0.0239581 0.597127 0.543173 0.391309 -0.25691 0.0389047 -0.00410223 -0.0151363
internal_weight=0 469 441 338 405 314 207 230 70 198 84 160 89 123 84 109 58 138 58 100 51 44 84 60 54 51 73 58 52
internal_count=807 469 441 338 405 314 207 230 70 198 84 160 89 123 84 109 58 138 58 100 51 44 84 60 54 51 73 58 52
shrinkage=0.05


Tree=17
num_leaves=30
num_cat=0
split_feature=0 35 25 19 12 25 19 25 35 30 24 1 0 24 1 0 1 35 12 12 35 8 23 23 18 26 12 18 0
split_gain=33.4795 12.4373 7.84925 6.63763 5.35693 4.71765 5.04593 4.6222 3.76869 3.50507 2.85343 2.41589 2.54741 1.7573 1.92274 2.1545 1.71184 1.6523 1.46094 0.866026 0.78617 0.756144 0.669744 0.616667 0.551809 0.543855 0.510347 0.343807 0.285473
threshold=20.500000000000004 3864.8666666666672 1.2844387755102045 492.83229308974654 50.500000000000007 1.4302347009964593 319.46339670868389 1.5723692154703983 3664.7500000000005 214.34280386805679 2.1425217557954563 2.5000000000000004 221.50000000000003 3.475121124473481 1.5000000000000002 76.500000000000014 3.5000000000000004 6153.8333333333339 80.500000000000014 135.50000000000003 4518.6666666666679 3.4788015844060482e-14 0.017372657902378987 0.010454226931127988 229.97701968588643 13.190788553397857 246.50000000000003 216.98303125000004 231.50000000000003
decision_type=2 2 2 2 2 2 2 2 2 2 2 2 2 2 2 2 2 2 2 2 2 2 2 2 2 2 2 2 2
left_child=2 5 -1 7 -3 6 23 8 18 10 -6 -7 25 14 -12 27 17 -10 -4 -18 -17 -19 24 -2 -20 -13 28 -16 -22
right_child=1 4 3 -5 9 11 -8 -9 16 -11 13 12 -14 -15 15 20 19 21 22 -21 26 -23 -24 -25 -26 -27 -28 -29 -30
leaf_value=-0.038476099349834307 0.0036771419877186422 -0.00354223821179605 -0.029662846913561226 -0.033890575125675511 0.032892374601215128 -0.0071542755134303034 -0.032343323384834963 0.01408157992092046 -0.018226634791918675 0.00030073984193482569 0.004178431378455744 -0.0039042471325956285 0.019376619262038732 0.0031326850615663545 0.0070049655550974421 0.015767500090545842 -0.0041536881247921913 0.0033093255345842672 -0.0057748418825212871 0.0070425280474967532 0.021571769699072228 -0.010108359745659289 -0.021745231544429606 -0.008739246638724581 -0.016106769083333868 0.0057600470121345814 0.032747583587964375 0.015222841083471265 0.02869494960389354
leaf_weight=27 20 36 20 27 32 37 22 22 34 28 21 24 32 21 20 21 39 21 24 31 39 21 22 20 28 37 24 35 22
leaf_count=27 20 36 20 27 32 37 22 22 34 28 21 24 32 21 20 21 39 21 24 31 39 21 22 20 28 37 24 35 22
internal_value=0 0.163401 -0.253893 -0.20572 0.290939 -0.0352116 -0.262192 -0.157069 -0.197283 0.340461 0.380309 0.0730405 0.159026 0.33656 0.368164 0.405285 -0.0967344 -0.200654 -0.353455 0.0160927 0.488613 -0.0679903 -0.288643 -0.050621 -0.226764 0.039154 0.531419 0.24469 0.482816
internal_weight=0 491 316 289 299 192 62 262 240 263 235 130 93 203 182 161 146 76 94 70 106 42 74 40 52 61 85 55 61
internal_count=807 491 316 289 299 192 62 262 240 263 235 130 93 203 182 161 146 76 94 70 106 42 74 40 52 61 85 55 61
shrinkage=0.05


Tree=18
num_leaves=30
num_cat=0
split_feature=0 25 19 24 35 35 0 0 1 35 12 8 16 12 12 21 12 0 25 12 1 12 20 18 12 35 33 24 0
split_gain=30.5314 10.6498 8.66611 7.26013 6.96772 6.17546 3.87675 2.82897 2.74995 3.39345 1.94559 1.8883 1.88807 1.76321 1.65146 1.51043 1.4938 1.18009 0.857003 0.783818 0.735373 0.715792 0.544162 0.540854 0.480874 0.440887 0.422688 0.382185 0.317222
threshold=64.500000000000014 1.1827308010693593 492.83229308974654 3.5199396176019397 4331.5000000000009 3014.6666666666674 12.500000000000002 7.5000000000000009 2.5000000000000004 7771.0000000000009 151.50000000000003 0.25881904510254422 1.4332069580731492 61.000000000000007 99.500000000000014 13.430341312253374 118.50000000000001 236.50000000000003 1.4754400286315181 278.50000000000006 2.5000000000000004 121.50000000000001 0.2585013278308082 241.59433016877639 79.500000000000014 5209.4166666666679 30.860340814336379 2.7053346429865521 6.5000000000000009
decision_type=2 2 2 2 2 2 2 2 2 2 2 2 2 2 2 2 2 2 2 2 2 2 2 2 2 2 2 2 2
left_child=1 -1 4 5 7 14 13 11 9 22 24 15 -10 -6 -2 -3 23 21 -16 20 -15 -14 -7 -9 -8 -19 -18 -23 -22
right_child=3 2 -4 -5 6 8 10 16 12 -11 -12 -13 17 19 18 -17 26 25 -20 -21 28 27 -24 -25 -26 -27 -28 -29 -30
leaf_value=-0.038157733529806143 -0.0082835417447818648 -0.0023096546469985146 -0.029866911392633078 -0.016316540192135357 -0.015991113974672299 0.0065146150620421402 -0.0012726209303807645 -0.01686425392802518 0.0076326957311142578 0.024022675648331646 0.020375948807885569 -0.02754961022085721 0.014962757531649027 -0.011354998347815127 0.0007211625645868481 -0.018804059906729634 0.0033758299771164146 0.024895777553319932 0.012775060129833633 0.0072398303741162337 -0.0029907389608625737 0.027899312919804027 -0.0046062341256236494 -0.0065642208214849234 0.008464683834972675 0.034583301842212678 -0.0053497822712297027 0.019393889650702476 0.0048630571691319346
leaf_weight=28 27 23 36 22 23 22 21 26 22 25 31 31 39 20 30 35 35 23 29 24 36 28 22 25 32 24 23 25 20
leaf_count=28 27 23 36 22 23 22 21 26 22 25 31 31 39 20 30 35 35 23 29 24 36 28 22 25 32 24 23 25 20
internal_value=0 -0.165123 -0.127153 0.229121 -0.0853588 0.267791 0.0429231 -0.219472 0.353274 0.186247 0.208524 -0.351753 0.424857 -0.0701699 0.0391758 -0.245264 -0.111462 0.467939 0.132919 -0.0127499 -0.0625014 0.402082 0.0190838 -0.236304 0.0921301 0.596852 -0.00168653 0.477746 -0.00371624
internal_weight=0 469 441 338 405 316 207 198 230 69 84 89 161 123 86 58 109 139 59 100 76 92 44 51 53 47 58 53 56
internal_count=807 469 441 338 405 316 207 198 230 69 84 89 161 123 86 58 109 139 59 100 76 92 44 51 53 47 58 53 56
shrinkage=0.05


Tree=19
num_leaves=30
num_cat=0
split_feature=0 24 35 25 19 35 0 12 25 1 12 12 30 1 35 35 1 35 1 12 0 26 0 8 12 12 13 24 12
split_gain=27.5647 9.28986 7.3622 7.31526 7.11242 5.42932 3.26808 2.94186 2.86407 2.55612 2.53418 2.15783 1.96238 1.57633 1.53622 1.46806 1.58505 1.36419 2.00956 0.755918 0.682173 0.650734 0.593479 0.534034 0.457951 0.435279 0.375735 0.197475 0.143607
threshold=35.500000000000007 3.5199396176019397 3170.6500000000005 1.1827308010693593 659.79695902081528 3322.5000000000005 5.5000000000000009 66.000000000000014 1.6977023603075045 1.5000000000000002 50.500000000000007 88.000000000000014 199.47101013936938 4.5000000000000009 1958.9000000000003 6095.7500000000009 3.5000000000000004 4880.9000000000005 4.5000000000000009 143.50000000000003 15.500000000000002 13.199568633845747 252.50000000000003 0.25881904510253567 145.50000000000003 246.50000000000003 78.819757369810844 2.7053346429865521 109.50000000000001
decision_type=2 2 2 2 2 2 2 2 2 2 2 2 2 2 2 2 2 2 2 2 2 2 2 2 2 2 2 2 2
left_child=3 2 11 -1 5 7 12 -5 9 -4 -11 -2 23 24 -9 16 -8 18 27 -17 21 -16 25 -7 -13 28 -18 -12 -19
right_child=1 -3 8 4 -6 6 15 14 -10 10 17 13 -14 -15 20 19 26 22 -20 -21 -22 -23 -24 -25 -26 -27 -28 -29 -30
leaf_value=-0.036592302034082619 -0.008390149158330109 -0.019051425007206423 -0.00010145326825575186 -0.029810437672616291 -0.035156242168423807 0.00012324101557689053 -0.0090398808297717393 -0.020266388152758108 0.034390564076602459 0.0016235702373087408 0.009731691506352615 -0.0043058671561690669 -0.020317655962739642 0.015276973940239386 -0.0026312271443506082 0.0044121635150194414 0.0014139717302168722 0.014686237715862013 0.023452744234738681 0.015972678205714779 0.0009158263925374264 -0.013706346065737307 0.029494534568353131 -0.0092358665609801258 0.0048309087360394187 0.025549992422262829 0.010261459560133517 0.0029531090431624933 0.019787432001651947
leaf_weight=23 39 27 26 24 22 35 34 29 20 25 22 24 26 29 21 31 30 22 29 26 21 36 22 27 32 27 20 21 37
leaf_count=23 39 27 26 24 22 35 34 29 20 25 22 24 26 29 21 31 30 22 29 26 21 36 22 27 32 27 20 21 37
internal_value=0 0.185505 0.226295 -0.184131 -0.151153 -0.117421 -0.0245375 -0.27979 0.324778 0.293347 0.330809 0.0269459 -0.175753 0.116301 -0.208818 0.0698382 -0.0142161 0.372245 0.265623 0.193708 -0.135757 -0.192521 0.443326 -0.07905 0.018303 0.405833 0.0990593 0.128424 0.357706
internal_weight=0 402 375 405 382 360 229 131 251 231 205 124 88 85 107 141 84 180 72 57 78 57 108 62 56 86 50 43 59
internal_count=807 402 375 405 382 360 229 131 251 231 205 124 88 85 107 141 84 180 72 57 78 57 108 62 56 86 50 43 59
shrinkage=0.05


Tree=20
num_leaves=31
num_cat=0
split_feature=0 25 19 24 35 35 12 0 1 35 24 0 0 16 8 12 25 12 20 0 1 8 31 12 19 12 33 20 33 24
split_gain=25.1869 8.73346 7.21836 5.86096 5.74509 5.06517 3.34853 2.34574 2.30103 2.86696 1.83232 1.90025 1.70542 1.67442 1.66993 1.36176 1.32286 1.25464 1.15891 1.03524 0.803091 0.649628 0.542607 0.541477 0.529079 0.500481 0.469829 0.469534 0.370249 0.231069
threshold=64.500000000000014 1.1827308010693593 492.83229308974654 3.5199396176019397 4331.5000000000009 3014.6666666666674 135.50000000000003 7.5000000000000009 2.5000000000000004 7771.0000000000009 2.3438087966821359 9.5000000000000018 13.500000000000002 1.4332069580731492 0.25881904510254422 90.500000000000014 1.4721428046300005 118.50000000000001 0.2572235290315692 182.50000000000003 3.5000000000000004 1.4697618531678006e-14 13762.583377309393 116.50000000000001 179.78516015162589 127.50000000000001 30.779148043538854 0.2585013278308082 30.860340814336379 2.7074619104146227
decision_type=2 2 2 2 2 2 2 2 2 2 2 2 2 2 2 2 2 2 2 2 2 2 2 2 2 2 2 2 2 2
left_child=1 -1 4 5 7 15 10 14 9 27 -6 18 21 -10 16 -2 -3 26 -12 23 -17 -8 -14 -15 -21 -26 -9 -7 -19 -25
right_child=3 2 -4 -5 6 8 12 17 13 -11 11 -13 22 19 -16 20 -18 28 -20 24 -22 -23 -24 29 25 -27 -28 -29 -30 -31
leaf_value=-0.034576846253392954 -0.0083224923699162911 -0.019652553381398319 -0.027235445492745688 -0.014548141933681275 0.0080971696823835381 0.005856582909737798 0.0084329701356451823 -0.0065844166140746454 0.0064703331921588296 0.021895068205893042 -0.023560746349394323 -5.9601659627838273e-05 0.010687397546134889 0.010463501703318048 -0.025352328049860175 1.4050809606429068e-05 -0.0044045295643930634 0.0032249439733901195 -0.0071037962951737907 0.031780511090023951 0.011395207702392532 -0.0026401946600974322 0.022194865913618179 0.023891745284199715 0.016547633064467281 0.026421655533891739 -0.016274210535497827 -0.0044735816815360029 -0.0049414992069258638 0.016291271913796663
leaf_weight=28 24 25 36 22 25 22 27 29 22 25 20 45 20 23 31 31 33 35 23 22 31 26 21 20 21 33 22 22 23 20
leaf_count=28 24 25 36 22 25 22 27 29 22 25 20 45 20 23 31 31 33 35 23 22 31 26 21 20 21 33 22 22 23 20
internal_value=0 -0.149976 -0.115592 0.208103 -0.0774478 0.242848 0.0390367 -0.199227 0.320266 0.167479 -0.0769655 -0.144837 0.178486 0.385746 -0.319682 0.0358017 -0.219539 -0.100874 -0.295164 0.426318 0.114093 0.060017 0.331629 0.33153 0.504891 0.451635 -0.215287 0.01383 -0.000269463 0.40183
internal_weight=0 469 441 338 405 316 207 198 230 69 113 88 94 161 89 86 58 109 43 139 62 53 41 63 76 54 51 44 58 40
internal_count=807 469 441 338 405 316 207 198 230 69 113 88 94 161 89 86 58 109 43 139 62 53 41 63 76 54 51 44 58 40
shrinkage=0.05


Tree=21
num_leaves=30
num_cat=0
split_feature=0 25 19 0 24 35 2 35 1 35 12 5 12 24 25 12 12 0 33 1 1 35 19 35 26 20 27 23 12
split_gain=22.7312 7.88195 6.63629 5.81124 5.28951 4.57132 3.72729 3.07722 2.07668 2.58743 1.98407 2.08658 1.57766 1.54991 2.62529 1.31292 1.22899 0.832476 0.775239 0.759296 0.724789 0.633595 0.561132 0.545975 0.453715 0.423755 0.375397 0.256754 0.193384
threshold=64.500000000000014 1.1827308010693593 659.79695902081528 7.5000000000000009 3.5199396176019397 3014.6666666666674 5.5000000000000009 6008.5750000000007 2.5000000000000004 7771.0000000000009 259.50000000000006 5.5000000000000009 118.50000000000001 2.7178563466324528 1.4559312812378968 143.50000000000003 90.500000000000014 186.50000000000003 30.779148043538854 3.5000000000000004 3.5000000000000004 4829.5333333333338 211.42901340563051 3963.5666666666671 13.430718944660201 0.2585013278308082 -0.13241952007967353 0.012822631795369807 163.50000000000003
decision_type=2 2 2 2 2 2 2 2 2 2 2 2 2 2 2 2 2 2 2 2 2 2 2 2 2 2 2 2 2
left_child=1 -1 3 6 5 16 -3 12 9 25 11 21 18 17 -15 -9 -2 26 24 -14 -18 27 -19 -21 -5 -7 -10 -8 -24
right_child=4 2 -4 7 -6 8 10 15 13 -11 -12 -13 19 14 -16 -17 20 22 -20 23 -22 -23 28 -25 -26 -27 -28 -29 -30
leaf_value=-0.03284800505997347 -0.0079063677859570209 -0.024434372629277792 -0.030510758206248285 0.00048974245936343709 -0.013820734603161161 0.0055637535829605031 -0.0054714690216562971 0.0038069189779515213 0.011586541624274105 0.020800314430147411 0.0055042048248511635 -0.019377056386713921 -0.0035800161383425198 -0.001322763556653745 0.020302913614755703 0.018157789284984273 1.3348257409468774e-05 0.032575341872870922 -0.014008007315790345 0.0013700124502065592 0.010825447227445342 -9.0049700811505322e-05 0.019006987341812678 0.011231644023209812 -0.0091055072722321558 -0.0042499025563963438 0.021274120807647706 -0.013299034705851226 0.025792548557122548
leaf_weight=28 24 39 25 28 22 22 22 34 20 25 26 38 36 23 36 30 31 20 29 32 31 35 21 25 22 22 20 20 21
leaf_count=28 24 39 25 28 22 22 22 34 20 25 26 38 36 23 36 30 31 20 29 32 31 35 21 25 22 22 20 20 21
internal_value=0 -0.142478 -0.109812 -0.0797397 0.197698 0.230706 -0.215074 0.0234813 0.304253 0.159105 -0.139393 -0.195797 -0.0461732 0.366459 0.237451 0.210678 0.0340116 0.44108 -0.150086 0.042097 0.108388 -0.10117 0.513644 0.113906 -0.0746433 0.0131385 0.328607 -0.183978 0.447995
internal_weight=0 469 441 416 338 316 180 236 230 69 141 115 172 161 59 64 86 102 79 93 62 77 62 57 50 44 40 42 42
internal_count=807 469 441 416 338 316 180 236 230 69 141 115 172 161 59 64 86 102 79 93 62 77 62 57 50 44 40 42 42
shrinkage=0.05


Tree=22
num_leaves=31
num_cat=0
split_feature=0 35 25 25 12 35 25 30 12 24 12 1 35 0 21 12 19 24 0 0 17 30 10 15 11 1 23 12 12 26
split_gain=20.6464 7.9115 5.36558 4.43221 3.99667 3.58958 3.37821 2.56285 2.08649 1.96965 1.89797 1.59591 1.74245 1.9544 1.35764 1.25772 1.16803 1.06437 0.823577 0.776516 0.606801 0.572493 0.497719 0.352969 0.331756 0.279038 0.276423 0.245178 0.203635 0.126226
threshold=20.500000000000004 3864.8666666666672 1.5723692154703983 1.2844387755102045 50.500000000000007 3629.5000000000005 1.3018616383599981 214.34280386805679 90.500000000000014 2.1425217557954563 81.500000000000014 2.5000000000000004 2489.5166666666669 189.50000000000003 13.533599308708469 242.50000000000003 340.19550328223266 2.6857912257323626 3.5000000000000004 182.50000000000003 28.679821595929848 152.0003013538774 0.25881904510257503 1074.0000000000002 -0.52659193862402376 2.5000000000000004 0.016605751504332768 213.00000000000003 116.50000000000001 13.32052018967992
decision_type=2 2 2 2 2 2 2 2 2 2 2 2 2 2 2 2 2 2 2 2 2 2 2 2 2 2 2 2 2 2
left_child=2 6 3 -1 -3 10 -2 9 17 -6 -5 20 21 29 23 16 19 -7 -10 25 -8 -13 27 -12 -17 -11 -21 -20 -27 -14
right_child=1 4 -4 5 7 8 11 -9 18 15 14 12 13 -15 -16 24 -18 -19 22 26 -22 -23 -24 -25 -26 28 -28 -29 -30 -31
leaf_value=-0.031056745669425085 -0.017228219893375606 -0.0041227594373695973 0.013848524049601772 -0.028717965451785579 0.026873659202829005 -0.0077883642585948112 -0.013275427464395763 -0.0006584964576177299 -0.010212427848018707 0.0051616812404245141 -0.0036704628332518046 0.0040225677530873914 0.00595094163203612 0.021190271099233847 -0.021087375085335227 0.014935033084059666 0.0029724907886702571 -0.022247703745961189 -0.0051203967626046003 0.022097167551517485 -0.0014831169450189919 -0.0063902487851340666 0.005649495930660383 -0.012354178074747325 0.022884347510657141 0.0083891128189861781 0.014315796270966531 0.0017923270392677061 0.015045653276697355 0.00033342583104968072
leaf_weight=27 29 36 22 26 32 35 20 28 20 20 25 22 20 24 32 21 34 20 29 25 24 33 35 22 35 20 21 23 27 20
leaf_count=27 29 36 22 26 32 35 20 28 20 20 25 22 20 24 32 21 34 20 29 25 24 33 35 22 35 20 21 23 27 20
internal_value=0 0.128318 -0.199381 -0.235026 0.230038 -0.195981 -0.0300885 0.272812 -0.102633 0.306887 -0.340003 0.0258612 0.0860289 0.198204 -0.262873 0.270538 0.221956 -0.260926 -0.0212681 0.270851 -0.136865 -0.0445024 0.0207964 -0.154704 0.398067 0.202164 0.370896 -0.0412569 0.244262 0.0628437
internal_weight=0 491 316 294 299 267 192 263 162 235 105 163 119 64 79 203 147 55 107 113 44 55 87 47 56 67 46 52 47 40
internal_count=807 491 316 294 299 267 192 263 162 235 105 163 119 64 79 203 147 55 107 113 44 55 87 47 56 67 46 52 47 40
shrinkage=0.05


Tree=23
num_leaves=31
num_cat=0
split_feature=0 35 25 8 12 25 17 24 0 21 24 30 0 12 12 28 31 19 35 13 12 25 20 23 1 19 1 29 4 0
split_gain=18.9511 8.14401 4.6439 4.2885 4.19621 3.82644 3.38965 2.68675 2.32115 1.97474 1.95737 1.95158 1.96816 1.64858 1.55769 1.3023 1.12662 1.43742 0.811046 0.79709 0.729711 0.713456 0.593313 0.565559 0.549843 0.58345 0.48602 0.462992 0.311539 0.243161
threshold=9.5000000000000018 3629.5000000000005 1.4075824367042722 0.50000000000001499 53.500000000000007 1.2844387755102045 26.628143470502959 2.1425217557954563 76.500000000000014 13.418079416532366 2.6837074779249535 195.62570550942476 221.50000000000003 88.000000000000014 81.500000000000014 0.010221223992165138 13267.541921113412 301.54947107765014 4513.0833333333348 80.327613597755047 140.50000000000003 1.5073289436014889 0.25751590456950507 0.013027849324399701 2.5000000000000004 297.05096569596873 2.5000000000000004 0.24922603548150538 3.5000000000000004 189.50000000000003
decision_type=2 2 2 2 2 2 2 2 2 2 2 2 2 2 2 2 2 2 2 2 2 2 2 2 2 2 2 2 2 2
left_child=2 5 6 9 10 -2 -1 21 24 22 -3 12 19 -5 -11 29 -17 26 27 20 23 -6 -4 -7 -9 -26 -18 -16 -21 -10
right_child=1 4 3 13 7 11 -8 8 15 14 -12 -13 -14 -15 18 16 17 -19 -20 28 -22 -23 -24 -25 25 -27 -28 -29 -30 -31
leaf_value=-0.012634969502687455 -0.021273173733847218 0.0041291431161031749 0.011195344441221097 -0.03100914138236216 0.017076313458383084 0.0033998912776864714 -0.040390604408457875 -0.0018573979034381745 0.015804872522130611 -0.02029213230358437 -0.016064542173407973 -0.01438664517958056 0.011610573205492788 -0.013552926785900796 -0.013964313550830066 0.01937339093398165 0.0064537180921710709 -0.0026674282814686499 0.0025219822768121959 -0.0022601293355581308 0.0071963231770716847 0.030431607998907567 -0.0001668923361985772 -0.0078358018460373095 0.0090829757192187905 9.2793808380520215e-05 0.015982548959436828 -0.0034649696178911701 -0.010520993875339628 0.022791747545654124
leaf_weight=22 25 30 20 21 20 21 22 27 20 20 20 22 37 38 21 27 23 24 26 21 33 20 27 24 59 26 32 21 25 33
leaf_count=22 25 30 20 21 20 21 22 27 20 20 20 22 37 38 21 27 23 24 26 21 33 20 27 24 59 26 32 21 25 33
internal_value=0 0.099109 -0.236945 -0.170421 0.189921 -0.0585014 -0.530256 0.23315 0.197441 -0.0721311 -0.0789666 -0.00836999 0.0298038 -0.395323 -0.16052 0.275115 0.211121 0.15085 -0.0883657 -0.030592 0.0309788 0.475079 0.093362 -0.0518496 0.0871712 0.126661 0.239955 -0.174293 -0.134995 0.403104
internal_weight=0 569 238 194 361 208 44 311 271 135 50 183 161 59 88 159 106 79 68 124 78 40 47 45 112 85 55 42 46 53
internal_count=807 569 238 194 361 208 44 311 271 135 50 183 161 59 88 159 106 79 68 124 78 40 47 45 112 85 55 42 46 53
shrinkage=0.05


Tree=24
num_leaves=31
num_cat=0
split_feature=0 19 12 25 19 25 0 12 16 1 12 35 35 1 35 12 2 35 35 27 0 35 35 1 14 31 24 12 30 13
split_gain=17.217 6.10496 4.47234 4.20177 3.95886 3.78991 3.67502 2.53903 2.27795 2.18857 2.16165 1.90257 1.64805 1.30698 2.52591 1.13276 1.05725 1.01357 0.885893 0.963933 0.86512 0.602223 0.601346 0.589089 0.465185 0.384077 0.296848 0.279097 0.215621 0.187495
threshold=60.500000000000007 333.28939055933461 111.50000000000001 1.4075824367042722 297.05096569596873 1.7262178565229254 7.5000000000000009 63.500000000000007 1.4532838656670435 2.5000000000000004 189.50000000000003 3020.1666666666674 2424.0000000000005 3.5000000000000004 6161.0000000000009 56.500000000000007 6.5000000000000009 4191.9583333333348 4331.5000000000009 -0.13424069995544444 220.50000000000003 6112.5000000000009 4349.9750000000013 3.5000000000000004 82.280972802137313 13671.11981435599 2.7053346429865521 127.50000000000001 183.11905007774911 80.944463872823135
decision_type=2 2 2 2 2 2 2 2 2 2 2 2 2 2 2 2 2 2 2 2 2 2 2 2 2 2 2 2 2 2
left_child=1 5 4 -3 9 6 7 -1 10 -2 -5 24 -4 14 25 -13 -9 -11 19 -18 22 23 -15 -17 -8 -14 -16 -20 -23 -25
right_child=2 3 12 8 -6 -7 11 16 -10 17 -12 15 13 20 26 21 18 -19 27 -21 -22 28 -24 29 -26 -27 -28 -29 -30 -31
leaf_value=-0.02426496677238632 -0.002866789642231245 -0.031285961718736766 0.00202757724161659 -0.029651558846235278 -0.012115340684785654 0.017997893885476516 -0.0039783618920906025 -0.016610991550260225 -0.00028150195114104654 0.0059125068985546626 -0.0064047788083553313 -0.0074094201992487623 -0.0013894696585008536 0.0089624462276697153 0.023477157831192016 -0.0029062150391594818 -0.016361457325518133 0.018213458397590063 -0.0042026515537872912 -0.0021780667846779461 0.026075164172233958 0.0065767952071672138 0.020701627774784962 0.0030613574624547492 -0.013364695763977414 0.0073715399316479947 0.015304597169160845 0.0037217899141833185 0.013750012032687664 0.0095959372480311222
leaf_weight=27 38 34 28 20 38 20 33 24 33 33 20 21 22 20 25 30 25 34 20 23 33 22 24 23 22 29 20 25 20 21
leaf_count=27 38 34 28 20 38 20 33 24 33 33 20 21 22 20 25 30 25 34 20 23 33 22 24 23 22 29 20 25 20 21
internal_value=0 -0.125901 0.169454 -0.335353 0.0342726 -0.0629482 -0.0881212 -0.208883 -0.200114 0.134368 -0.360563 0.00245022 0.265629 0.302057 0.224214 0.0655228 -0.145095 0.243096 -0.0968044 -0.191305 0.399109 0.104212 0.307313 0.0499296 -0.154658 0.0718456 0.396898 0.00399632 0.199852 0.123603
internal_weight=0 463 344 107 143 356 336 144 73 105 40 192 201 173 96 137 117 67 93 48 77 116 44 74 55 51 45 45 42 44
internal_count=807 463 344 107 143 356 336 144 73 105 40 192 201 173 96 137 117 67 93 48 77 116 44 74 55 51 45 45 42 44
shrinkage=0.05


Tree=25
num_leaves=31
num_cat=0
split_feature=0 35 19 25 12 25 8 24 1 0 24 24 12 12 35 1 30 35 1 25 1 15 19 20 33 0 3 12 0 3
split_gain=15.63 6.81455 4.08265 3.86574 3.67443 3.518 2.23107 2.14226 1.69537 1.65805 1.63379 1.56789 1.4192 1.27893 1.24872 1.77984 1.23823 0.854647 1.31784 0.810563 0.7782 0.715004 0.630723 0.606343 0.498033 0.354972 0.315062 0.303035 0.262098 0.198637
threshold=9.5000000000000018 3864.8666666666672 492.83229308974654 1.2844387755102045 53.500000000000007 1.3018616383599981 0.25881904510253567 1.9612637163506006 1.5000000000000002 87.000000000000014 2.6837074779249535 1.9880813289534636 114.50000000000001 88.000000000000014 6098.3750000000009 3.5000000000000004 173.76052187985522 4909.9000000000005 4.5000000000000009 1.4707876517982452 4.5000000000000009 1122.0000000000002 316.43429139744973 0.257484128079848 29.521367972172296 29.500000000000004 8.5000000000000018 246.50000000000003 80.500000000000014 11.500000000000002
decision_type=2 2 2 2 2 2 2 2 2 2 2 2 2 2 2 2 2 2 2 2 2 2 2 2 2 2 2 2 2 2
left_child=2 5 3 -1 10 -2 14 -6 -9 22 -3 -7 16 -8 15 19 26 18 -11 -5 24 -15 25 -17 -14 -10 -13 29 -26 -19
right_child=1 4 -4 6 7 11 13 8 9 17 -12 12 20 21 -16 23 -18 27 -20 -21 -22 -23 -24 -25 28 -27 -28 -29 -30 -31
leaf_value=-0.029168710325445449 -0.017964126566995777 0.003770555816349927 -0.032379720993340015 -0.020014723691911925 0.025622259209985322 0.012750836851244625 -0.024140574162205063 -0.00071477180240703199 0.0052796768773397482 0.0033829276931365095 -0.014805462970398368 0.0029448055763385216 0.0058789869979955257 -0.0041890262687437436 0.0066378629583466273 0.0067553913575070712 -0.014892563845829241 0.019056877568364147 0.019383904574946924 -0.0062813682090067727 0.0089858059553080249 -0.016567040242371153 0.00015097265251305154 -0.0037560695987742618 -0.0076572309469892866 0.01195968469214994 -0.005289378672694931 0.023055946211452072 0.00024240777461922598 0.01314542105904332
leaf_weight=21 31 29 20 21 23 22 21 34 37 31 20 21 20 28 28 23 28 30 22 22 32 20 28 34 21 43 26 23 21 27
leaf_count=21 31 29 20 21 23 22 21 34 37 31 20 21 20 28 28 23 28 30 22 22 32 20 28 34 21 43 26 23 21 27
internal_value=0 0.0900068 -0.215184 -0.175514 0.17754 -0.0468135 -0.132036 0.219268 0.194747 0.224239 -0.0762299 0.00390135 -0.0287882 -0.276981 -0.0539018 -0.106166 -0.13138 0.298983 0.200497 -0.259767 0.0530669 -0.186931 0.132193 0.00970794 -0.0123005 0.177404 -0.0322055 0.36423 -0.0741482 0.325134
internal_weight=0 569 238 218 347 222 197 298 275 241 49 191 169 69 128 100 75 133 53 43 94 48 108 57 62 80 47 80 42 57
internal_count=807 569 238 218 347 222 197 298 275 241 49 191 169 69 128 100 75 133 53 43 94 48 108 57 62 80 47 80 42 57
shrinkage=0.05


Tree=26
num_leaves=31
num_cat=0
split_feature=0 35 24 0 19 35 1 35 12 24 24 25 12 0 35 19 18 17 35 33 30 19 14 0 12 35 19 28 12 30
split_gain=14.2739 5.39171 4.02324 3.50449 2.91988 2.8964 2.55668 2.33866 2.21341 2.16178 2.0229 1.81406 1.48728 1.07801 0.763272 0.73413 0.64766 0.614772 0.606114 0.552155 0.508924 0.451173 0.415662 0.397947 0.369061 0.327922 0.27188 0.264014 0.145473 0.126837
threshold=64.500000000000014 3359.8000000000006 3.5199396176019397 5.5000000000000009 333.28939055933461 2489.5166666666669 2.5000000000000004 7716.5000000000009 56.500000000000007 2.1425217557954563 2.6997127109807 1.4398292448864674 66.000000000000014 236.50000000000003 1804.2500000000002 222.47620306535447 206.58977298784686 27.014149229875041 4191.9583333333348 31.31961396700228 177.08209725794498 269.02574252055513 77.757404118304692 5.5000000000000009 222.00000000000003 5209.4166666666679 314.0263248919054 0.010989737430941155 127.50000000000001 160.32269557999146
decision_type=2 2 2 2 2 2 2 2 2 2 2 2 2 2 2 2 2 2 2 2 2 2 2 2 2 2 2 2 2 2
left_child=1 4 5 10 12 21 7 22 -5 -10 17 -6 -1 16 -14 -15 -8 -3 -18 24 23 -2 -7 -16 26 -17 -11 -20 -19 -25
right_child=2 3 -4 8 11 6 13 -9 9 19 -12 -13 14 15 20 25 18 28 27 -21 -22 -23 -24 29 -26 -27 -28 -29 -30 -31
leaf_value=-0.019926917389481484 0.0026650007684609943 -0.010032344370847568 -0.012841241818387063 -0.010107066085690569 -0.031564966108029086 0.0037670195754617459 0.0044729920731776439 0.01585414936998859 0.019858629522579059 0.0039653586663731958 -0.019365636457223445 -0.011697270888835192 -0.014310287254983964 0.028037456218153241 -0.0071244274720638281 0.011770807346329093 0.0079216944084813199 -0.0031716272601624951 0.020965319330042059 -0.0044300323504063745 -0.0097958003860656867 -0.0065775922600827793 -0.0053170953521176302 -0.0014401852866831179 0.0083407543703547821 0.020716672860795544 -0.0025473867636843684 0.014256938280199062 0.0028589911572635177 0.0041909031709656116
leaf_weight=24 31 26 22 29 27 20 23 28 21 59 32 20 23 20 21 20 30 20 22 23 27 23 34 20 35 21 22 44 20 20
leaf_count=24 31 26 22 29 27 20 23 28 21 59 32 20 23 20 21 20 30 20 22 23 27 23 34 20 35 21 22 44 20 20
internal_value=0 -0.112903 0.156662 -0.0275204 -0.247546 0.185449 0.228913 0.082555 0.0520503 0.0981226 -0.180978 -0.462213 -0.17281 0.295587 -0.124004 0.403677 0.24018 -0.0809375 0.27629 0.0529423 -0.0816103 -0.0254332 -0.0390522 -0.0310159 0.0810069 0.327057 0.0439293 0.329861 -0.00312636 0.0275072
internal_weight=0 469 338 287 182 316 262 82 189 160 98 47 135 180 111 61 119 66 96 139 88 54 54 61 116 41 81 66 40 40
internal_count=807 469 338 287 182 316 262 82 189 160 98 47 135 180 111 61 119 66 96 139 88 54 54 61 116 41 81 66 40 40
shrinkage=0.05


Tree=27
num_leaves=31
num_cat=0
split_feature=0 35 19 25 12 25 2 24 30 12 0 24 35 0 27 23 30 35 12 1 35 19 12 19 21 11 25 0 23 27
split_gain=12.9525 5.55492 3.46404 3.30817 3.13189 3.05379 1.96283 1.8084 1.51676 1.46012 1.4827 1.38281 1.26713 1.17334 0.877299 0.811598 0.740684 0.739165 0.730251 0.69413 0.581564 0.560861 0.537166 0.719203 0.5009 0.447989 0.343604 0.32523 0.156495 0.120453
threshold=9.5000000000000018 3864.8666666666672 492.83229308974654 1.2844387755102045 53.500000000000007 1.2844387755102045 5.5000000000000009 1.9612637163506006 214.34280386805679 114.50000000000001 235.00000000000003 2.6837074779249535 3038.4000000000005 87.000000000000014 -0.10278312371393029 0.013595803894182796 173.76052187985522 1958.9000000000003 259.50000000000006 3.5000000000000004 6365.5000000000009 311.27539980806017 246.50000000000003 306.32790915216327 13.49964658514021 0.41552496647745374 1.4545402083723253 27.500000000000004 0.018319234111882663 -0.13559143678990929
decision_type=2 2 2 2 2 2 2 2 2 2 2 2 2 2 2 2 2 2 2 2 2 2 2 2 2 2 2 2 2 2
left_child=2 5 3 -1 11 -2 24 -6 13 16 17 -3 15 21 22 -8 25 -11 19 20 -14 27 23 28 -5 -7 -19 -9 -15 -28
right_child=1 4 -4 6 7 9 12 8 -10 10 -12 -13 18 14 -16 -17 -18 26 -20 -21 -22 -23 -24 -25 -26 -27 29 -29 -30 -31
leaf_value=-0.026832384945425603 -0.018180767707039757 0.0033093417593245879 -0.02970966743770987 -0.01024885662831366 0.023442747103779214 0.0024383687047344269 -0.0042571662875004754 0.0047874898310484634 -0.0019670607168869726 -0.0075014756806194779 0.015214056933916215 -0.013780419081449509 -0.011150886173601505 0.017299325102940202 0.003831039400150379 -0.016834231043922839 -0.010944886681447257 -0.0011077850265428424 0.0080634989481907157 0.0028874035381401581 -5.6634508516816865e-05 0.00031654359260975415 0.020331367443908344 0.0045322073332499718 -0.021439258567988874 -0.0065396063805868224 0.0036207662703236568 0.011183285171864555 0.012049144887450068 0.0091083109704777603
leaf_weight=21 26 29 20 20 23 33 29 35 29 20 23 20 27 40 21 23 31 25 21 36 21 29 33 20 20 24 20 46 22 20
leaf_count=21 26 29 20 20 23 33 29 35 29 20 23 20 27 40 21 23 31 25 21 36 21 29 33 20 20 24 20 46 22 20
internal_value=0 0.0819355 -0.195888 -0.159346 0.160966 -0.0415942 -0.119126 0.19949 0.176961 0.00112294 0.0790335 -0.0733214 -0.0687425 0.20246 0.264571 -0.196402 -0.0944945 0.0180841 -0.00552062 -0.0472183 -0.125943 0.125668 0.298893 0.255536 -0.316881 -0.0268366 0.0698114 0.168393 0.308727 0.127291
internal_weight=0 569 238 218 347 222 197 298 275 196 108 49 157 246 136 52 88 85 105 84 48 110 115 82 40 57 65 81 62 40
internal_count=807 569 238 218 347 222 197 298 275 196 108 49 157 246 136 52 88 85 105 84 48 110 115 82 40 57 65 81 62 40
shrinkage=0.05


Tree=28
num_leaves=30
num_cat=0
split_feature=0 12 35 24 19 35 15 1 35 1 35 24 24 16 25 23 0 0 0 19 2 19 17 12 1 35 3 30 8
split_gain=11.8323 4.52782 3.72984 3.48088 2.83846 2.38811 2.30055 2.21966 1.94775 1.92545 1.74634 1.64286 1.60237 0.992644 0.968852 0.855435 0.81707 0.680803 0.584454 0.47028 0.445042 0.390709 0.385291 0.374206 0.339871 0.302673 0.237839 0.23099 0.166126
threshold=64.500000000000014 63.500000000000007 4484.7000000000007 3.5199396176019397 246.17997719900589 2489.5166666666669 860.00000000000011 2.5000000000000004 7716.5000000000009 3.5000000000000004 2348.1750000000006 2.3685733525055093 2.7541397134469947 1.4332069580731492 1.4194349803704538 0.01420981022915019 236.50000000000003 5.5000000000000009 21.500000000000004 222.47620306535447 13.500000000000002 269.02574252055513 28.513132183908048 179.50000000000003 4.5000000000000009 5356.8333333333348 12.500000000000002 177.08209725794498 -0.25881904510249254
decision_type=2 2 2 2 2 2 2 2 2 2 2 2 2 2 2 2 2 2 2 2 2 2 2 2 2 2 2 2 2
left_child=1 4 9 5 -1 21 -6 8 22 12 20 -4 15 -9 -13 27 24 -12 23 -18 -11 -2 -7 28 25 -15 -19 -3 -16
right_child=3 2 11 -5 6 7 -8 13 -10 10 17 14 -14 16 18 -17 19 26 -20 -21 -22 -23 -24 -25 -26 -27 -28 -29 -30
leaf_value=-0.0011069319173693658 0.0025596494395886699 -0.0010490406025201082 0.013733842009345867 -0.012098659342154861 -0.031364425432322353 -0.0070172866171395237 -0.012194642099990126 0.0038491269350861726 0.014326910178039857 -0.017090478097088635 -0.0046248757132244384 -0.0073329296533859549 -0.024660874879654415 0.0065306284930557014 0.00014212569166418342 -0.017290396544904937 0.025999668929725883 0.0016487050435638854 0.0079057576910903059 0.016388401202857495 -0.0065424708696082239 -0.0060413428136835935 0.0015782947317347863 0.0039445241224408773 0.015990901349160154 0.013462832084769616 0.008687862577582044 -0.0083962365762209109 -0.0061470569638047553
leaf_weight=25 31 20 28 22 29 22 34 23 28 20 33 31 22 31 21 21 20 28 36 35 20 23 32 36 39 32 21 23 21
leaf_count=25 31 20 28 22 29 22 34 23 28 20 33 31 22 31 21 21 20 28 36 35 20 23 32 36 39 32 21 23 21
internal_value=0 -0.102794 -0.0555732 0.142635 -0.307241 0.169411 -0.420377 0.208878 0.072507 -0.145808 -0.065028 0.0529171 -0.260403 0.271003 0.0100946 -0.180373 0.299426 0.0185336 0.0527205 0.397668 -0.236329 -0.0220747 -0.0384722 0.00407675 0.246452 0.201035 0.0933097 -0.0995787 -0.0600493
internal_weight=0 469 381 338 88 316 63 262 82 208 122 173 86 180 145 64 157 82 114 55 40 54 54 78 102 63 49 43 42
internal_count=807 469 381 338 88 316 63 262 82 208 122 173 86 180 145 64 157 82 114 55 40 54 54 78 102 63 49 43 42
shrinkage=0.05


Tree=29
num_leaves=31
num_cat=0
split_feature=0 24 19 25 35 25 8 17 0 21 1 35 12 12 12 12 1 35 0 1 35 20 0 12 29 35 30 12 13 1
split_gain=10.8532 4.83995 5.12972 3.87471 3.50224 3.05596 3.02171 2.36024 2.29629 1.33327 1.20607 1.29961 1.1064 1.09562 1.05069 0.728922 0.674925 0.644808 0.603715 0.534998 0.508383 0.440052 0.433297 0.425697 0.312311 0.280827 0.258424 0.228651 0.166493 0.165984
threshold=9.5000000000000018 3.5584167386614944 659.79695902081528 1.7343241330502479 3170.6500000000005 1.4075824367042722 0.50000000000001499 26.628143470502959 76.500000000000014 13.418079416532366 3.5000000000000004 7145.8333333333348 88.000000000000014 116.50000000000001 81.500000000000014 56.500000000000007 2.5000000000000004 1958.9000000000003 76.500000000000014 2.5000000000000004 4513.0833333333348 0.25751590456950507 107.00000000000001 159.50000000000003 0.24922603548150538 6490.0000000000009 190.23827732184392 155.50000000000003 70.218122978583665 4.5000000000000009
decision_type=2 2 2 2 2 2 2 2 2 2 2 2 2 2 2 2 2 2 2 2 2 2 2 2 2 2 2 2 2 2
left_child=5 2 3 4 13 7 9 -1 15 21 11 23 -8 16 -11 -6 -2 -15 -18 -17 24 -7 -19 -10 -16 29 -13 28 -12 -21
right_child=1 -3 -4 -5 8 6 12 -9 10 14 27 26 -14 17 20 19 18 22 -20 25 -22 -23 -24 -25 -26 -27 -28 -29 -30 -31
leaf_value=-0.0092820510141212835 -0.011770454990781016 -0.015140514203812927 -0.019970391870010647 0.025455311480133486 -0.0053028255277736622 0.010278416392975488 -0.024917065041760604 -0.032442757682028138 -0.00079888653777101463 -0.015847505293786528 0.016820159368216993 0.0098828699928708384 -0.0106165997149602 -0.0043603814315840445 -0.010523596201978978 -0.0010592058158269333 -0.0067322770639419039 0.0022766845504520461 0.0042517327661202716 0.0028235888800013645 0.0026842982920173269 0.00049311443990855306 0.010889384968449241 0.0081272468478842223 -0.0019003824552609808 0.011325674876570702 0.017508186846971512 0.019037334993481637 0.011144905670412951 0.0079234853602462903
leaf_weight=22 27 32 20 24 22 20 21 22 34 20 24 20 38 23 21 31 29 40 22 39 26 27 23 22 21 23 25 34 28 27
leaf_count=22 27 32 20 24 22 20 21 22 34 20 24 20 38 23 21 31 29 40 22 39 26 27 23 22 21 23 25 34 28 27
internal_value=0 0.0750023 0.0975162 0.11674 0.0976386 -0.179312 -0.125347 -0.417248 0.157146 -0.0428414 0.229948 0.155841 -0.314132 -0.0217397 -0.115469 0.0612742 -0.107564 0.056101 -0.0398815 0.0919515 -0.0562094 0.0931415 0.10842 0.0541562 -0.12424 0.131358 0.282383 0.316979 0.275285 0.0981982
internal_weight=0 569 537 517 493 238 194 44 329 135 187 101 59 164 88 142 78 86 51 120 68 47 63 56 42 89 45 86 52 66
internal_count=807 569 537 517 493 238 194 44 329 135 187 101 59 164 88 142 78 86 51 120 68 47 63 56 42 89 45 86 52 66
shrinkage=0.05


Tree=30
num_leaves=31
num_cat=0
split_feature=0 19 24 25 35 35 33 1 12 24 2 1 0 35 12 12 1 0 1 35 35 33 0 35 1 19 9 32 10 18
split_gain=9.80577 4.66908 4.7116 3.18791 2.81982 2.6444 1.68367 1.48533 1.45525 1.57438 1.22172 1.19632 1.0513 0.965423 0.639 0.615026 0.731615 0.586758 0.491476 0.544916 0.453486 0.315311 0.308485 0.306423 0.301386 0.265516 0.246928 0.230004 0.216185 0.213498
threshold=20.500000000000004 619.45979743600162 3.5584167386614944 1.5723692154703983 3170.6500000000005 3359.8000000000006 28.304258510797371 2.5000000000000004 81.500000000000014 2.8010566296277375 4.5000000000000009 4.5000000000000009 182.50000000000003 7716.5000000000009 116.50000000000001 226.00000000000003 3.5000000000000004 124.50000000000001 2.5000000000000004 1690.3750000000002 7018.0000000000009 29.83800473487911 102.50000000000001 4677.541666666667 3.5000000000000004 268.36756322903415 0.39539482579686858 1.4574759888189217 0.25881904510249693 240.12806372549022
decision_type=2 2 2 2 2 2 2 2 2 2 2 2 2 2 2 2 2 2 2 2 2 2 2 2 2 2 2 2 2 2
left_child=3 2 4 5 11 8 -7 13 -1 24 -8 18 14 28 25 16 20 -15 26 -20 -12 -14 -21 -16 -10 -9 -2 -25 -6 -26
right_child=1 -3 -4 -5 7 6 10 12 9 -11 15 -13 21 17 23 -17 -18 -19 19 22 -22 -23 -24 27 29 -27 -28 -29 -30 -31
leaf_value=-0.024160550832415799 -0.0095094133104959688 -0.019239816132467242 -0.014097114501456762 0.011488476546020882 -0.0050332802883349369 -0.017839839124298169 -0.011205171128077542 0.008743972386962371 -0.011767347360199149 -0.022854517501158023 -0.012760069003395207 0.0086891415835309189 0.020068676340760608 0.0033407968538813298 0.0065210460615344346 0.0049983874231758017 0.001428527901975476 0.015307291437472618 -0.0058676760562229903 0.00034572561450589161 -0.0023690671770877783 0.013663705318923232 0.0084935163546885767 0.017081164127146758 -0.00099187564060446761 0.0015502417012988913 -0.0018330784607678654 0.01081493320525624 0.0020053582731634381 -0.0082101668510586017
leaf_weight=28 22 20 29 22 20 21 34 23 22 21 21 38 33 20 20 36 49 21 20 26 21 46 21 27 21 29 20 32 24 20
leaf_count=28 22 20 29 22 20 21 34 23 22 21 21 38 33 20 20 36 49 21 20 26 21 46 21 27 21 29 20 32 24 20
internal_value=0 0.0884315 0.108526 -0.137405 0.134145 -0.16488 -0.0904818 0.190528 -0.285778 -0.219966 -0.0557451 0.0209956 0.235672 0.0789958 0.180727 -0.0106728 -0.0544426 0.1894 -0.0322696 0.0208953 -0.151291 0.326784 0.0797246 0.23739 -0.140925 0.0946417 -0.11708 0.273651 -0.0238805 -0.0902599
internal_weight=0 491 471 316 442 294 182 295 112 84 161 147 210 85 131 127 91 41 109 67 42 79 47 79 63 52 42 59 44 41
internal_count=807 491 471 316 442 294 182 295 112 84 161 147 210 85 131 127 91 41 109 67 42 79 47 79 63 52 42 59 44 41
shrinkage=0.05


Tree=31
num_leaves=31
num_cat=0
split_feature=0 12 35 1 19 24 25 0 2 24 35 24 1 23 35 19 0 0 14 25 28 27 28 24 28 30 18 35 30 12
split_gain=9.00229 4.41785 3.86583 4.32525 2.77405 2.59607 2.49561 1.89819 1.51308 1.17206 0.933356 0.803794 0.729019 0.663367 0.652167 0.776401 0.642668 0.621503 0.586926 0.561057 0.539812 0.422027 0.380967 0.371086 0.341339 0.263072 0.244455 0.238243 0.214741 0.177536
threshold=9.5000000000000018 32.500000000000007 5956.9000000000005 4.5000000000000009 492.83229308974654 3.5584167386614944 1.2844387755102045 179.50000000000003 5.5000000000000009 1.9487853283268251 3038.4000000000005 2.1425217557954563 1.5000000000000002 0.0138906451153389 1678.0000000000002 432.9119840368914 87.000000000000014 74.000000000000014 79.882110621316997 1.5190439213009885 0.010221223992165138 -0.12852745078327318 0.012472303770984723 2.7247727775020283 0.011552603225705388 173.23538810413046 243.47663488472315 4633.6250000000009 155.3672683050896 143.50000000000003
decision_type=2 2 2 2 2 2 2 2 2 2 2 2 2 2 2 2 2 2 2 2 2 2 2 2 2 2 2 2 2 2
left_child=4 -2 3 5 6 9 -1 18 21 -3 13 -4 -11 -10 -14 17 29 25 23 20 -12 -8 -22 -5 -9 -16 -20 28 -19 -13
right_child=1 2 11 7 -6 -7 8 24 10 12 19 16 14 -15 15 -17 -18 27 26 -21 22 -23 -24 -25 -26 -27 -28 -29 -30 -31
leaf_value=-0.022915631027093958 -0.017579406864630678 0.010632613553157585 0.020753662176430227 0.005161616088029136 -0.025987198296934369 -0.019108821705449374 -0.018600906273350121 0.022556641846895219 -0.003402008324290716 -0.0084494608920067556 0.0031001242411815948 0.0035164961482458297 -0.0080365944207490738 -0.014911554292553947 0.0012120562960626557 -0.0077952776468642382 0.013372130342759192 0.0075130048906430604 0.0054742983094183727 0.0072402552042727959 -0.0099835981360890669 -0.0083292529685422782 -0.0011198248063145136 -0.0037004817676331314 0.013712238163376848 -0.0050425906826196054 0.013198204232113703 0.0096244448041986862 0.0012416593285683448 0.0091190162401359812
leaf_weight=21 24 22 20 27 20 20 20 20 31 32 34 31 24 21 40 23 64 21 20 22 22 20 27 21 24 29 21 21 39 26
leaf_count=21 24 22 20 27 20 20 20 20 31 32 34 31 24 21 40 23 64 21 20 22 22 20 27 21 24 29 21 21 39 26
internal_value=0 0.0683081 0.0867989 0.0370433 -0.163308 -0.035443 -0.130607 0.184741 -0.0956744 -0.00781487 -0.0514382 0.229361 -0.0289951 -0.161002 -0.00625496 0.0151754 0.198665 0.0414078 0.100742 0.00282198 -0.0348121 -0.269302 -0.10199 0.025689 0.354648 -0.0283342 0.188609 0.100818 0.0687326 0.121441
internal_weight=0 569 545 404 238 271 218 133 197 251 157 141 229 52 197 173 121 150 89 105 83 40 49 48 44 69 41 81 60 57
internal_count=807 569 545 404 238 271 218 133 197 251 157 141 229 52 197 173 121 150 89 105 83 40 49 48 44 69 41 81 60 57
shrinkage=0.05


Tree=32
num_leaves=31
num_cat=0
split_feature=0 12 35 1 12 19 19 35 15 25 1 35 15 24 0 21 9 0 23 13 12 2 35 25 35 24 19 16 35 21
split_gain=8.19088 3.82045 2.65905 2.81952 2.60036 3.02386 2.33975 2.03974 1.84307 1.60807 1.43335 1.76984 1.05787 1.14962 0.820715 0.697787 0.689189 0.594276 0.575524 0.451597 0.448491 0.442024 0.422247 0.419068 0.2186 0.203047 0.180186 0.147786 0.126496 0.0963403
threshold=76.500000000000014 63.500000000000007 1958.9000000000003 2.5000000000000004 79.500000000000014 328.63845400720993 246.17997719900589 7726.0000000000009 860.00000000000011 1.5327376237861399 4.5000000000000009 6024.8750000000009 828.00000000000011 2.6883677826596419 7.5000000000000009 13.434049020307357 -0.3834915052593279 247.50000000000003 0.011677750935042653 67.613644039407305 222.00000000000003 6.5000000000000009 3963.5666666666671 1.4880764326087956 3922.9250000000006 2.7053346429865521 285.70775878852299 1.4745121835141826 4302.5833333333348 13.456919306669109
decision_type=2 2 2 2 2 2 2 2 2 2 2 2 2 2 2 2 2 2 2 2 2 2 2 2 2 2 2 2 2 2
left_child=1 6 15 7 5 16 -1 12 -8 14 11 18 -4 -14 21 -3 -2 28 19 -6 22 -5 27 -20 -23 -13 29 -16 -12 -24
right_child=4 2 3 9 10 -7 8 -9 -10 -11 17 25 13 -15 20 -17 -18 -19 23 -21 -22 24 26 -25 -26 -27 -28 -29 -30 -31
leaf_value=-0.00062811778177722149 0.011692869149971688 -0.0073245630646124483 -0.0044879466904183991 -0.0091110858711458392 0.011679678991436959 -0.017280468022958798 -0.027756138705520024 0.0037604320708110382 -0.01081870020263725 0.015398746675678664 0.009354540621418328 0.01597137302160263 -0.0092762837419286381 -0.025631688091726529 0.00046530174911909162 -0.020374209832932269 0.00045787203720791677 0.022577759474515915 -0.0035711083248698792 0.0022678495026551763 0.0075069315964356072 -0.0039164271418485443 0.0036718669023526754 0.0047641863543540245 0.0016594943220321187 0.010138090064104361 0.00013432035222649575 -0.0055402585805859423 0.014910713732242585 0.0084167914709541956
leaf_weight=26 21 20 26 21 25 22 29 27 36 21 21 35 22 21 21 21 39 20 38 26 44 32 23 25 39 26 20 20 20 20
leaf_count=26 21 20 26 21 25 22 29 27 36 21 21 35 22 21 21 21 39 20 38 26 44 32 23 25 39 26 20 20 20 20
internal_value=0 -0.0812433 -0.0389782 -0.0112783 0.124931 -0.0284788 -0.266095 -0.157812 -0.367508 0.0426193 0.178234 0.132223 -0.248994 -0.345276 0.0194007 -0.280171 0.0878024 0.310234 0.0586594 0.13763 0.0655063 -0.0547692 0.0297003 -0.00526903 -0.0170719 0.269701 0.0811032 -0.0492848 0.241297 0.117576
internal_weight=0 489 398 357 318 82 91 96 65 261 236 175 69 43 240 41 60 61 114 51 148 92 104 63 71 61 63 41 41 43
internal_count=807 489 398 357 318 82 91 96 65 261 236 175 69 43 240 41 60 61 114 51 148 92 104 63 71 61 63 41 41 43
shrinkage=0.05


Tree=33
num_leaves=31
num_cat=0
split_feature=0 12 25 35 19 25 25 8 30 0 35 35 1 34 19 1 25 25 35 12 33 0 20 20 12 19 34 15 28 18
split_gain=7.45874 3.77036 3.415 3.14607 2.39662 2.14127 1.72327 1.33486 1.08615 0.917283 0.916863 0.806453 1.24842 0.804032 0.632228 0.623888 0.609415 0.576919 0.528119 0.479324 0.540037 0.470568 0.418009 0.385769 0.369548 0.431773 0.354051 0.298748 0.201963 0.172365
threshold=9.5000000000000018 32.500000000000007 1.7262178565229254 3864.8666666666672 492.83229308974654 1.2844387755102045 1.2208222516909537 0.25881904510253567 214.34280386805679 182.50000000000003 3038.4000000000005 6663.2083333333348 3.5000000000000004 214.85166132681113 311.27539980806017 3.5000000000000004 1.4398292448864674 1.4707876517982452 2034.0000000000002 204.00000000000003 30.648430214405938 85.500000000000014 0.26040237541997929 0.257484128079848 168.00000000000003 221.34258595461128 233.02874068861692 1086.0000000000002 0.011177683295415429 234.66356043543547
decision_type=2 2 2 2 2 2 2 2 2 2 2 2 2 2 2 2 2 2 2 2 2 2 2 2 2 2 2 2 2 2
left_child=4 -2 3 6 5 -1 -3 11 9 14 -9 12 17 -11 24 19 -16 -7 -17 20 -8 -20 -12 -14 25 -5 -15 -28 -27 -26
right_child=1 2 -4 8 -6 7 15 10 -10 13 22 -13 23 26 16 18 -18 -19 21 -21 -22 -23 -24 -25 29 28 27 -29 -30 -31
leaf_value=-0.021090261886517206 -0.016286534151246694 -0.01573089258861728 0.021646274701477244 0.01119904961987314 -0.02399759139865637 -0.015478141985035368 -0.0019043170504600686 -0.018324930834668605 -0.0024013303036829743 0.0021531646174844355 -0.010195061690263595 0.0072068197227528573 0.0066761720520646679 0.018599570996087531 -0.0064891711925156416 -0.0028785027761125204 0.0049383772279335452 -0.0041301674500573426 0.0016012254203561435 0.0027098512404005637 -0.011700361982608836 0.010122112418489102 -0.00071054187248505304 -0.001569850362421995 0.0077639405848458415 -2.9120104515860819e-05 0.0080878025801212061 0.01555857033185337 0.0053702045529864214 0.014048862271010876
leaf_weight=21 24 20 26 22 20 21 34 22 33 20 26 23 23 23 20 33 28 24 43 22 24 26 21 37 24 29 32 23 43 20
leaf_count=21 24 20 26 22 20 21 34 22 33 20 26 23 23 23 20 33 28 24 43 22 24 26 21 37 24 29 32 23 43 20
internal_value=0 0.0621768 0.0792589 0.0615415 -0.14865 -0.118255 -0.035992 -0.0858967 0.123692 0.143646 -0.198012 -0.0254595 -0.062609 0.221941 0.102393 -0.00537381 0.00353797 -0.188518 0.0464778 -0.0714847 -0.119157 0.0962399 -0.119146 0.0318225 0.136778 0.101373 0.267807 0.224239 0.0639095 0.212414
internal_weight=0 569 545 519 238 218 202 197 317 284 69 128 105 98 186 182 48 45 102 80 58 69 47 60 138 94 78 55 72 44
internal_count=807 569 545 519 238 218 202 197 317 284 69 128 105 98 186 182 48 45 102 80 58 69 47 60 138 94 78 55 72 44
shrinkage=0.05


Tree=34
num_leaves=31
num_cat=0
split_feature=0 12 35 1 12 19 19 35 15 25 1 35 15 21 9 0 10 23 12 0 13 25 19 35 33 8 24 16 0 0
split_gain=6.83446 3.30812 2.33901 2.42706 2.19697 2.674 1.97029 1.72953 1.64133 1.36643 1.23339 1.42761 0.895288 1.02832 0.663602 0.661778 0.599229 0.504012 0.501753 0.494972 0.374841 0.359969 0.335647 0.271075 0.246865 0.219929 0.171531 0.145418 0.0930978 0.0667492
threshold=76.500000000000014 68.500000000000014 1958.9000000000003 2.5000000000000004 79.500000000000014 314.58936294314054 246.17997719900589 7726.0000000000009 860.00000000000011 1.5327376237861399 4.5000000000000009 6024.8750000000009 828.00000000000011 13.504049506297521 -0.3834915052593279 4.5000000000000009 3.9687841001923075e-14 0.011677750935042653 222.00000000000003 231.50000000000003 67.613644039407305 1.4880764326087956 314.0263248919054 3922.9250000000006 30.720088213287259 0.1294095225512604 2.7053346429865521 1.4633739837398376 10.500000000000002 19.500000000000004
decision_type=2 2 2 2 2 2 2 2 2 2 2 2 2 2 2 2 2 2 2 2 2 2 2 2 2 2 2 2 2 2
left_child=1 6 16 7 5 14 -1 12 -8 15 11 17 -4 -14 -2 25 -3 20 22 -12 -6 -19 23 28 -20 -5 -13 -25 -17 -29
right_child=4 2 3 9 10 -7 8 -9 -10 -11 19 26 13 -15 -16 18 -18 21 24 -21 -22 -23 -24 27 -26 -27 -28 29 -30 -31
leaf_value=-0.00081831973425492094 0.011697741835378112 -0.019301344596096899 -0.0040974093636927693 -0.0013524070865689563 0.010784656181931496 -0.015805787317778753 -0.025757909922635765 0.0035048133055507035 -0.0098709897742279493 0.014307385505942098 0.010650579125393888 0.014480474173490491 -0.0075587776271277109 -0.023060847451383978 0.00049556282301170703 -0.0035246778993972671 -0.0070617662038421269 -0.0033386806623495525 0.0087401807618637875 0.019870319000134865 0.0022098992127352036 0.0043865406699478623 -0.0042397415489956207 0.00056994233856953334 0.0019187357941908496 -0.0083265164587646729 0.0091189809103245627 0.0035334229996078648 0.0010799288284033537 0.0074829801653876248
leaf_weight=27 20 20 26 26 25 23 29 27 37 21 37 35 20 23 39 21 20 38 36 24 26 25 28 21 21 20 26 20 23 23
leaf_count=27 20 20 26 26 25 23 29 27 37 21 37 35 20 23 39 21 20 38 36 24 26 25 28 21 21 20 26 20 23 23
internal_value=0 -0.0742121 -0.0343528 -0.00859115 0.114119 -0.0268906 -0.243936 -0.144475 -0.337032 0.0415812 0.163113 0.120432 -0.228437 -0.317012 0.0858582 0.0200921 -0.263631 0.0543627 0.0457817 0.28556 0.128264 -0.00546233 0.0127725 0.0380678 0.12454 -0.0876926 0.243905 0.0796081 -0.0223545 0.11292
internal_weight=0 489 396 356 318 82 93 96 66 260 236 175 69 43 59 239 40 114 193 61 51 63 136 108 57 46 61 64 44 43
internal_count=807 489 396 356 318 82 93 96 66 260 236 175 69 43 59 239 40 114 193 61 51 63 136 108 57 46 61 64 44 43
shrinkage=0.05


Tree=35
num_leaves=31
num_cat=0
split_feature=0 19 24 25 35 25 8 17 0 12 21 1 12 35 12 1 1 35 20 0 12 0 35 27 12 13 33 21 17 0
split_gain=6.21064 3.37497 3.43825 2.6642 2.1326 2.08752 2.09902 1.7111 1.3428 0.912929 0.884616 0.86216 0.798883 0.749585 0.738427 0.464823 0.43815 0.413294 0.360502 0.345222 0.303376 0.268325 0.206446 0.178439 0.177231 0.158993 0.150336 0.137469 0.104834 0.0760731
threshold=9.5000000000000018 659.79695902081528 3.5584167386614944 1.7343241330502479 3170.6500000000005 1.4075824367042722 0.50000000000001499 26.628143470502959 76.500000000000014 149.50000000000003 13.375575694891591 3.5000000000000004 81.500000000000014 7145.8333333333348 116.50000000000001 2.5000000000000004 2.5000000000000004 1958.9000000000003 0.25815634988157926 76.500000000000014 161.00000000000003 107.00000000000001 6490.0000000000009 -0.12792174638775031 149.50000000000003 69.087230807625517 30.533428060251595 13.475389684228357 28.981961633663371 25.500000000000004
decision_type=2 2 2 2 2 2 2 2 2 2 2 2 2 2 2 2 2 2 2 2 2 2 2 2 2 2 2 2 2 2
left_child=5 2 3 4 14 7 10 -1 16 -8 -7 13 -12 20 15 -2 -6 -16 -14 -17 -10 28 26 -20 -15 -13 29 -27 -19 -18
right_child=1 -3 -4 -5 8 6 9 -9 11 -11 12 25 18 24 17 19 22 21 23 -21 -22 -23 -24 -25 -26 27 -28 -29 -30 -31
leaf_value=-0.006754728686593642 -0.0097211947975059353 -0.017338462255429479 -0.01233278894214891 0.020823936505864064 -0.0022583381625244747 0.005598082415397383 -0.01704285766678176 -0.026474937745793299 -0.00086743857419706825 -0.0040527409327859509 -0.012210827265378267 0.015022925914240046 0.0033183675392397813 0.0070338067528791723 -0.0034348728256705014 -0.0051909604077709131 0.0029162690295682601 -0.00063800340052694087 -0.0063095254390018772 0.0031150831597518518 0.0068130480719264599 0.0086993282984780245 0.0080351327769458292 -0.00025762640039569566 0.013348619803786278 0.0084813946777762012 3.1543981749564408e-05 0.013869760688394309 0.0044814208522439003 0.0068972938862316372
leaf_weight=22 27 20 32 24 37 36 38 22 36 21 21 37 28 20 23 29 30 20 29 22 20 23 25 21 25 29 30 20 20 20
leaf_count=22 27 20 32 24 37 36 38 22 36 21 21 37 28 20 23 29 30 20 29 22 20 23 25 21 25 29 30 20 20 20
internal_value=0 0.0567366 0.0714363 0.0911248 0.0752861 -0.135643 -0.0910417 -0.332297 0.121722 -0.248385 -0.0222768 0.177393 -0.0710908 0.114738 -0.0178692 -0.0883278 0.0484085 0.0460351 -0.02448 -0.0321592 0.0375118 0.0879216 0.0813826 -0.0753546 0.210841 0.250978 0.0565951 0.213615 0.0384342 0.0901736
internal_weight=0 569 549 517 493 238 194 44 329 59 135 187 99 101 164 78 142 86 78 51 56 63 105 50 45 86 80 49 40 50
internal_count=807 569 549 517 493 238 194 44 329 59 135 187 99 101 164 78 142 86 78 51 56 63 105 50 45 86 80 49 40 50
shrinkage=0.05


Tree=36
num_leaves=31
num_cat=0
split_feature=0 19 24 25 35 1 35 35 12 1 1 12 0 35 8 24 0 0 35 30 12 27 12 12 0 12 1 9 28 31
split_gain=5.61251 3.364 3.00333 2.08634 1.79219 1.78022 1.93985 1.73983 1.61134 1.20141 0.955583 0.847226 0.720778 0.607824 0.596363 0.546289 0.503306 0.404997 0.278306 0.284543 0.261672 0.241178 0.213509 0.195389 0.195922 0.183944 0.146595 0.138159 0.120404 0.180781
threshold=20.500000000000004 619.45979743600162 3.5584167386614944 1.5723692154703983 1958.9000000000003 2.5000000000000004 7726.0000000000009 4122.3333333333348 61.000000000000007 2.5000000000000004 4.5000000000000009 110.50000000000001 92.500000000000014 9101.7500000000018 0.86602540378445247 2.1793879938007321 311.50000000000006 54.500000000000007 1994.6666666666667 195.62570550942476 127.50000000000001 -0.12017506138368823 135.50000000000003 213.00000000000003 4.5000000000000009 250.50000000000003 3.5000000000000004 0.26450801018036196 0.011701543148967682 13426.924433011784
decision_type=2 2 2 2 2 2 2 2 2 2 2 2 2 2 2 2 2 2 2 2 2 2 2 2 2 2 2 2 2 2
left_child=3 2 7 4 -1 6 11 10 -7 13 16 -6 -12 20 23 -11 18 22 -2 21 -9 27 -17 24 -10 28 -26 -20 -19 -30
right_child=1 -3 -4 -5 5 8 -8 9 14 15 12 -13 -14 -15 -16 17 -18 25 19 -21 -22 -23 -24 -25 26 -27 -28 -29 29 -31
