tree
version=v3
num_class=1
num_tree_per_iteration=1
label_index=0
max_feature_idx=35
objective=regression
feature_names=Column_0 Column_1 Column_2 Column_3 Column_4 Column_5 Column_6 Column_7 Column_8 Column_9 Column_10 Column_11 Column_12 Column_13 Column_14 Column_15 Column_16 Column_17 Column_18 Column_19 Column_20 Column_21 Column_22 Column_23 Column_24 Column_25 Column_26 Column_27 Column_28 Column_29 Column_30 Column_31 Column_32 Column_33 Column_34 Column_35
feature_infos=[2:500] [1:6] [0:23] [0:23] [1:7] [1:7] [0:1] [0:1] [-1:1] [-0.9999533615201901:0.99999998260297063] [-1:1] [-0.9999533615201901:0.9997533958313618] [30:474] [51.198572830651038:101.78029538623399] [51.60980634736309:101.98591214459002] [300:2500] [1.3434065934065933:1.5888157894736843] [0:89.684294871794876] [0:903.26635514018687] [54.372712356915649:1138.0554989293762] [0.20888121334754814:0.29239885472489185] [12.887404123409217:14.251260504201682] [-0.17490679824596808:-0.030477997979942554] [-0.058044791479289357:0.080918861054415744] [1.744202420397599:4.0777385159010597] [1.0268907563025209:1.8271276595744681] [12.264865073004733:14.009596677452848] [-0.34791470352025644:-0.071562156261160179] [-0.00018499130811489711:0.077529824421025684] [0.18077169761751849:0.26719241079007411] [103.34501093310698:244.46882254211138] [9162.9349492232504:15386.599851150248] [1.2314575194355701:1.7162184184971254] [24.095732446518237:35.479002013320468] [152.87779866978451:451.71227330708223] [806.75:15426]
tree_sizes=1880 2010 2273 2277 2277 2445 2547 2543 2643 2656 2735 2718 2730 2734 2728 2728 2734 2730 2742 2725 2722 2736 2738 2741 2737 2744 2739 2749 2736 2738 2730 2745 2732 2735 2738 2757 2668 2670 2755 2747 2675 2770 2743 2671 2762 2768 2760 2778 2769 2794 2777 2795 2772 2792 2786 2792 2772 2792 2795 2783 2818 2810 2786 2800 2800 2795 2802 2787 2815 2814 2806 2729 2791 2818 2812 2819 2802 2805 2815 2723 2803 2812 2718 2817 2817 2820 2804 2818 2815 2827 2838 2664 2813 2823 2740 2824 2830 2743 2825 2837

Tree=0
num_leaves=22
num_cat=0
split_feature=0 25 35 0 12 0 0 35 24 12 26 34 13 25 12 12 0 19 0 27 15
split_gain=710.284 117.809 46.9344 42.1459 22.5996 18.3408 12.3629 9.98082 8.74857 7.90517 5.1239 5.9141 4.85027 4.64959 3.849 2.71923 2.26825 2.18293 1.65462 0.36093 0.0399729
threshold=36.500000000000007 1.1827308010693593 3629.5000000000005 21.500000000000004 50.500000000000007 76.500000000000014 102.50000000000001 5722.8750000000009 2.2158628576745438 90.500000000000014 13.543867104616824 214.85166132681113 63.158614275026686 1.434608986223237 116.50000000000001 119.50000000000001 190.50000000000003 263.115206820639 16.500000000000004 -0.13757874827589603 2250.0000000000005
decision_type=2 2 2 2 2 2 2 2 2 2 2 2 2 2 2 2 2 2 2 2 2
left_child=3 -2 6 18 -4 17 14 13 -7 -8 11 -10 -11 -5 -3 -13 -17 -6 20 -18 -1
right_child=1 2 4 7 5 8 9 -9 10 12 -12 15 -14 -15 -16 16 19 -19 -20 -21 -22
leaf_value=-3.2894336152567889 -3.2832126748333659 -3.237980888953274 -3.2058907227367834 -3.2765523165520953 -3.178216914881709 -3.1249360623850846 -3.2141540229476417 -3.2213504006793463 -3.172926636301117 -3.1605929512649205 -3.176613203258976 -3.1610158512357862 -3.1911544284353219 -3.248294694676173 -3.2098068710438614 -3.1529220431342151 -3.1292354061413516 -3.2015778475373411 -3.276126149443308 -3.1386207226409937 -3.2871192932992601
leaf_weight=278 29 22 30 24 20 25 25 24 27 20 27 23 37 37 27 25 21 20 26 20 20
leaf_count=278 29 22 30 24 20 25 25 24 27 20 27 23 37 37 27 25 21 20 26 20 20
internal_value=0 0.951041 1.10356 -0.925463 1.36816 1.48519 0.622852 -0.298735 1.63008 0.860325 1.53467 1.62599 1.06595 -0.513674 0.225446 1.75036 1.85354 0.876627 -1.08988 1.9983 -1.11099
internal_weight=0 398 369 409 238 208 131 85 168 82 143 116 57 61 49 89 66 40 324 41 298
internal_count=807 398 369 409 238 208 131 85 168 82 143 116 57 61 49 89 66 40 324 41 298
shrinkage=1


Tree=1
num_leaves=23
num_cat=0
split_feature=0 25 35 0 0 12 0 12 35 12 24 25 18 16 0 30 12 12 0 25 0 15
split_gain=641.031 106.323 42.3583 38.4386 20.6454 14.1117 11.1575 7.63249 7.29397 7.19539 5.63928 4.05605 3.67887 3.50223 3.23626 2.96346 2.48928 2.03092 1.26317 0.173838 0.000136802 7.13962e-05
threshold=36.500000000000007 1.1827308010693593 3629.5000000000005 23.500000000000004 107.00000000000001 61.000000000000007 102.50000000000001 84.500000000000014 5547.7000000000016 145.50000000000003 2.3438087966821359 1.434608986223237 222.7557322929172 1.4522231317558294 17.500000000000004 192.1392100739607 121.50000000000001 81.500000000000014 199.50000000000003 1.6977023603075045 11.500000000000002 2170.0000000000005
decision_type=2 2 2 2 2 2 2 2 2 2 2 2 2 2 2 2 2 2 2 2 2 2
left_child=3 -2 6 14 7 -6 12 -4 11 17 -7 -5 -3 -12 19 -9 -15 -8 -18 20 21 -1
right_child=1 2 4 8 5 10 9 15 -10 -11 13 -13 -14 16 -16 -17 18 -19 -20 -21 -22 -23
leaf_value=-0.052919620275497438 -0.047009726588068339 -0.0051110101730695795 0.018541902960056349 -0.038106125610065648 0.044722471175094453 0.1058684803545475 0.017677338897129118 0.062638412177976638 0.015076094488613308 0.058463788996724525 0.060291128944266928 -0.0092252031746019991 0.022573493979871274 0.069152736663818368 -0.036355239547350829 0.039956041607850545 0.079098946115244997 0.038264797948300844 0.09409964034954707 -0.048115391349419952 -0.053047576546669008 -0.053017979264259343
leaf_weight=238 29 21 21 20 30 22 23 36 20 34 22 31 28 24 34 24 23 25 36 20 26 20
leaf_count=238 29 21 21 20 30 22 23 36 20 34 22 31 28 24 34 24 23 25 36 20 26 20
internal_value=0 0.903489 1.04839 -0.87919 1.29975 1.5113 0.591709 0.889706 -0.210305 0.817309 1.65701 -0.411021 0.214174 1.56056 -1.0197 1.07131 1.65459 0.567999 1.76504 -1.05242 -1.05877 -1.05854
internal_weight=0 398 369 409 238 157 131 81 71 82 127 51 49 105 338 60 83 48 59 304 284 258
internal_count=807 398 369 409 238 157 131 81 71 82 127 51 49 105 338 60 83 48 59 304 284 258
shrinkage=0.05


Tree=2
num_leaves=26
num_cat=0
split_feature=0 25 35 0 0 12 0 12 12 35 24 26 34 19 12 0 35 0 20 12 15 24 0 15 0
split_gain=578.531 95.9566 38.2283 34.6909 19.0392 15.7908 10.0697 6.69147 6.49384 6.11045 5.99043 4.62215 3.75292 3.61276 3.4183 2.92836 2.77324 2.16668 2.00653 0.692682 0.035469 0.000275832 3.09509e-07 3.98521e-09 2.84217e-14
threshold=36.500000000000007 1.1827308010693593 3629.5000000000005 23.500000000000004 76.500000000000014 61.000000000000007 102.50000000000001 97.500000000000014 145.50000000000003 4091.0000000000005 2.2158628576745438 13.543867104616824 214.85166132681113 264.5975261099224 124.50000000000001 16.500000000000004 5026.0500000000011 190.50000000000003 0.26051397177702534 163.50000000000003 2250.0000000000005 1.9302645089007722 11.500000000000002 1870.0000000000002 9.5000000000000018
decision_type=2 2 2 2 2 2 2 2 2 2 2 2 2 2 2 2 2 2 2 2 2 2 2 2 2
left_child=3 -2 6 15 13 -6 14 -5 18 -9 -7 12 -12 -4 -3 20 -17 -14 -8 -19 21 -1 23 24 -23
right_child=1 2 4 7 5 10 8 9 -10 -11 11 -13 17 -15 -16 16 -18 19 -20 -21 -22 22 -24 -25 -26
leaf_value=-0.050465809106826791 -0.044659241154019175 -0.0033052319874210903 0.047481495683843439 -0.034501078492030504 0.039311596670666256 0.098630766446391738 0.035995678232844781 -0.016694264313964934 0.055540600550525336 0.01797974309884012 0.057636207376014104 0.052119420140981677 0.071096464027376738 0.019430294795893133 0.023112634975463155 -0.048898041583597666 -0.02256725145620294 0.081331045925617226 0.015388357646207579 0.093110622694859146 -0.048106885440647604 -0.050273638963699345 -0.050267243385314943 -0.05027290135622025 -0.050273638963699345
leaf_weight=20 29 24 22 20 37 24 27 27 34 24 22 25 34 24 25 20 20 24 21 26 20 183 21 20 34
leaf_count=20 29 24 22 20 37 24 27 27 34 24 22 25 34 24 25 20 20 24 21 26 20 183 21 20 34
internal_value=0 0.858315 0.995966 -0.83523 1.23476 1.3732 0.562124 -0.19979 0.776444 -0.00754169 1.51332 1.42917 1.5204 0.656922 0.203465 -0.968711 -0.714653 1.61669 0.5396 1.74913 -1.00281 -1.00574 -1.00546 -1.00547 -1.00547
internal_weight=0 398 369 409 238 192 131 71 82 51 155 131 106 46 49 338 40 84 48 50 298 278 258 237 217
internal_count=807 398 369 409 238 192 131 71 82 51 155 131 106 46 49 338 40 84 48 50 298 278 258 237 217
shrinkage=0.05


Tree=3
num_leaves=26
num_cat=0
split_feature=0 25 35 0 0 12 12 0 35 24 35 1 25 19 25 0 0 0 0 25 0 15 24 15 0
split_gain=522.124 86.6008 34.7575 31.3085 18.0682 12.4159 9.45364 6.68171 6.1182 5.92748 4.01805 5.58733 3.64121 3.40322 2.96845 2.88908 2.65986 2.15334 0.781481 0.152741 0.000465971 0.00025447 2.7083e-08 5.94014e-12 2.84217e-14
threshold=36.500000000000007 1.1827308010693593 3170.6500000000005 23.500000000000004 87.000000000000014 61.000000000000007 88.000000000000014 107.00000000000001 5547.7000000000016 2.2158628576745438 6024.8750000000009 3.5000000000000004 1.434608986223237 243.74146450989414 1.4754400286315181 194.00000000000003 17.500000000000004 64.500000000000014 190.50000000000003 1.6977023603075045 11.500000000000002 2170.0000000000005 2.1260809783936416 1670.0000000000002 9.5000000000000018
decision_type=2 2 2 2 2 2 2 2 2 2 2 2 2 2 2 2 2 2 2 2 2 2 2 2 2
left_child=3 -2 6 16 13 -6 -3 -8 12 -7 11 -11 -5 -4 -9 -13 19 -15 -12 20 21 22 -1 24 -24
right_child=1 2 4 8 5 9 7 14 -10 10 18 15 -14 17 -16 -17 -18 -19 -20 -21 -22 -23 23 -25 -26
leaf_value=-0.047758036255836495 -0.042426278336166308 0.0041841950884239903 0.050938409850710922 -0.035314541691914204 0.038386431802064185 0.094058863550424587 0.017111106373539027 0.031782030349686033 0.013948111368226818 0.043735100636859578 0.070771906863559372 0.059206411145303561 -0.0079503737089614713 0.014444839693605899 0.056465792818926275 0.084857292402358286 -0.032750844818485135 0.037368986897525339 0.083093730672713251 -0.043273769866209483 -0.04799627329294498 -0.047945489883422857 -0.047759956121444708 -0.047759984731674199 -0.047759956121444708
leaf_weight=20 29 37 21 20 34 25 33 21 20 31 22 23 31 20 29 21 34 21 31 20 26 20 167 20 31
leaf_count=20 29 37 21 20 34 25 33 21 20 31 22 23 31 20 29 21 34 21 31 20 26 20 167 20 31
internal_value=0 0.815399 0.946168 -0.793469 1.15923 1.31434 0.504069 0.691469 -0.1898 1.4358 1.34882 1.19988 -0.373628 0.691404 0.921972 1.42898 -0.920275 0.52373 1.55958 -0.949942 -0.95589 -0.955484 -0.955196 -0.955199 -0.955199
internal_weight=0 398 369 409 249 187 120 83 71 153 128 75 51 62 50 44 338 41 53 304 284 258 238 218 198
internal_count=807 398 369 409 249 187 120 83 71 153 128 75 51 62 50 44 338 41 53 304 284 258 238 218 198
shrinkage=0.05


Tree=4
num_leaves=26
num_cat=0
split_feature=0 25 35 0 12 0 0 24 25 12 35 1 35 12 0 25 0 15 0 15 25 0 15 24 0
split_gain=471.217 78.1572 31.3686 28.2756 16.4107 12.7437 8.56088 6.65246 5.72007 5.35147 4.21734 6.23397 3.74881 3.09542 2.96698 2.81787 2.54329 2.37777 1.22965 0.14336 0.00095816 0.000380496 2.82158e-08 1.33362e-08 2.84217e-14
threshold=36.500000000000007 1.1827308010693593 3170.6500000000005 24.500000000000004 50.500000000000007 76.500000000000014 102.50000000000001 2.2158628576745438 1.434608986223237 90.500000000000014 6024.8750000000009 3.5000000000000004 3844.9333333333338 116.50000000000001 17.500000000000004 1.4754400286315181 194.00000000000003 902.00000000000011 190.50000000000003 2250.0000000000005 1.5463332719911669 11.500000000000002 1870.0000000000002 2.1793879938007321 9.5000000000000018
decision_type=2 2 2 2 2 2 2 2 2 2 2 2 2 2 2 2 2 2 2 2 2 2 2 2 2
left_child=3 -2 6 14 -4 17 13 -7 -5 -8 11 -9 -10 -3 19 -11 -13 -6 -12 20 21 22 23 -1 -25
right_child=1 2 4 8 5 7 9 10 12 15 18 16 -14 -15 -16 -17 -18 -19 -20 -21 -22 -23 -24 24 -26
leaf_value=-0.0453706032037735 -0.040304964048595265 -0.0081360415543895222 0.021636945869977355 -0.028536365020342846 0.023009759075939658 0.089341535408479666 0.014575057331239805 0.040062844743713355 -0.013298703340406066 0.029526648060841994 0.06442644574024059 0.05632534595551314 0.016011734807398172 0.018497918033972383 -0.030473346509134927 0.053085830658674241 0.078951301263726292 0.046582512784263369 0.078915152605623012 -0.041136312898292782 -0.045734913647174837 -0.045576801657676698 -0.04536987006664276 -0.045371958613395692 -0.045371958613395692
leaf_weight=20 29 20 32 22 20 26 24 39 20 22 27 27 24 24 39 30 23 23 32 21 22 25 20 165 31
leaf_count=20 29 20 32 22 20 26 24 39 20 22 27 27 24 24 39 30 23 23 32 21 22 25 20 165 31
internal_value=0 0.774629 0.89886 -0.753795 1.10127 1.19985 0.478865 1.32032 -0.154392 0.682095 1.23837 1.10092 0.0537762 0.127831 -0.869133 0.86237 1.33467 0.712369 1.44569 -0.902445 -0.908361 -0.907826 -0.907433 -0.907437 -0.907439
internal_weight=0 398 369 409 249 217 120 174 66 76 148 89 44 44 343 52 50 43 59 304 283 261 236 216 196
internal_count=807 398 369 409 249 217 120 174 66 76 148 89 44 44 343 52 50 43 59 304 283 261 236 216 196
shrinkage=0.05


Tree=5
num_leaves=28
num_cat=0
split_feature=0 25 35 0 12 0 16 35 0 24 12 12 0 18 19 12 15 0 30 12 0 15 24 0 25 15 24
split_gain=425.273 70.5369 28.3787 25.5699 14.8447 10.9954 8.3759 7.89742 5.63542 5.277 4.18959 3.52775 2.86741 2.7538 2.6647 1.97396 1.57888 1.33028 0.831499 0.651202 0.37807 0.00133025 0.0008959 1.15109e-06 4.58732e-08 1.2114e-08 8.61462e-11
threshold=36.500000000000007 1.1827308010693593 3629.5000000000005 20.500000000000004 50.500000000000007 76.500000000000014 1.4485766324878577 6206.8750000000009 235.00000000000003 2.2158628576745438 92.500000000000014 116.50000000000001 231.50000000000003 230.80398170731709 281.59071923789458 99.500000000000014 916.00000000000011 102.50000000000001 190.23827732184392 206.50000000000003 13.500000000000002 2230.0000000000005 1.9302645089007722 10.500000000000002 1.516443588457119 1810.0000000000002 2.4469403009213821
decision_type=2 2 2 2 2 2 2 2 2 2 2 2 2 2 2 2 2 2 2 2 2 2 2 2 2 2 2
left_child=3 -2 6 20 -4 16 -3 10 15 -7 -5 18 13 -13 -12 -8 -6 -17 -11 -15 21 22 -1 24 25 26 -24
right_child=1 2 4 7 5 9 8 -9 -10 11 14 12 -14 19 -16 17 -18 -19 -20 -21 -22 -23 23 -25 -26 -27 -28
leaf_value=-0.043449973464012151 -0.038289716094732286 -0.0020275446993473453 0.020102608919454118 -0.03823377294060977 0.024232031535357239 0.084528636112809197 0.010872184226289392 0.014218743615562008 0.046922696069540352 0.054539251998066911 -0.0026828845047616756 0.043386847463746867 0.075720188021659862 0.059310885721986943 -0.026406360790133476 0.020026878717665873 0.044099575504660607 0.036854432669022809 0.040294066532736733 0.071476426043293698 -0.037343594935091755 -0.04355108812451363 -0.043103471100330359 -0.04309102567759427 -0.04310078947317033 -0.043102076798677447 -0.043103361111364251
leaf_weight=20 29 25 30 23 20 25 25 21 34 20 29 21 37 22 20 24 20 23 21 22 31 20 20 22 21 20 162
leaf_count=20 29 25 30 23 20 25 25 21 34 20 29 21 37 22 20 24 20 23 21 22 31 20 20 22 21 20 162
internal_value=0 0.735898 0.853917 -0.716106 1.05966 1.15451 0.48012 -0.255207 0.602919 1.2667 -0.412585 1.19259 1.29217 1.16568 -0.247319 0.444473 0.683316 0.565233 0.944859 1.30787 -0.85175 -0.863158 -0.862564 -0.862039 -0.86206 -0.862065 -0.862067
internal_weight=0 398 369 409 238 208 131 93 106 168 72 143 102 65 49 72 40 47 41 44 316 285 265 245 223 202 182
internal_count=807 398 369 409 238 208 131 93 106 168 72 143 102 65 49 72 40 47 41 44 316 285 265 245 223 202 182
shrinkage=0.05


Tree=6
num_leaves=29
num_cat=0
split_feature=0 25 0 0 35 12 19 35 35 12 1 35 0 25 19 18 20 12 30 0 15 25 0 24 15 25 22 0
split_gain=384.175 61.4136 28.2456 17.2558 15.2177 11.102 8.55311 7.87395 5.49383 5.09081 4.15794 3.73428 3.49358 2.47522 2.08608 1.95458 1.57261 1.52754 1.37726 0.341208 0.00120056 0.000815512 1.01731e-06 1.02567e-07 1.10045e-08 6.8539e-11 7.10543e-14 1.42109e-14
threshold=33.500000000000007 1.1827308010693593 107.00000000000001 20.500000000000004 3629.5000000000005 71.000000000000014 303.82854296493559 3864.8666666666672 6112.5000000000009 145.50000000000003 2.5000000000000004 7716.5000000000009 49.500000000000007 1.447571989528796 179.78516015162589 228.65181243550055 0.26051397177702534 134.50000000000003 183.36530182929593 13.500000000000002 2230.0000000000005 1.5603117494045071 10.500000000000002 2.1706849279189151 1670.0000000000002 1.5073289436014889 -0.072811425169266933 6.5000000000000009
decision_type=2 2 2 2 2 2 2 2 2 2 2 2 2 2 2 2 2 2 2 2 2 2 2 2 2 2 2 2
left_child=3 -2 5 19 9 -3 10 15 13 16 11 -6 -9 -5 -12 -7 -4 -16 -14 20 21 22 23 -1 25 26 27 -25
right_child=1 2 4 8 6 7 -8 12 -10 -11 14 -13 18 -15 17 -17 -18 -19 -20 -21 -22 -23 -24 24 -26 -27 -28 -29
leaf_value=-0.040944327712059025 -0.03637522983139959 -0.0042327528208261356 0.029682373683209775 -0.033546317422475956 0.036549858525395398 0.0013678156753303484 0.037003886528712303 0.022346598473377527 0.0083150039054453364 0.047447015717625621 0.084660375118255624 0.067104231864213951 0.054377377991165432 -0.012918217621292128 0.056890128739178182 0.022158771271530826 0.011438837177341893 0.073175030781163108 0.037198125235736366 -0.035476414666270779 -0.041373533755540849 -0.041278786957263947 -0.040936474231156435 -0.040948191167104367 -0.040946967005729674 -0.040948289632797244 -0.04094819441437722 -0.040948191143217544
leaf_weight=20 29 32 27 26 20 20 35 20 20 32 22 20 28 33 24 26 21 36 20 31 20 20 22 101 20 20 20 42
leaf_count=20 29 32 27 26 20 20 35 20 20 32 22 20 28 33 24 26 21 36 20 31 20 20 22 101 20 20 20 42
internal_value=0 0.675581 0.78182 -0.704657 0.994967 0.435822 1.17585 0.58192 -0.286634 0.639986 1.30086 1.03654 0.798077 -0.440171 1.4298 0.262385 0.434017 1.33322 0.944387 -0.809162 -0.82 -0.819436 -0.818935 -0.818955 -0.818962 -0.818964 -0.818964 -0.818964
internal_weight=0 412 383 395 237 146 157 114 79 80 122 40 68 59 82 46 48 60 48 316 285 265 245 223 203 183 163 143
internal_count=807 412 383 395 237 146 157 114 79 80 122 40 68 59 82 46 48 60 48 316 285 265 245 223 203 183 163 143
shrinkage=0.05


Tree=7
num_leaves=29
num_cat=0
split_feature=0 25 35 0 12 0 12 24 25 0 35 1 35 14 0 0 35 15 0 26 24 15 0 25 0 24 15 8
split_gain=346.929 57.4968 23.4467 21.2663 12.4784 9.50436 7.08236 5.11646 4.56091 4.46448 3.49025 5.09577 3.067 2.39883 2.0471 1.98508 2.55771 1.89582 0.964195 0.0330131 0.000671969 0.000556488 0.000581088 2.48356e-07 2.13157e-09 3.26949e-10 1.38968e-10 2.84217e-14
threshold=36.500000000000007 1.1827308010693593 3170.6500000000005 24.500000000000004 50.500000000000007 76.500000000000014 88.000000000000014 2.2158628576745438 1.434608986223237 107.00000000000001 6024.8750000000009 3.5000000000000004 3844.9333333333338 86.119152291449851 194.00000000000003 16.500000000000004 4518.6666666666679 902.00000000000011 190.50000000000003 13.63650123834155 1.9358155282762 2150.0000000000005 11.500000000000002 1.516443588457119 9.5000000000000018 2.4757686959032927 1550.0000000000002 -0.86602540378444204
decision_type=2 2 2 2 2 2 2 2 2 2 2 2 2 2 2 2 2 2 2 2 2 2 2 2 2 2 2 2
left_child=3 -2 6 15 -4 17 -3 -7 -5 -8 11 -9 -10 -11 -13 19 -17 -6 -12 20 -1 22 23 24 25 -22 27 -27
right_child=1 2 4 8 5 7 9 10 12 13 18 14 -14 -15 -16 16 -18 -19 -20 -21 21 -23 -24 -25 -26 26 -28 -29
leaf_value=-0.039246606528759005 -0.034556468576192857 0.0022124308828465845 0.018162915013090242 -0.024936379864811897 0.019300790665693058 0.07726693290930528 0.014241748305291617 0.033418732298872413 -0.011514745589811356 0.048044556848428871 0.055689078238275319 0.048194188817783645 0.014996672639002404 0.026070565795120987 0.068493363649948777 -0.040879726521670823 -0.01689044309780002 0.040349412013007249 0.068518931139260539 -0.036954893374984914 -0.038901018649339675 -0.039198909699916844 -0.039182055145502097 -0.038895176847775777 -0.038901287317276004 -0.038900782511784485 -0.038900925368070605 -0.038900783658027654
leaf_weight=20 29 37 32 22 20 26 33 39 20 27 27 27 24 23 23 20 25 23 32 22 20 20 20 21 30 26 20 99
leaf_count=20 29 37 32 22 20 26 33 39 20 27 27 27 24 23 23 20 25 23 32 22 20 20 20 21 30 26 20 99
internal_value=0 0.664667 0.77122 -0.64679 0.946212 1.03218 0.408111 1.13622 -0.126962 0.570314 1.06434 0.939308 0.0589206 0.75873 1.15064 -0.746816 -0.551047 0.611187 1.25295 -0.776378 -0.77935 -0.778914 -0.778484 -0.778007 -0.778018 -0.778017 -0.778016 -0.778016
internal_weight=0 398 369 409 249 217 120 174 66 83 148 89 44 50 50 343 45 43 59 298 276 256 236 216 195 165 145 125
internal_count=807 398 369 409 249 217 120 174 66 83 148 89 44 50 50 343 45 43 59 298 276 256 236 216 195 165 145 125
shrinkage=0.05


Tree=8
num_leaves=30
num_cat=0
split_feature=0 25 35 0 0 16 12 12 35 0 30 12 0 25 19 23 31 9 0 25 15 26 0 24 34 25 15 0 24
split_gain=313.324 52.4591 21.6707 20.6314 9.90416 8.72406 6.51881 4.56007 4.40916 3.83944 3.72374 2.87867 2.2964 2.21417 2.04355 1.86198 1.48542 0.796056 0.27125 0.00105528 0.000680342 5.1695e-05 2.04057e-06 3.03238e-07 4.47528e-08 7.44791e-10 1.57087e-10 1.4353e-12 7.10543e-14
threshold=39.500000000000007 1.1827308010693593 3170.6500000000005 25.500000000000004 95.500000000000014 1.4312978403499181 88.000000000000014 121.50000000000001 4091.0000000000005 107.00000000000001 193.28668877948613 94.500000000000014 20.500000000000004 1.4754400286315181 263.95312116081033 0.013748694029539077 13706.686392248836 0.7203137570481436 13.500000000000002 1.5723692154703983 2170.0000000000005 13.625485605577936 10.500000000000002 2.296274526391588 207.09744074813213 1.5073289436014889 1590.0000000000002 8.5000000000000018 2.5882948871847984
decision_type=2 2 2 2 2 2 2 2 2 2 2 2 2 2 2 2 2 2 2 2 2 2 2 2 2 2 2 2 2
left_child=3 -2 6 12 11 -6 -3 10 -5 -8 14 -4 18 -11 -7 17 -13 -9 19 20 21 22 23 -1 -25 26 27 28 -26
right_child=1 2 4 8 5 7 9 15 -10 13 -12 16 -14 -15 -16 -17 -18 -19 -20 -21 -22 -23 -24 24 25 -27 -28 -29 -30
leaf_value=-0.036949043571949003 -0.032828646076136621 0.0021018087498944353 0.015111164683881012 -0.017053460725935912 0.025102621044677038 0.066841266043484213 0.013860240223584697 0.076298304288475616 0.0092068784900249979 0.023675108292982694 0.030266993023131208 0.027996944420738148 -0.02266500247536566 0.044993360931503364 0.044509135027016915 0.055919464658468199 0.045778662618249658 0.063137151747941975 -0.032084616210551996 -0.037359708994627004 -0.037263459414243701 -0.037037204056978225 -0.036938857490366156 -0.036953295767307284 -0.036955740622111731 -0.036956087648868562 -0.036955891847610473 -0.036955728843098598 -0.036955743880919469
leaf_weight=20 29 37 23 33 26 20 32 27 31 21 23 24 33 29 21 39 23 20 31 20 20 20 22 20 21 20 20 21 81
leaf_count=20 29 37 23 33 26 20 32 27 31 21 23 24 33 29 21 39 23 20 31 20 20 20 22 20 21 20 20 21 81
internal_value=0 0.63795 0.740803 -0.608602 0.910274 1.03682 0.390467 1.12951 -0.0866722 0.547686 0.927393 0.592112 -0.704314 0.720794 1.10806 1.27992 0.733973 1.41396 -0.730527 -0.74019 -0.739661 -0.739203 -0.739066 -0.739098 -0.739111 -0.739116 -0.739115 -0.739115 -0.739115
internal_weight=0 394 365 413 246 176 119 150 64 82 64 70 349 50 41 86 47 47 316 285 265 245 225 203 183 163 143 123 102
internal_count=807 394 365 413 246 176 119 150 64 82 64 70 349 50 41 86 47 47 316 285 265 245 225 203 183 163 143 123 102
shrinkage=0.05


Tree=9
num_leaves=30
num_cat=0
split_feature=0 25 35 0 0 12 12 16 35 1 0 0 14 0 35 22 0 15 24 26 0 25 15 19 34 0 18 8 19
split_gain=282.775 47.3444 19.5579 18.6198 9.03915 7.86907 5.88322 5.7215 3.97927 3.85325 3.46509 3.27216 2.14116 2.0725 1.9909 1.23652 0.244803 0.000956036 0.000639796 4.31126e-05 1.77573e-06 1.96399e-07 2.3512e-07 8.97217e-10 6.83258e-11 8.17124e-13 1.35003e-13 1.35003e-13 2.4869e-14
threshold=39.500000000000007 1.1827308010693593 3170.6500000000005 25.500000000000004 176.50000000000003 71.000000000000014 88.000000000000014 1.4447009019741324 4091.0000000000005 2.5000000000000004 107.00000000000001 76.500000000000014 86.119152291449851 20.500000000000004 5363.7500000000009 -0.099626554264632114 13.500000000000002 2230.0000000000005 1.9302645089007722 13.612164055112514 10.500000000000002 1.5143986165894932 1710.0000000000002 220.3030059113336 211.18085925735986 7.5000000000000009 230.80398170731709 0.25881904510246712 311.27539980806017
decision_type=2 2 2 2 2 2 2 2 2 2 2 2 2 2 2 2 2 2 2 2 2 2 2 2 2 2 2 2 2
left_child=3 -2 6 13 5 -4 -3 -6 -5 -9 -8 -7 -12 16 -11 -13 17 18 -1 20 21 22 23 -20 -25 26 28 -28 -26
right_child=1 2 4 8 7 11 10 9 -10 14 12 15 -14 -15 -16 -17 -18 -19 19 -21 -22 -23 -24 24 25 -27 27 -29 -30
leaf_value=-0.035405773967504502 -0.031187211773518859 0.0019967185522152763 0.0078622998669743548 -0.016200788028425339 0.028157511055469514 0.028396058850921693 0.013167228439124302 0.043495138230569226 0.0087465344417479735 0.056380595725316264 0.043787443196332015 0.054088234228472559 0.023027153917001157 -0.021531752671933538 0.073207959532737732 0.039592601358890533 -0.030480386052400839 -0.035492359399795531 -0.035108315944671634 -0.035182010233402249 -0.035091913830150256 -0.035102164596319201 -0.035102266669273373 -0.035108051449060443 -0.035107956440360459 -0.035107943286066472 -0.035107948631048207 -0.035107954075703253 -0.035107954419576204
leaf_weight=20 29 37 24 33 20 38 32 34 31 39 27 31 23 33 32 28 31 20 21 20 22 20 20 20 27 23 20 26 26
leaf_count=20 29 37 24 33 20 38 32 34 31 39 27 31 23 33 32 28 31 20 21 20 22 20 20 20 27 23 20 26 26
internal_value=0 0.606053 0.703763 -0.578172 0.864761 0.66993 0.370944 1.05336 -0.0823386 1.14673 0.520302 0.796779 0.684754 -0.669098 1.2793 0.944179 -0.694001 -0.70318 -0.702677 -0.702233 -0.702108 -0.702137 -0.702148 -0.70216 -0.702159 -0.702159 -0.702159 -0.702159 -0.702159
internal_weight=0 394 365 413 246 121 119 125 64 105 82 97 50 349 71 59 316 285 265 245 225 203 183 163 142 122 99 46 53
internal_count=807 394 365 413 246 121 119 125 64 105 82 97 50 349 71 59 316 285 265 245 225 203 183 163 142 122 99 46 53
shrinkage=0.05


Tree=10
num_leaves=31
num_cat=0
split_feature=0 25 0 35 12 12 0 1 30 18 24 35 25 34 35 0 18 34 30 0 25 15 26 0 24 28 25 15 21 34
split_gain=255.464 42.1917 27.5753 13.1175 9.69232 7.8173 4.71896 4.3982 3.94961 3.84217 3.43566 2.98926 2.59913 1.89905 1.88507 1.7846 1.23506 0.733081 0.488378 0.220935 0.000884865 0.000544098 4.18243e-05 1.62667e-06 4.16721e-07 4.23124e-08 2.19816e-09 5.17979e-10 2.9226e-10 5.58344e-11
threshold=28.500000000000004 1.1827308010693593 76.500000000000014 3629.5000000000005 71.000000000000014 61.000000000000007 20.500000000000004 4.5000000000000009 210.48202762227683 216.98303125000004 2.2158628576745438 4518.6666666666679 1.4945600710199252 214.85166132681113 6142.1250000000009 168.50000000000003 222.66577534123968 233.02874068861692 171.31135253634855 13.500000000000002 1.5723692154703983 2170.0000000000005 13.625485605577936 10.500000000000002 2.296274526391588 0.033407629864312359 1.5073289436014889 1494.0000000000002 13.314800035114651 214.85166132681113
decision_type=2 2 2 2 2 2 2 2 2 2 2 2 2 2 2 2 2 2 2 2 2 2 2 2 2 2 2 2 2 2
left_child=6 -2 4 7 -3 -5 19 12 10 -6 -7 -8 16 -12 18 -15 -4 -17 -11 20 21 22 23 24 -1 26 27 28 -26 -30
right_child=1 2 3 5 9 8 11 -9 -10 14 13 -13 -14 15 -16 17 -18 -19 -20 -21 -22 -23 -24 -25 25 -27 -28 -29 29 -31
leaf_value=-0.033344779461622238 -0.030408246526795048 -0.017675370337943044 0.0030020991583233295 0.02522069768023652 0.00056921375542879108 0.071949084238572561 -0.027645215552685589 0.040986733911214053 0.030063219256699088 0.022874607873104871 0.037530164129060246 -0.0037899032856027284 0.032888233978301283 0.044150011520832783 0.035970724374055865 0.066607005745172504 0.018192038900451735 0.054780585750153189 0.011957306689582767 -0.028956366811067832 -0.033721761554479604 -0.033627618998289109 -0.033425682783126832 -0.033337318355386912 -0.033352365344762804 -0.033350210487842556 -0.03335313826799393 -0.033352814614772797 -0.033352649211883544 -0.033352556142462304
leaf_weight=20 31 26 23 37 25 22 29 27 20 21 23 24 20 32 21 20 32 38 20 31 20 20 20 22 20 20 20 20 20 83
leaf_count=20 31 26 23 37 25 22 29 27 20 21 23 24 20 32 21 20 32 38 20 31 20 20 20 22 20 20 20 20 20 83
internal_value=0 0.516421 0.602077 0.763449 0.182225 0.917407 -0.612988 0.473647 1.01599 0.342328 1.07743 -0.336856 0.349056 1.00704 0.475774 1.07258 0.236798 1.17717 0.350982 -0.659301 -0.668021 -0.667537 -0.667128 -0.667005 -0.667033 -0.667048 -0.667053 -0.667052 -0.667051 -0.667051
internal_weight=0 438 407 294 113 192 369 102 155 87 135 53 75 113 62 90 55 58 41 316 285 265 245 225 203 183 163 143 123 103
internal_count=807 438 407 294 113 192 369 102 155 87 135 53 75 113 62 90 55 58 41 316 285 265 245 225 203 183 163 143 123 103
shrinkage=0.05


Tree=11
num_leaves=31
num_cat=0
split_feature=0 25 19 35 0 0 1 35 0 12 35 12 12 30 0 35 0 32 24 1 26 0 15 24 25 0 26 30 19 15
split_gain=231.263 38.5856 18.0252 15.8967 14.9764 9.72041 4.33619 4.71518 4.24764 3.94609 3.3863 2.59393 2.31934 1.84705 1.62067 2.49683 1.52879 0.970749 0.815075 0.787535 0.0301466 0.00315309 0.000506876 0.00030268 4.21343e-07 2.60804e-08 1.13985e-08 3.78355e-09 2.348e-09 9.55183e-11
threshold=39.500000000000007 1.1827308010693593 466.75072914271652 3014.6666666666674 25.500000000000004 119.50000000000001 2.5000000000000004 7716.5000000000009 237.50000000000003 94.500000000000014 4091.0000000000005 77.000000000000014 88.000000000000014 193.28668877948613 16.500000000000004 4518.6666666666679 236.50000000000003 1.4565967883590953 2.7074619104146227 3.5000000000000004 13.63650123834155 11.500000000000002 2170.0000000000005 1.9487853283268251 1.516443588457119 9.5000000000000018 13.543867104616824 142.02525290863576 229.18604354019439 1326.0000000000002
decision_type=2 2 2 2 2 2 2 2 2 2 2 2 2 2 2 2 2 2 2 2 2 2 2 2 2 2 2 2 2 2
left_child=4 -2 3 8 14 9 7 -7 12 -5 -6 -8 -3 17 20 -16 18 -11 -13 -14 21 22 23 -1 25 26 27 -25 -29 -30
right_child=1 2 -4 5 10 6 11 -9 -10 13 -12 16 19 -15 15 -17 -18 -19 -20 -21 -22 -23 -24 24 -26 -27 -28 28 29 -31
leaf_value=-0.031887732893228535 -0.028107439752282772 -0.0036436235532164574 -0.01315660331220854 0.013311580231349016 -0.015056268275348526 0.022777168845964802 0.040680286169052129 0.054367070680572872 0.034097336825949176 0.047909296521296107 0.0079573339992953882 0.059139347335566653 0.010350891157984734 0.022754369294270875 -0.034190958381994915 -0.011957524773398681 0.066582972214028646 0.033368593555959787 0.045337914824485785 0.023031128979831315 -0.029848874495788054 -0.032346339117396962 -0.031963968425989156 -0.031684338897466656 -0.03167760840484074 -0.031686448331536922 -0.031683703213930131 -0.031685576140880585 -0.031684960478759676 -0.031685079847063334
leaf_weight=20 29 20 21 29 33 27 25 21 27 24 31 23 25 20 23 28 37 22 20 24 22 22 20 20 21 29 20 20 83 21
leaf_count=20 29 20 21 29 33 27 25 21 27 24 31 23 25 20 23 28 37 22 20 24 22 22 20 20 21 29 20 20 83 21
internal_value=0 0.548079 0.636289 0.691196 -0.522865 0.824943 0.980945 0.731955 0.345682 0.573696 -0.0781811 1.09477 0.214101 0.708794 -0.604411 -0.439687 1.18263 0.819101 1.0544 0.331232 -0.632602 -0.635442 -0.634447 -0.634034 -0.633687 -0.633701 -0.633696 -0.6337 -0.633702 -0.6337
internal_weight=0 394 365 344 413 248 153 48 96 95 64 105 69 66 349 51 80 46 43 49 298 276 254 234 214 193 164 144 124 104
internal_count=807 394 365 344 413 248 153 48 96 95 64 105 69 66 349 51 80 46 43 49 298 276 254 234 214 193 164 144 124 104
shrinkage=0.05


Tree=12
num_leaves=31
num_cat=0
split_feature=0 25 0 35 25 12 30 35 18 0 35 12 12 0 25 1 0 34 15 9 0 24 33 26 0 25 27 24 15 28
split_gain=209.032 34.5489 16.9081 14.5202 9.15125 7.5321 5.02586 4.29071 4.27486 3.34278 2.34903 2.33423 2.12679 1.48398 1.38611 0.832432 0.789216 0.597279 0.185769 0.0665772 0.0858775 0.00040364 0.000102524 9.92587e-05 3.15478e-06 2.65003e-07 1.71882e-09 1.0569e-09 1.26057e-10 1.73728e-11
threshold=45.500000000000007 1.1827308010693593 25.500000000000004 3014.6666666666674 1.702985739750446 50.500000000000007 214.34280386805679 4091.0000000000005 212.99697008113594 231.50000000000003 4302.5833333333348 179.50000000000003 99.500000000000014 20.500000000000004 1.4756393085329484 3.5000000000000004 92.500000000000014 243.6677092213485 2130.0000000000005 0.95595377437099149 14.500000000000002 1.9358155282762 31.714406118436226 13.607604468856641 9.5000000000000018 1.5133079734910402 -0.11139559726335758 2.5518474105449047 1326.0000000000002 0.019005481969764263
decision_type=2 2 2 2 2 2 2 2 2 2 2 2 2 2 2 2 2 2 2 2 2 2 2 2 2 2 2 2 2 2
left_child=2 -2 13 8 5 -5 9 -4 -3 10 -7 16 -10 18 -14 -11 -12 -18 19 20 21 -1 23 24 25 26 27 -23 29 -29
right_child=1 3 7 4 -6 6 -8 -9 12 15 11 -13 14 -15 -16 -17 17 -19 -20 -21 -22 22 -24 -25 -26 -27 -28 28 -30 -31
leaf_value=-0.030354380905628205 -0.026479890144297052 -0.0015518631453492813 -0.014686874904407142 0.012262894358718768 0.07003689959645272 0.02384824379613357 0.015233011295398079 0.0087671423856264512 0.0076988598844036464 0.045507110868181502 0.026878153227946979 0.050622511591230129 0.01667453144909814 -0.018620321944807516 0.033557837997232713 0.057931514428212094 0.032727843073994983 0.044801137894392017 -0.025949392159437312 -0.027877079258705008 -0.033550674766302108 -0.030101147435960318 -0.030227568894624714 -0.030214396417140962 -0.030082132220268249 -0.030094561427831651 -0.030100324451923371 -0.030100702732167348 -0.030100862383842471 -0.030100758373737338
leaf_weight=20 28 28 39 32 20 28 21 39 20 28 22 35 20 33 31 26 21 20 29 29 20 21 20 20 30 20 20 47 20 20
leaf_count=20 28 28 39 32 20 28 21 39 20 28 22 35 20 33 31 26 21 20 29 29 20 21 20 20 30 20 20 47 20 20
internal_value=0 0.5395 -0.480117 0.624542 0.751591 0.69587 0.76761 -0.0591973 0.29986 0.82162 0.732407 0.805391 0.430355 -0.574191 0.538739 1.02978 0.690358 0.772345 -0.595263 -0.602971 -0.608077 -0.602788 -0.602394 -0.602176 -0.601938 -0.601998 -0.602015 -0.602017 -0.602015 -0.602014
internal_weight=0 380 427 352 253 233 201 78 99 180 126 98 71 349 51 54 63 41 316 287 258 238 218 198 178 148 128 108 87 67
internal_count=807 380 427 352 253 233 201 78 99 180 126 98 71 349 51 54 63 41 316 287 258 238 218 198 178 148 128 108 87 67
shrinkage=0.05


Tree=13
num_leaves=31
num_cat=0
split_feature=0 25 0 35 25 12 30 25 18 0 35 35 12 0 0 12 34 29 1 22 0 15 24 26 9 15 25 33 0 29
split_gain=188.651 31.1804 15.2596 13.1045 8.259 6.79772 4.53583 4.05575 3.85806 3.03522 2.28075 2.18828 2.11966 2.04781 1.35783 2.28427 0.789315 0.771879 0.692754 0.028193 0.00198609 0.00191585 0.00037188 0.00010487 4.86379e-05 1.38786e-05 3.16412e-07 9.58069e-08 1.72567e-08 2.69971e-11
threshold=45.500000000000007 1.1827308010693593 25.500000000000004 3014.6666666666674 1.702985739750446 50.500000000000007 214.34280386805679 1.434608986223237 212.99697008113594 236.50000000000003 4302.5833333333348 3726.4750000000004 163.50000000000003 237.50000000000003 16.500000000000004 109.50000000000001 244.58568492571905 0.24212769788871619 3.5000000000000004 -0.13618665841600466 11.500000000000002 2230.0000000000005 2.1260809783936416 13.607604468856641 0.89781049638010968 1630.0000000000002 1.5065175405806461 31.231424699056777 8.5000000000000018 0.25834230395993302
decision_type=2 2 2 2 2 2 2 2 2 2 2 2 2 2 2 2 2 2 2 2 2 2 2 2 2 2 2 2 2 2
left_child=2 -2 14 8 5 -5 9 -4 -3 10 -7 -9 16 17 19 -16 -12 -10 -11 -1 21 22 -21 24 25 26 27 28 29 -24
right_child=1 3 7 4 -6 6 -8 11 13 18 12 -13 -14 -15 15 -17 -18 -19 -20 20 -22 -23 23 -25 -26 -27 -28 -29 -30 -31
leaf_value=-0.027054059718336378 -0.025155898023928914 -0.0014742699784359762 -0.018935884420688338 0.011649749483331107 0.066535054519772527 0.022992836625004811 0.014471360970111119 -0.0072119654998892835 0.02181888463906944 0.044268587117011732 0.02815818578625719 0.013692199204477571 0.047837026531879719 0.032324936225389442 -0.032382913514794338 -0.010881906012073159 0.039467400422802681 0.0088591337134992631 0.056323997540907424 -0.028846480399370197 -0.029187833837100437 -0.029150796681642534 -0.02859567701816559 -0.028726768351736522 -0.028680676647595001 -0.028637946361587164 -0.028588631451129914 -0.028592227101325991 -0.028597323000431066 -0.028595743328332902
leaf_weight=28 28 28 26 32 20 30 21 21 20 26 36 31 39 24 21 30 27 27 22 20 21 20 66 21 21 21 20 20 20 20
leaf_count=28 28 28 26 32 20 30 21 21 20 26 36 31 39 24 21 30 27 27 22 20 21 20 66 21 21 21 20 20 20 20
internal_value=0 0.512525 -0.456111 0.593315 0.714012 0.661077 0.729229 -0.0562375 0.284867 0.780539 0.702234 0.105003 0.773521 0.408837 -0.545481 -0.394705 0.6601 0.287478 0.99588 -0.571285 -0.574418 -0.57363 -0.57281 -0.572416 -0.572179 -0.571999 -0.571889 -0.571908 -0.57192 -0.571914
internal_weight=0 380 427 352 253 233 201 78 99 180 132 52 102 71 349 51 63 47 48 298 270 249 229 209 188 167 146 126 106 86
internal_count=807 380 427 352 253 233 201 78 99 180 132 52 102 71 349 51 63 47 48 298 270 249 229 209 188 167 146 126 106 86
shrinkage=0.05


Tree=14
num_leaves=31
num_cat=0
split_feature=0 25 0 35 25 12 12 30 12 35 0 0 35 12 0 35 31 0 32 34 12 0 15 24 26 9 22 15 25 33
split_gain=170.258 28.1403 13.7995 11.8268 7.45375 6.13495 5.30444 4.09359 3.6982 3.6248 2.73929 2.19107 2.05838 1.91299 0.950117 1.97 0.754858 0.741504 0.651845 0.5805 0.027165 0.00170106 0.00145572 0.000327229 8.59983e-05 5.71578e-05 1.89831e-05 2.96886e-06 3.78279e-07 3.4317e-08
threshold=45.500000000000007 1.1827308010693593 24.500000000000004 3014.6666666666674 1.702985739750446 50.500000000000007 97.500000000000014 214.34280386805679 88.000000000000014 4091.0000000000005 236.50000000000003 237.50000000000003 4302.5833333333348 163.50000000000003 16.500000000000004 4518.6666666666679 13361.722889982639 92.500000000000014 1.4499936379390641 244.58568492571905 378.00000000000006 11.500000000000002 2170.0000000000005 1.9487853283268251 13.607604468856641 0.91689855283414279 -0.12887022548843885 1494.0000000000002 1.50370339227808 31.0904719315342
decision_type=2 2 2 2 2 2 2 2 2 2 2 2 2 2 2 2 2 2 2 2 2 2 2 2 2 2 2 2 2 2
left_child=2 -2 14 8 5 -5 -4 10 -3 -8 12 16 -7 17 20 -16 -10 -14 -12 -19 21 22 23 -1 25 26 -25 28 29 -28
right_child=1 3 6 4 -6 7 9 -9 11 -11 18 -13 13 -15 15 -17 -18 19 -20 -21 -22 -23 -24 24 -26 -27 27 -29 -30 -31
leaf_value=-0.027397106452421712 -0.023898102928485192 -0.0018573635989534007 -0.024594790403815833 0.011067262035794556 0.063208300434052941 0.02184319494990632 -0.0081071400714497407 0.013747792918833771 0.020589479914104397 0.016072280802613786 0.040410059094429018 0.032708501798862762 0.023683395875351773 0.045445175086840608 -0.031037891358137133 -0.0099843762665987029 0.0081125606955201532 0.029312187450982276 0.052228731289505961 0.041068643615359356 -0.025623640086915755 -0.0277081698179245 -0.027658580690622332 -0.027217092026363722 -0.027290196220080061 -0.027263307422399519 -0.027166077022145435 -0.027185101211071018 -0.027158395133235237 -0.027163767069578171
leaf_weight=22 28 28 22 32 20 30 31 21 22 31 20 22 21 39 20 25 27 21 28 21 27 22 20 22 21 20 82 20 22 20
leaf_count=22 28 28 22 32 20 30 31 21 22 31 20 22 21 39 20 25 27 21 28 21 27 22 20 22 21 20 82 20 22 20
internal_value=0 0.486899 -0.433306 0.563649 0.678311 0.628023 -0.0700395 0.692768 0.270624 0.0796514 0.741512 0.391999 0.667122 0.734845 -0.522269 -0.38683 0.274289 0.627095 0.946086 0.703808 -0.542721 -0.545735 -0.54499 -0.544275 -0.543886 -0.543669 -0.543477 -0.543344 -0.543287 -0.543312
internal_weight=0 380 427 352 253 233 84 201 99 62 180 71 132 102 343 45 49 63 48 42 298 271 249 229 207 186 166 144 124 102
internal_count=807 380 427 352 253 233 84 201 99 62 180 71 132 102 343 45 49 63 48 42 298 271 249 229 207 186 166 144 124 102
shrinkage=0.05


Tree=15
num_leaves=31
num_cat=0
split_feature=0 25 0 35 25 12 25 18 0 1 0 24 30 1 17 0 31 25 23 25 31 0 15 9 26 12 22 0 33 35
split_gain=153.658 25.4116 12.4609 10.2805 6.84201 5.59811 3.59128 3.46819 3.34619 3.10086 2.70652 2.01634 1.98634 1.82642 1.13202 1.12832 0.907676 0.852905 0.609736 0.165334 0.0345169 0.0340136 0.00117181 0.000144327 5.33957e-05 4.68666e-05 1.57357e-05 1.09063e-05 5.94826e-08 2.02589e-08
threshold=45.500000000000007 1.1336108028116909 25.500000000000004 3014.6666666666674 1.702985739750446 73.000000000000014 1.434608986223237 212.99697008113594 76.500000000000014 2.5000000000000004 179.50000000000003 2.7214361535448348 180.87234351762231 4.5000000000000009 28.369762699295517 20.500000000000004 13794.227166378234 1.4718041127835491 0.012290743926474555 1.5344390807228543 12015.453907802841 13.500000000000002 2130.0000000000005 0.94551210624906235 13.607604468856641 346.50000000000006 -0.1320541247973023 9.5000000000000018 31.077051109930753 6802.7500000000009
decision_type=2 2 2 2 2 2 2 2 2 2 2 2 2 2 2 2 2 2 2 2 2 2 2 2 2 2 2 2 2 2
left_child=2 -2 15 7 5 10 -4 -3 -7 16 -5 18 -8 14 -9 19 -10 -13 -11 20 -1 22 23 24 25 26 -22 28 29 -28
right_child=1 3 6 4 -6 8 12 13 9 11 -12 17 -14 -15 -16 -17 -18 -19 -20 -21 21 -23 -24 -25 -26 -27 27 -29 -30 -31
leaf_value=-0.023905925974249842 -0.024582312657282904 -0.0018796295127166168 -0.017687276277977688 0.0041246975010905702 0.060047886520624164 0.018168183449389679 -0.0026539208185567989 0.005088926676068117 0.017702367939054966 0.05201364428766312 0.02584311644313857 0.025399290956556797 0.017432791031897068 0.030864268202673309 0.020245193004874248 -0.015822511441850415 0.032585790185701284 0.039826675539924986 0.042384270621197567 -0.022007474228739738 -0.025847585350275037 -0.027777572348713878 -0.026230453593390331 -0.025955157230297728 -0.025900530531292872 -0.02588433623313904 -0.025807444132291354 -0.025767856429923665 -0.025804027347337635 -0.02580574428041776
leaf_weight=20 26 28 26 26 20 28 32 22 20 31 32 20 20 22 28 33 21 21 35 30 20 26 21 24 21 22 65 22 21 24
leaf_count=20 26 28 26 26 20 28 32 22 20 31 32 20 20 22 28 33 21 21 35 30 20 26 21 24 21 22 65 22 21 24
internal_value=0 0.462554 -0.41164 0.532636 0.639563 0.591581 -0.050292 0.261041 0.680372 0.740347 0.322145 0.829947 0.101435 0.377177 0.271529 -0.4924 0.506512 0.655779 0.938143 -0.510775 -0.518183 -0.521195 -0.517473 -0.516789 -0.516504 -0.516323 -0.516125 -0.516 -0.516128 -0.51614
internal_weight=0 380 427 354 254 234 78 100 176 148 58 107 52 72 50 349 41 41 66 316 286 266 240 219 195 174 152 132 110 89
internal_count=807 380 427 354 254 234 78 100 176 148 58 107 52 72 50 349 41 41 66 316 286 266 240 219 195 174 152 132 110 89
shrinkage=0.05


Tree=16
num_leaves=31
num_cat=0
split_feature=0 25 19 0 0 35 12 1 30 19 35 12 35 1 35 12 12 0 35 25 26 0 15 25 9 31 12 22 16 26
split_gain=138.782 23.2559 14.8006 10.0917 8.90936 5.62027 5.37508 4.19579 3.04415 3.04827 3.01529 2.79344 2.48732 2.35206 1.93286 1.37247 1.03172 0.634979 1.69044 0.17466 0.0267167 0.00118972 0.00101925 0.000852021 7.97491e-05 3.78165e-05 3.19818e-05 1.55739e-05 8.54052e-07 3.31459e-07
threshold=39.500000000000007 1.1827308010693593 466.75072914271652 107.00000000000001 23.500000000000004 3170.6500000000005 92.500000000000014 2.5000000000000004 193.45788749797995 198.39305207644955 3178.0333333333338 121.50000000000001 4046.5000000000005 2.5000000000000004 2006.7500000000002 135.50000000000003 159.50000000000003 16.500000000000004 5026.0500000000011 1.4735184160673274 13.63650123834155 11.500000000000002 2170.0000000000005 1.5367231638418082 0.95615203241816948 12746.631336551991 346.50000000000006 -0.1247206031452794 1.4248493975903618 13.507782601477162
decision_type=2 2 2 2 2 2 2 2 2 2 2 2 2 2 2 2 2 2 2 2 2 2 2 2 2 2 2 2 2 2
left_child=4 -2 3 7 17 13 -6 -3 9 -7 -9 -10 -8 -5 -15 -11 -12 20 -19 -17 21 22 23 24 25 -1 27 -27 -29 -30
right_child=1 2 -4 5 6 8 12 10 11 15 16 -13 -14 14 -16 19 -18 18 -20 -21 -22 -23 -24 -25 -26 26 -28 28 29 -31
leaf_value=-0.024603740161373504 -0.021867079878675529 0.00096910312904843277 -0.016097565837914034 0.007765808728124414 -0.026859423955902458 0.060376406935128302 -0.0074185988072443896 0.0083054652100364706 0.015495180364020847 0.032486656520172567 0.023027604098456937 0.03912249294848278 0.013850859370047278 0.015808112788945436 0.036012903857847743 0.048861643388157801 0.036903317130747293 -0.028075056374073027 -0.0075175988627597702 0.042332842051982879 -0.022828659212047405 -0.024991910633715718 -0.024951228052377702 -0.024891436025500299 -0.024645242393016815 -0.024558137250798091 -0.024589009447531267 -0.024526275619864465 -0.024516462856604731 -0.024509542164477437
leaf_weight=21 29 35 21 21 20 22 27 29 22 38 37 29 28 20 29 21 21 20 20 20 22 22 20 20 20 28 22 20 81 22
leaf_count=21 29 35 21 21 20 22 27 29 22 38 37 29 28 20 29 21 21 20 20 20 22 22 20 20 20 28 22 20 81 22
internal_value=0 0.424577 0.493058 0.542812 -0.405044 0.669783 -0.0932444 0.311765 0.777759 0.878322 0.429391 0.578606 0.0681898 0.43532 0.555321 0.786644 0.561031 -0.474231 -0.355927 0.913537 -0.49011 -0.492784 -0.492173 -0.491587 -0.491004 -0.490808 -0.490654 -0.49049 -0.490336 -0.4903
internal_weight=0 394 365 344 413 222 75 122 152 101 87 51 55 70 49 79 58 338 40 41 298 276 254 234 214 194 173 151 123 103
internal_count=807 394 365 344 413 222 75 122 152 101 87 51 55 70 49 79 58 338 40 41 298 276 254 234 214 194 173 151 123 103
shrinkage=0.05


Tree=17
num_leaves=31
num_cat=0
split_feature=0 24 19 0 35 12 1 12 19 0 35 35 17 17 0 28 34 34 22 30 15 9 0 25 26 34 23 12 0 21
split_gain=125.415 21.4282 15.2517 13.9561 7.14079 6.07339 3.74238 3.26187 2.9085 2.19884 2.06343 1.73153 1.50425 1.3776 1.27778 1.09458 1.07415 0.688873 0.657144 0.494138 0.162193 0.0523842 0.0967108 0.000988504 0.00013078 6.55901e-05 4.95092e-05 1.57678e-05 1.37837e-05 1.65711e-06
threshold=28.500000000000004 3.5199396176019397 472.9879296042696 76.500000000000014 3170.6500000000005 71.000000000000014 4.5000000000000009 121.50000000000001 175.2625510622687 20.500000000000004 4518.6666666666679 6244.1250000000009 28.393838734567904 28.216568627450986 236.50000000000003 0.010221223992165138 278.60199361899544 236.65088311141469 -0.11081344598350215 185.90792099518254 2130.0000000000005 0.95595377437099149 14.500000000000002 1.5538966717908884 13.607604468856641 273.68421126577732 0.030909024439078968 310.50000000000006 9.5000000000000018 13.596456174109962
decision_type=2 2 2 2 2 2 2 2 2 2 2 2 2 2 2 2 2 2 2 2 2 2 2 2 2 2 2 2 2 2
left_child=9 2 3 5 6 -2 16 8 -6 20 -11 13 -10 -7 15 -9 18 -14 -5 -17 21 22 23 24 25 26 27 28 29 -1
right_child=1 -3 -4 4 7 11 -8 14 12 10 -12 -13 17 -15 -16 19 -18 -19 -20 -21 -22 -23 -24 -25 -26 -27 -28 -29 -30 -31
leaf_value=-0.023291562890840903 -0.014301491423490612 -0.023440648718126889 -0.02154533320106566 0.021698788935706641 0.043880247548222541 -0.0010181662440299989 0.035092387316019644 0.045147393892208738 0.010666131298057735 -0.021025402214506578 -0.0012056638622501246 0.025579950772225857 0.020947709755802697 0.015122093847140861 0.048083177540037374 0.036520312726497653 0.002038688687607646 0.033460185609080574 0.010115749562159181 0.026066577211022381 -0.019492066009291289 -0.021400875212817357 -0.026981606855988507 -0.023697984814643861 -0.023443461630655374 -0.023382845614105464 -0.023378233760595321 -0.023335418775677682 -0.023252648698246999 -0.023305898000087061
leaf_weight=72 24 29 20 24 20 20 23 24 20 29 24 24 22 39 36 26 20 22 25 20 29 29 20 20 23 32 20 20 23 28
leaf_count=72 24 29 20 24 20 20 23 24 20 29 24 24 22 39 36 26 20 22 25 20 29 29 20 20 23 32 20 20 23 28
internal_value=0 0.361838 0.420735 0.464521 0.581195 0.157025 0.352514 0.691926 0.544738 -0.429499 -0.241009 0.285137 0.440718 0.193016 0.808564 0.729828 0.236069 0.544079 0.315781 0.639504 -0.461113 -0.468314 -0.472844 -0.467231 -0.466614 -0.466348 -0.466091 -0.465885 -0.465751 -0.465912
internal_weight=0 438 409 389 282 107 92 190 84 369 53 83 64 59 106 70 69 44 49 46 316 287 258 238 218 195 163 143 123 100
internal_count=807 438 409 389 282 107 92 190 84 369 53 83 64 59 106 70 69 44 49 46 316 287 258 238 218 195 163 143 123 100
shrinkage=0.05


Tree=18
num_leaves=31
num_cat=0
split_feature=0 25 0 25 35 12 16 19 30 0 1 0 35 33 0 0 0 12 12 27 22 15 24 9 0 26 15 28 30 12
split_gain=113.637 18.8503 9.03524 8.11781 7.50292 4.64306 3.13585 2.8698 2.86307 2.67405 2.3077 1.94522 1.64887 1.43209 1.23182 0.812518 0.805059 2.00392 0.382358 0.295386 0.0250752 0.0025649 0.000875018 0.000507443 0.000213492 7.59422e-05 5.06142e-05 1.60762e-05 4.07615e-06 8.38464e-07
threshold=45.500000000000007 1.1336108028116909 25.500000000000004 1.7195678216614454 3864.8666666666672 73.000000000000014 1.4485766324878577 290.01458524509206 210.48202762227683 183.50000000000003 2.5000000000000004 345.50000000000006 3726.4750000000004 28.764384207710751 235.00000000000003 95.500000000000014 16.500000000000004 109.50000000000001 242.50000000000003 -0.14400024399184433 -0.13618665841600466 2230.0000000000005 2.0894609505193666 0.94156205097940748 10.500000000000002 13.605513723645897 1610.0000000000002 0.021931997897960017 192.1392100739607 218.50000000000003
decision_type=2 2 2 2 2 2 2 2 2 2 2 2 2 2 2 2 2 2 2 2 2 2 2 2 2 2 2 2 2 2
left_child=2 -2 16 4 6 9 -3 12 11 -6 -8 13 -4 -7 19 -15 20 -18 -17 -12 -1 22 -22 24 25 26 27 28 29 -24
right_child=1 3 7 -5 5 8 10 -9 -10 -11 14 -13 -14 15 -16 18 17 -19 -20 -21 21 -23 23 -25 -26 -27 -28 -29 -30 -31
leaf_value=-0.020707548090389799 -0.021202400040168032 -0.0055248305960760823 -0.0057166349142789841 0.051630667046360351 0.00096065802702113346 0.023391572233193964 0.0027707468942805595 -0.018647424448281529 0.014231797604059633 0.023969605086105211 0.011185384942623585 0.048075506389141084 0.011184430186967215 0.026526685543358325 0.029546812041239309 0.034943722999271225 -0.027179583139894978 -0.0070411630906164653 0.043403289805759082 0.018896262209724499 -0.022553131431341175 -0.022824354097247125 -0.022125143317445632 -0.022436689382249658 -0.022315331520857636 -0.022256501838564875 -0.022221866768339409 -0.022178945069511735 -0.02214905587024987 -0.022136916890740394
leaf_weight=28 26 23 27 23 23 39 28 20 22 28 23 20 31 20 22 34 21 30 22 27 20 20 62 22 27 20 23 24 32 20
leaf_count=28 26 23 27 23 23 39 28 20 22 28 23 20 31 20 22 34 21 30 22 27 20 20 62 22 27 20 23 24 32 20
internal_value=0 0.397782 -0.353998 0.458143 0.418225 0.534002 0.222439 -0.0463026 0.619156 0.27186 0.299015 0.67367 0.0663339 0.623611 0.393748 0.703551 -0.422767 -0.306669 0.765342 0.306985 -0.442636 -0.44559 -0.444718 -0.444167 -0.443684 -0.443292 -0.443064 -0.442835 -0.442678 -0.44256
internal_weight=0 380 427 354 331 208 123 78 157 51 100 135 58 115 72 76 349 51 56 50 298 270 250 230 208 181 161 138 114 82
internal_count=807 380 427 354 331 208 123 78 157 51 100 135 58 115 72 76 349 51 56 50 298 270 250 230 208 181 161 138 114 82
shrinkage=0.05


Tree=19
num_leaves=31
num_cat=0
split_feature=0 25 0 19 1 35 35 0 12 35 12 12 33 19 24 0 31 0 35 12 12 15 24 0 9 22 26 31 25 23
split_gain=102.557 17.0124 8.16792 7.6797 7.22863 5.77417 5.31131 4.33683 3.95705 2.54792 2.34959 2.2356 1.28486 1.06382 1.005 0.964621 0.611627 0.564314 1.53599 0.273447 0.0241556 0.00199261 0.000726819 0.000711322 0.000268213 7.52475e-05 7.11563e-05 2.40249e-05 8.7732e-06 1.4992e-07
threshold=45.500000000000007 1.1336108028116909 24.500000000000004 463.8742262642923 2.5000000000000004 2424.0000000000005 9101.7500000000018 236.50000000000003 97.500000000000014 4091.0000000000005 73.000000000000014 86.500000000000014 30.779148043538854 222.47620306535447 2.5209921609190831 87.000000000000014 13018.379524521903 16.500000000000004 4518.6666666666679 226.00000000000003 378.00000000000006 2130.0000000000005 1.9358155282762 11.500000000000002 0.94551210624906235 -0.13356815715799189 13.57876539693404 12959.224356066972 1.5057763482911979 0.025822333367723101
decision_type=2 2 2 2 2 2 2 2 2 2 2 2 2 2 2 2 2 2 2 2 2 2 2 2 2 2 2 2 2 2
left_child=2 -2 17 4 6 16 10 11 -4 -10 -3 -7 -12 -9 -13 -16 -6 20 -19 -17 21 22 -1 24 25 -24 27 -27 29 -29
right_child=1 3 8 -5 5 7 -8 13 9 -11 12 14 -14 -15 15 19 -18 18 -20 -21 -22 -23 23 -25 -26 26 -28 28 -30 -31
leaf_value=-0.021407437608355569 -0.020142279393397845 -0.0076084717166271399 -0.021058958235450769 -0.0061759083934189024 0.018080781921744348 0.015960746599982183 0.034058239344846121 0.052968517839908608 -0.0065125138588970708 0.0137594886845158 0.018204331358720082 0.040145547299281409 0.0027111810624457734 0.038721896708011627 0.019100451336375307 0.028926627140711338 0.0059995382476534529 -0.025346048995852473 -0.0067558102160692225 0.036183318353834606 -0.019599033836965207 -0.021612506068271142 -0.021145505532622341 -0.021384727135300638 -0.021246499940752984 -0.021080352295012702 -0.02113136149942875 -0.021017763226531275 -0.021052961349487306 -0.02101295717060566
leaf_weight=21 26 22 22 23 20 33 22 20 31 31 32 23 23 38 21 34 22 20 25 21 27 23 20 20 20 21 20 86 20 20
leaf_count=21 26 22 22 23 20 33 22 20 31 31 32 23 23 38 21 34 22 20 25 21 27 23 20 20 20 21 20 86 20 20
internal_value=0 0.377893 -0.336298 0.435236 0.474061 0.570597 0.247836 0.64477 -0.0568193 0.0724697 0.124028 0.544624 0.234508 0.87269 0.61976 0.564333 0.23505 -0.404742 -0.300363 0.633947 -0.420504 -0.423346 -0.42252 -0.422 -0.421449 -0.421077 -0.420858 -0.420617 -0.420452 -0.420337
internal_weight=0 380 427 354 331 232 99 190 84 62 77 132 55 58 99 76 42 343 45 55 298 271 248 227 207 187 167 147 126 106
internal_count=807 380 427 354 331 232 99 190 84 62 77 132 55 58 99 76 42 343 45 55 298 271 248 227 207 187 167 147 126 106
shrinkage=0.05


Tree=20
num_leaves=31
num_cat=0
split_feature=0 24 0 19 35 19 30 35 1 35 19 12 12 25 0 25 20 34 0 19 31 0 15 9 0 25 12 26 22 11
split_gain=92.7708 13.6913 11.3612 6.51937 5.71983 4.27059 3.3469 2.89824 2.73308 2.6682 2.2825 1.93981 1.22242 1.19439 1.02799 1.37567 0.817453 0.810961 0.563173 0.421442 0.35662 0.178394 0.145586 0.0424043 0.100632 0.000733575 0.000128913 8.9475e-05 6.71803e-05 7.7874e-05
threshold=60.500000000000007 3.5199396176019397 27.500000000000004 463.8742262642923 3770.3750000000005 296.13025642254803 193.28668877948613 7018.0000000000009 4.5000000000000009 2895.7500000000005 175.2625510622687 109.50000000000001 206.50000000000003 1.4951869799925175 20.500000000000004 1.472934006671031 0.25791641056800313 264.30022153880907 237.50000000000003 256.95194857394944 13320.543370029305 131.50000000000003 2130.0000000000005 0.95595377437099149 14.500000000000002 1.5538966717908884 378.00000000000006 13.607604468856641 -0.13356815715799189 -0.92536280869364151
decision_type=2 2 2 2 2 2 2 2 2 2 2 2 2 2 2 2 2 2 2 2 2 2 2 2 2 2 2 2 2 2
left_child=2 3 14 4 8 9 10 16 13 -4 -6 -12 19 17 22 -16 -8 20 21 -11 -2 -13 23 24 25 26 27 28 -1 -30
right_child=1 -3 5 -5 6 -7 7 -9 -10 12 11 18 -14 -15 15 -17 -18 -19 -20 -21 -22 -23 -24 -25 -26 -27 -28 -29 29 -31
leaf_value=-0.020075007421629772 0.015374671174636621 -0.018494291468100114 -0.010705182505771519 -0.0053711840941105043 0.046384980041405253 -0.020593744851648808 0.019388337467204444 0.035691637024283407 0.028357091468983683 0.010461332507076718 0.020765112800633208 0.029049629682586311 0.020471595581620934 0.020832431444986949 -0.019524712666869164 -0.0019313443638384342 0.0055967372953004786 -0.0012510412186384203 0.042500549107789998 0.00044417960480565115 0.0061495676328195267 0.0354236399349959 -0.016406586201026523 -0.018311152453052589 -0.023734146505594255 -0.020331248566508295 -0.020135826393961907 -0.020100208762146177 -0.020066934146664359 -0.019965434408009942
leaf_weight=21 22 22 20 20 29 20 22 20 29 21 34 21 20 21 25 20 21 20 20 21 20 23 29 29 20 20 20 21 22 134
leaf_count=21 22 22 20 20 29 20 22 20 29 21 34 21 20 21 25 20 21 20 20 21 20 23 29 29 20 20 20 21 22 134
internal_value=0 0.393351 -0.292252 0.445497 0.482115 0.00244493 0.587777 0.399336 0.302866 0.103499 0.681256 0.608329 0.205951 0.210529 -0.375518 -0.234109 0.253058 0.140714 0.710874 0.109055 0.219635 0.64763 -0.395656 -0.402479 -0.406554 -0.400829 -0.400297 -0.400053 -0.399821 -0.399595
internal_weight=0 344 463 322 302 102 190 63 112 82 127 98 62 83 361 45 43 62 64 42 42 44 316 287 258 238 218 198 177 156
internal_count=807 344 463 322 302 102 190 63 112 82 127 98 62 83 361 45 43 62 64 42 42 44 316 287 258 238 218 198 177 156
shrinkage=0.05


Tree=21
num_leaves=31
num_cat=0
split_feature=0 25 0 25 19 1 19 35 35 35 12 27 12 0 0 12 0 0 23 12 25 35 14 0 15 9 22 11 26 0
split_gain=83.7256 12.3831 10.2535 5.94773 5.19751 4.9844 3.85421 3.63502 3.29888 2.40805 1.55543 1.49145 1.11556 0.987301 0.927762 1.36521 0.723444 0.540313 0.409347 0.387515 0.144201 0.129537 0.0288854 0.0359237 0.00292416 0.000904296 0.000110648 7.23257e-05 3.35271e-05 2.54818e-05
threshold=60.500000000000007 1.1827308010693593 27.500000000000004 1.7099415338935062 463.8742262642923 2.5000000000000004 296.13025642254803 3770.3750000000005 7771.0000000000009 2895.7500000000005 111.50000000000001 -0.10315361174476571 102.00000000000001 235.00000000000003 20.500000000000004 119.50000000000001 152.50000000000003 179.50000000000003 0.011144474229977519 206.50000000000003 1.5344390807228543 5363.7500000000009 98.730313470619578 14.500000000000002 2130.0000000000005 0.94551210624906235 -0.13511942928549558 -0.89251806092241315 13.561455321405676 9.5000000000000018
decision_type=2 2 2 2 2 2 2 2 2 2 2 2 2 2 2 2 2 2 2 2 2 2 2 2 2 2 2 2 2 2
left_child=2 -2 14 4 5 8 9 13 11 -4 16 -3 -11 18 20 -16 -9 -12 -7 -14 22 -19 23 24 25 26 -1 -28 29 -29
right_child=1 3 6 -5 -6 7 -8 10 -10 12 17 -13 19 -15 15 -17 -18 21 -20 -21 -22 -23 -24 -25 -26 -27 27 28 -30 -31
leaf_value=-0.019117780597436997 -0.015955525450408459 -0.00086998041461859099 -0.01016992368735373 0.047682898491621023 -0.005102624860592187 0.017658925922992435 -0.01956405783072114 0.01618231527507305 0.028252980042071569 6.3470788300037389e-05 0.030626408755779266 0.014854719638824463 0.0098316159268671821 0.025901691764593129 -0.020857030767947437 -0.0033306743204593661 0.028940643906593323 0.036022559021200454 0.008581655719576196 0.019448015857487917 -0.015495771517356236 0.041576137216318226 -0.017307040318846705 -0.021166041299052862 -0.019662535261540187 -0.019328525304794314 -0.019071651112150263 -0.018983171259363496 -0.019042946845293049 -0.018922976510865348
leaf_weight=21 24 38 20 20 20 23 20 20 21 20 39 25 22 20 20 25 25 21 27 20 30 21 20 23 21 25 27 108 20 21
leaf_count=21 24 38 20 20 20 23 20 20 21 20 39 25 22 20 20 25 25 21 27 20 30 21 20 23 21 25 27 108 20 21
internal_value=0 0.373683 -0.277639 0.425643 0.390442 0.42562 0.00232268 0.512965 0.221815 0.0983236 0.614471 0.1074 0.195653 0.330255 -0.356742 -0.222403 0.465406 0.697285 0.255144 0.288217 -0.375873 0.775987 -0.382791 -0.385547 -0.381972 -0.380905 -0.380186 -0.379927 -0.379654 -0.379467
internal_weight=0 344 463 320 300 280 102 196 84 82 126 63 62 70 361 45 45 81 50 42 316 42 286 266 243 222 197 176 149 129
internal_count=807 344 463 320 300 280 102 196 84 82 126 63 62 70 361 45 45 81 50 42 316 42 286 266 243 222 197 176 149 129
shrinkage=0.05


Tree=22
num_leaves=31
num_cat=0
split_feature=0 24 19 35 0 12 30 0 0 12 1 35 23 12 22 19 12 9 0 35 15 25 9 22 26 12 32 0 13 15
split_gain=75.755 13.0377 9.15958 5.84185 4.65877 3.79936 3.70906 3.03771 2.4799 2.47594 2.15872 1.68181 1.30111 1.22186 0.883049 0.824259 0.756621 0.561041 0.375893 1.71485 0.00375729 0.0017494 0.000633548 0.00012602 9.0743e-05 3.96748e-05 2.29843e-05 1.44837e-05 1.76711e-06 1.25532e-07
threshold=39.500000000000007 3.5199396176019397 466.75072914271652 3178.0333333333338 23.500000000000004 92.500000000000014 214.34280386805679 189.50000000000003 102.50000000000001 86.500000000000014 4.5000000000000009 4046.5000000000005 0.016605751504332768 124.50000000000001 -0.11843313139765092 168.53660040662609 189.50000000000003 0.67163002737061495 13.500000000000002 4518.6666666666679 2130.0000000000005 1.5344390807228543 0.94551210624906235 -0.13511942928549558 13.57876539693404 310.50000000000006 1.5117859717305995 9.5000000000000018 88.689361770900206 708.00000000000011
decision_type=2 2 2 2 2 2 2 2 2 2 2 2 2 2 2 2 2 2 2 2 2 2 2 2 2 2 2 2 2 2
left_child=4 2 3 8 18 -6 7 9 13 -5 14 -7 17 -2 -10 -11 -17 -9 20 -20 21 22 23 -1 25 26 27 28 29 -25
right_child=1 -3 -4 6 5 11 -8 12 10 15 -12 -13 -14 -15 -16 16 -18 -19 19 -21 -22 -23 -24 24 -26 -27 -28 -29 -30 -31
leaf_value=-0.018167951703071596 -0.0077474958403036011 -0.017848802495885781 -0.013911593483672255 0.0087630108464509249 -0.022351403501816094 -0.0058068240682284042 0.0056974234626345011 0.041674391964548516 0.019742417419329288 0.034568048194050786 0.03045531764626503 0.011682735469990544 0.025769688605385668 0.0095207283927482515 0.0066388273818625346 0.017670021962487337 0.028548332279728306 0.031491010848964961 -0.022423395238540794 -0.0044325303859435597 -0.018768795967102053 -0.018533739261329174 -0.018323674619197847 -0.018014185541662679 -0.018130671118314453 -0.018095977231860162 -0.0180665148989014 -0.017975287139415742 -0.018033464029431342 -0.018018352054059505
leaf_weight=23 20 27 21 29 20 27 23 38 20 20 20 28 34 21 36 33 31 21 27 26 25 24 25 29 26 20 23 22 20 48
leaf_count=23 20 27 21 29 20 27 23 38 20 20 20 28 34 21 36 33 31 21 27 26 25 24 25 29 26 20 23 22 20 48
internal_value=0 0.313686 0.363027 0.401947 -0.299255 -0.0737855 0.494825 0.53735 0.22016 0.427185 0.327093 0.061939 0.671206 0.0219441 0.226374 0.51416 0.458784 0.760996 -0.349286 -0.271954 -0.363667 -0.362541 -0.361714 -0.36115 -0.360879 -0.360601 -0.360415 -0.360238 -0.360404 -0.360336
internal_weight=0 394 367 346 413 75 229 206 117 113 76 55 93 41 56 84 64 59 338 53 285 260 236 211 188 162 142 119 97 77
internal_count=807 394 367 346 413 75 229 206 117 113 76 55 93 41 56 84 64 59 338 53 285 260 236 211 188 162 142 119 97 77
shrinkage=0.05


Tree=23
num_leaves=31
num_cat=0
split_feature=0 24 0 25 19 35 12 12 1 18 0 12 19 1 2 0 12 35 35 12 12 15 25 9 22 15 26 12 0 34
split_gain=68.4485 10.1597 8.2764 5.10745 4.41286 4.19199 2.90658 2.6173 2.40445 1.55803 1.33391 1.15503 1.08473 0.975321 0.696007 0.505505 1.62352 2.67886 0.468412 0.43666 0.281491 0.00340814 0.00153817 0.000541547 9.88054e-05 7.1184e-05 8.02958e-05 3.5875e-05 1.76215e-05 1.18226e-05
threshold=60.500000000000007 3.5199396176019397 25.500000000000004 1.7099415338935062 296.13025642254803 3864.8666666666672 50.500000000000007 79.500000000000014 1.5000000000000002 212.99697008113594 313.50000000000006 242.50000000000003 291.99410366188323 4.5000000000000009 16.500000000000004 13.500000000000002 92.500000000000014 4518.6666666666679 3178.0333333333338 131.50000000000003 119.50000000000001 2190.0000000000005 1.5344390807228543 0.94551210624906235 -0.13511942928549558 1650.0000000000002 13.586133542269915 304.50000000000006 9.5000000000000018 266.32192004044083
decision_type=2 2 2 2 2 2 2 2 2 2 2 2 2 2 2 2 2 2 2 2 2 2 2 2 2 2 2 2 2 2
left_child=2 3 15 5 7 9 -7 -4 -8 -2 11 12 20 19 18 21 -17 -18 -9 -11 -10 22 23 24 -1 26 27 28 29 -26
right_child=1 -3 4 -5 -6 6 8 14 10 13 -12 -13 -14 -15 -16 16 17 -19 -20 -21 -22 -23 -24 -25 25 -27 -28 -29 -30 -31
leaf_value=-0.017259553981863934 -0.00040708795755303333 -0.015979835120114413 -0.011567486346466468 0.04360971309244633 -0.019416173815727234 0.0053400410906128265 0.0084662071628762142 -0.00019083762075752022 0.02095230449922383 0.0058979767374694354 0.036828061479788558 0.032159611670409934 0.011072726347483694 0.021488104478921743 0.016567071270020235 -0.022637741904084883 -0.019127656370401383 0.0067512094695121056 0.0098278493853285916 0.014658473874442281 0.027440595754555291 -0.017887217445032938 -0.017607052437961103 -0.017407490670681001 -0.017118386213075033 -0.017239170894026757 -0.017233688309788702 -0.017189520671963693 -0.017078907353182637 -0.017160973697900771
leaf_weight=23 28 22 20 20 25 23 21 20 32 33 26 34 20 25 21 24 20 20 28 25 35 21 24 25 88 20 20 20 24 20
leaf_count=23 28 22 20 20 25 23 21 20 32 33 26 34 20 25 21 24 20 20 28 25 35 21 24 25 88 20 20 20 24 20
internal_value=0 0.337875 -0.251035 0.382796 -0.0171022 0.350385 0.440201 0.0871734 0.485845 0.195838 0.531062 0.486905 0.425827 0.26465 0.179499 -0.327448 -0.247136 -0.123764 0.113068 0.193481 0.486834 -0.345483 -0.344508 -0.343745 -0.343232 -0.342998 -0.34279 -0.342542 -0.342353 -0.342525
internal_weight=0 344 463 322 114 302 191 89 168 111 147 121 87 83 69 349 64 40 48 58 67 285 264 240 215 192 172 152 132 108
internal_count=807 344 463 322 114 302 191 89 168 111 147 121 87 83 69 349 64 40 48 58 67 285 264 240 215 192 172 152 132 108
shrinkage=0.05


Tree=24
num_leaves=31
num_cat=0
split_feature=0 24 35 1 0 16 12 35 12 34 0 35 15 12 31 12 20 0 0 16 9 15 25 9 22 26 12 34 0 13
split_gain=61.8763 10.9179 5.30147 4.60094 4.46303 4.07264 2.84668 2.59207 2.12629 2.33142 1.80309 1.57108 1.24793 1.41976 0.935851 0.804205 0.62074 0.489253 0.367886 1.52887 0.245201 0.00308751 0.00142664 0.000517221 0.000103216 7.45364e-05 3.25319e-05 1.9502e-05 1.20626e-05 2.60251e-06
threshold=44.500000000000007 3.5199396176019397 6024.8750000000009 3.5000000000000004 24.500000000000004 1.429992312127619 97.500000000000014 2424.0000000000005 143.50000000000003 247.99842803543686 255.50000000000003 4091.0000000000005 1398.0000000000002 109.50000000000001 13671.11981435599 86.500000000000014 0.25998553651578521 95.500000000000014 13.500000000000002 1.4915248150542271 0.21095775891748617 2130.0000000000005 1.5344390807228543 0.94551210624906235 -0.13511942928549558 13.57876539693404 310.50000000000006 275.89725338266993 9.5000000000000018 88.003972576380107
decision_type=2 2 2 2 2 2 2 2 2 2 2 2 2 2 2 2 2 2 2 2 2 2 2 2 2 2 2 2 2 2
left_child=4 2 3 8 18 -5 -6 -7 9 16 15 -8 13 -4 -10 -9 -2 -17 21 -20 -15 22 23 24 -1 26 27 28 29 -26
right_child=1 -3 12 5 6 7 11 10 14 -11 -12 -13 -14 20 -16 17 -18 -19 19 -21 -22 -23 -24 -25 25 -27 -28 -29 -30 -31
leaf_value=-0.016396576490091241 0.013808302450925111 -0.016125552521811592 0.013766879904205385 -0.0017853194475173952 -0.018366143906245098 0.0087146994675061217 -0.0052285023386879218 0.01347451544366777 0.0058627283281606178 -0.01165283901993042 0.036942074514393297 0.011092089948554835 0.037107987950245544 0.03284620595249263 0.019268342605791987 0.019311277089374409 0.0013509762519970537 0.029133055382408204 -0.0061525971114047267 -0.023231591731309894 0.025292780498663587 -0.016941179513931273 -0.016726699595650037 -0.016537116348743438 -0.016259181126952172 -0.016362949919242125 -0.016331454217433931 -0.016309106945991518 -0.016222320226105778 -0.016279346495866775
leaf_weight=23 20 27 23 20 21 27 29 20 23 26 28 30 24 22 30 21 20 32 38 20 21 25 24 25 80 26 20 20 22 20
leaf_count=23 20 27 23 20 21 27 29 20 23 26 28 30 24 22 30 21 20 32 38 20 21 25 24 25 80 26 20 20 22 20
internal_value=0 0.290623 0.336995 0.266244 -0.263828 0.383953 -0.0511382 0.449525 0.11985 6.41696e-05 0.523102 0.0614021 0.546888 0.47588 0.269016 0.440352 0.151593 0.504828 -0.313435 -0.240838 0.583146 -0.328209 -0.327188 -0.326441 -0.325932 -0.325687 -0.325435 -0.325267 -0.325117 -0.325264
internal_weight=0 384 357 267 423 148 80 128 119 66 101 59 90 66 53 73 40 53 343 58 43 285 260 236 211 188 162 142 122 100
internal_count=807 384 357 267 423 148 80 128 119 66 101 59 90 66 53 73 40 53 343 58 43 285 260 236 211 188 162 142 122 100
shrinkage=0.05


Tree=25
num_leaves=31
num_cat=0
split_feature=0 25 0 25 12 19 35 1 12 18 0 0 17 27 0 0 12 35 4 12 15 25 9 12 26 15 34 22 13 0
split_gain=56.0661 8.36515 6.62523 4.42887 4.28451 3.86933 2.94189 4.47393 2.19202 1.29029 0.872704 0.770187 0.659047 0.553508 0.494376 0.409606 1.43741 2.31824 0.261126 0.251676 0.00280193 0.00125767 0.00042709 7.39451e-05 5.38341e-05 5.16587e-05 2.75062e-05 2.40511e-05 1.02037e-05 7.79334e-06
threshold=60.500000000000007 1.1336108028116909 25.500000000000004 1.7099415338935062 44.500000000000007 296.13025642254803 6024.8750000000009 4.5000000000000009 79.500000000000014 212.99697008113594 179.50000000000003 258.50000000000006 28.085847599509531 -0.12407517261884816 140.50000000000003 13.500000000000002 92.500000000000014 4518.6666666666679 4.5000000000000009 179.50000000000003 2190.0000000000005 1.5603117494045071 0.94551210624906235 369.50000000000006 13.607604468856641 1610.0000000000002 280.23936027992642 -0.12306915026251956 88.792170150078221 7.5000000000000009
decision_type=2 2 2 2 2 2 2 2 2 2 2 2 2 2 2 2 2 2 2 2 2 2 2 2 2 2 2 2 2 2
left_child=2 -2 15 4 -3 8 7 9 -4 -6 -9 13 -10 18 -8 20 -17 -18 -11 -16 21 22 23 24 25 26 27 -1 29 -29
right_child=1 3 5 -5 6 -7 14 10 12 11 -12 -13 -14 -15 19 16 17 -19 -20 -21 -22 -23 -24 -25 -26 -27 -28 28 -30 -31
leaf_value=-0.015502194671527201 -0.014539838446812196 -0.0031879409285331217 -0.010587595854885876 0.040114038772881035 0.0016745814575980873 -0.018275224924087525 0.020527972151403843 0.019175821268821464 0.0026404085087900365 0.0023744921591556212 0.030346041917800905 0.020006708592176438 0.012497748404693528 0.015114771866978245 0.026041808784008025 -0.020837240188848229 -0.017396281342953443 0.0066777528729289777 0.010268419682979583 0.033374424515800048 -0.016145796790009454 -0.015926897227764133 -0.015710260331630709 -0.015583767741918565 -0.015560711696743966 -0.015544172279212787 -0.01551713730607714 -0.015447072382422461 -0.015477475949696132 -0.01541289673610167
leaf_weight=23 22 27 20 20 39 25 23 34 30 22 36 25 39 29 25 24 20 20 20 22 21 20 25 20 20 23 21 69 21 22
leaf_count=23 22 27 20 20 39 25 23 34 30 22 36 25 39 29 25 24 20 20 20 22 21 20 25 20 20 23 21 69 21 22
internal_value=0 0.305791 -0.227197 0.346552 0.316371 -0.0178962 0.353693 0.293253 0.0797466 0.186876 0.49841 0.249188 0.164239 0.196038 0.530693 -0.295564 -0.22327 -0.107185 0.12267 0.589482 -0.311799 -0.310914 -0.310289 -0.309842 -0.309658 -0.309484 -0.309278 -0.309112 -0.308921 -0.308776
internal_weight=0 344 463 322 302 114 275 205 89 135 70 96 69 71 70 349 64 40 42 47 285 264 244 219 199 179 156 135 112 91
internal_count=807 344 463 322 302 114 275 205 89 135 70 96 69 71 70 349 64 40 42 47 285 264 244 219 199 179 156 135 112 91
shrinkage=0.05


Tree=26
num_leaves=31
num_cat=0
split_feature=0 25 0 19 1 19 35 35 0 12 20 12 19 2 35 28 0 12 35 35 0 15 25 9 22 26 12 32 0 8
split_gain=50.5996 7.54955 5.97927 4.27967 3.71772 3.49207 3.12758 2.59513 2.17631 1.97829 1.21375 1.13107 0.7504 0.61539 0.475315 0.471269 0.369669 1.29726 2.09221 0.368945 0.115313 0.00253826 0.00117607 0.000423094 8.9308e-05 6.17154e-05 3.6968e-05 1.70904e-05 9.92446e-06 1.16134e-06
threshold=60.500000000000007 1.1336108028116909 25.500000000000004 463.8742262642923 2.5000000000000004 296.13025642254803 7778.0000000000009 2424.0000000000005 236.50000000000003 79.500000000000014 0.2585013278308082 86.500000000000014 222.47620306535447 16.500000000000004 3963.5666666666671 0.010989737430941155 13.500000000000002 92.500000000000014 4518.6666666666679 3178.0333333333338 131.50000000000003 2130.0000000000005 1.5344390807228543 0.94551210624906235 -0.13511942928549558 13.586133542269915 326.50000000000006 1.5117859717305995 9.5000000000000018 0.70710678118656101
decision_type=2 2 2 2 2 2 2 2 2 2 2 2 2 2 2 2 2 2 2 2 2 2 2 2 2 2 2 2 2 2
left_child=2 -2 16 4 6 9 10 -6 11 -4 -3 -9 -10 19 -13 -16 21 -18 -19 -11 -17 22 23 24 -1 26 27 28 29 -26
right_child=1 3 5 -5 7 -7 -8 8 12 13 -12 14 -14 -15 15 20 17 18 -20 -21 -22 -23 -24 -25 25 -27 -28 -29 -30 -31
leaf_value=-0.014800211592860844 -0.013812846419486133 0.010599184701876607 -0.010058215579483658 -0.0059381716325879099 0.0097215667069816079 -0.017361463718116282 0.025338638833035595 0.011437559736493443 0.039891813620924949 -0.00050866040401160724 -0.0028617848719780644 0.016411690216600185 0.027926514827107132 0.014940258434840613 0.030832655209562056 0.01966416978587707 -0.019795378425139159 -0.01652646716684103 0.006343865292146803 0.0083828928942758854 0.024804771095514298 -0.015291643559932708 -0.015097630706926188 -0.014924747288227081 -0.014672305792161864 -0.014772562617840974 -0.014748861789703369 -0.014715881710467133 -0.014638489755717191 -0.01468444267908732
leaf_weight=23 22 34 20 20 38 25 23 28 20 20 33 21 38 21 23 24 24 20 20 28 20 25 24 25 73 23 20 23 22 27
leaf_count=23 22 34 20 20 38 25 23 28 20 20 33 21 38 21 23 24 24 20 20 28 20 25 24 25 73 23 20 23 22 27
internal_value=0 0.290501 -0.215837 0.329224 0.358892 -0.0170013 0.188605 0.431184 0.482888 0.0757593 0.0793831 0.403808 0.64105 0.156027 0.459507 0.500653 -0.280786 -0.212107 -0.101826 0.0935616 0.440016 -0.296209 -0.295283 -0.294605 -0.294144 -0.293917 -0.293703 -0.293527 -0.293378 -0.293512
internal_weight=0 344 463 322 302 114 90 212 174 89 67 116 58 69 88 67 349 64 40 48 44 285 260 236 211 188 165 145 122 100
internal_count=807 344 463 322 302 114 90 212 174 89 67 116 58 69 88 67 349 64 40 48 44 285 260 236 211 188 165 145 122 100
shrinkage=0.05


Tree=27
num_leaves=31
num_cat=0
split_feature=0 24 25 12 0 12 35 30 33 35 0 1 0 12 19 13 31 0 0 35 15 25 9 22 27 30 16 4 27 23
split_gain=45.7402 8.15673 4.55157 4.31996 3.20208 3.6027 3.03991 2.11615 1.62833 1.27947 0.895635 1.05223 0.873138 0.610514 0.470598 0.355004 0.274518 0.221165 0.217261 1.13397 0.00230356 0.00103532 0.000349195 6.40513e-05 4.11114e-05 4.35144e-05 2.71055e-05 1.92118e-05 1.48778e-05 7.39621e-06
threshold=44.500000000000007 3.5199396176019397 1.7343241330502479 44.500000000000007 23.500000000000004 79.500000000000014 3864.8666666666672 214.34280386805679 28.304258510797371 4046.5000000000005 77.500000000000014 4.5000000000000009 363.00000000000006 121.50000000000001 278.301080865134 68.367572153379413 13731.780428100728 182.50000000000003 13.500000000000002 4518.6666666666679 2190.0000000000005 1.5603117494045071 0.94551210624906235 -0.13511942928549558 -0.15073113140693808 195.09712295377651 1.4806243124312435 4.5000000000000009 -0.12472462255856503 0.017824336309581933
decision_type=2 2 2 2 2 2 2 2 2 2 2 2 2 2 2 2 2 2 2 2 2 2 2 2 2 2 2 2 2 2
left_child=4 2 3 -2 18 -6 10 8 -8 -7 -5 14 13 17 15 -12 -15 -10 20 -20 21 22 23 -1 26 27 -25 29 -29 -26
right_child=1 -3 -4 6 5 9 7 -9 12 -11 11 -13 -14 16 -16 -17 -18 -19 19 -21 -22 -23 -24 24 25 -27 -28 28 -30 -31
leaf_value=-0.014060200880403105 -0.004354837362188846 -0.014004507660865785 0.037672472782433034 -0.0011496967915445566 -0.021224143221625129 -0.0045339056818435594 0.011063177590923651 0.0041937165208351381 0.01366586981312139 0.009537803185771087 0.015116115291381167 0.019791836813902078 0.032807641625404359 0.020997325167991222 0.0014093571765856311 0.0064481784468861649 0.027282793388554927 0.02069205187615894 -0.017760581771532693 -0.0031307098384086903 -0.014573924953029269 -0.014375671073794366 -0.014178510069847106 -0.013980456548077719 -0.013908597018037525 -0.014005088257162193 -0.014056668952107429 -0.013944072298931354 -0.013998724222183229 -0.013945594023574481
leaf_weight=23 32 27 20 20 20 30 35 22 24 35 21 23 20 32 22 27 38 21 27 26 21 20 25 28 35 38 20 33 20 22
leaf_count=23 32 27 20 20 20 30 35 22 24 35 21 23 20 32 22 27 38 21 27 26 21 20 25 28 35 38 20 33 20 22
internal_value=0 0.249872 0.289953 0.262446 -0.226834 -0.0533357 0.299119 0.375708 0.413475 0.0608634 0.168985 0.21027 0.463308 0.429769 0.149299 0.204808 0.488189 0.338895 -0.270465 -0.211673 -0.281398 -0.280596 -0.280029 -0.279625 -0.27944 -0.279179 -0.280244 -0.278861 -0.279294 -0.278458
internal_weight=0 384 357 337 423 85 305 192 170 65 113 93 135 115 70 48 70 45 338 53 285 264 244 219 196 148 48 110 53 57
internal_count=807 384 357 337 423 85 305 192 170 65 113 93 135 115 70 48 70 45 338 53 285 264 244 219 196 148 48 110 53 57
shrinkage=0.05


Tree=28
num_leaves=31
num_cat=0
split_feature=0 24 0 25 18 19 25 35 12 1 0 12 1 0 17 12 25 31 0 15 9 0 25 12 26 22 34 14 0 3
split_gain=41.4585 6.59621 4.78449 4.48262 4.01028 3.04733 2.73023 2.49365 1.59956 1.55556 1.25672 1.1386 1.00945 0.736304 0.588564 0.481241 0.393306 0.332717 0.302203 0.110865 0.0264868 0.109499 0.000926863 9.4409e-05 6.42449e-05 3.84248e-05 1.83686e-05 7.18323e-06 6.1592e-06 3.85674e-06
threshold=60.500000000000007 2.7892538973301959 25.500000000000004 1.4302347009964593 252.73642344497611 296.13025642254803 1.7099415338935062 3864.8666666666672 79.500000000000014 1.5000000000000002 345.50000000000006 119.50000000000001 3.5000000000000004 102.50000000000001 28.085847599509531 145.50000000000003 1.4677932505753308 13762.583377309393 20.500000000000004 2130.0000000000005 0.95595377437099149 14.500000000000002 1.5344390807228543 378.00000000000006 13.607604468856641 -0.13356815715799189 273.68421126577732 74.193380306800208 6.5000000000000009 9.5000000000000018
decision_type=2 2 2 2 2 2 2 2 2 2 2 2 2 2 2 2 2 2 2 2 2 2 2 2 2 2 2 2 2 2
left_child=2 6 18 4 -3 8 7 13 -4 -9 11 16 -5 -2 -10 -15 -11 -13 19 20 21 22 23 24 25 -1 27 28 -27 -29
right_child=1 3 5 12 -6 -7 -8 9 14 10 -12 17 -14 15 -16 -17 -18 -19 -20 -21 -22 -23 -24 -25 -26 26 -28 29 -30 -31
leaf_value=-0.013319637803804308 0.0013027338895683542 -0.021607709248308783 -0.0089931448781862856 0.0051263038797870926 0.0079322273842990405 -0.016299522429704668 0.035140637671574951 0.0068128801323473461 0.0018009359249845148 0.018053988468917936 0.032118981455763182 0.020621199634942144 0.019640725739300254 0.0077014745533233514 0.011116267832664726 0.016765485771099552 0.0085994748208163812 0.028184130501288637 -0.008120510216350808 -0.010202700413506606 -0.012013933704844838 -0.017161023840308192 -0.01361074862272843 -0.013380254432559014 -0.013348797318481265 -0.013239284509267563 -0.013288699155268464 -0.013262841871806553 -0.013205697919641221 -0.013239369264670781
leaf_weight=21 23 27 20 23 20 25 20 20 30 22 24 33 25 32 39 27 22 26 33 29 29 20 23 20 21 39 23 35 21 35
leaf_count=21 23 27 20 23 20 25 20 20 30 22 24 33 25 32 39 27 22 26 33 29 29 20 23 20 21 39 23 35 21 35
internal_value=0 0.262955 -0.19537 0.0387704 -0.18075 -0.0175067 0.348487 0.317542 0.069146 0.39548 0.436302 0.388284 0.253718 0.177824 0.141322 0.236988 0.266535 0.47908 -0.253469 -0.262979 -0.268933 -0.272153 -0.266181 -0.265536 -0.265324 -0.265124 -0.26495 -0.264804 -0.264551 -0.265022
internal_weight=0 344 463 95 47 114 249 229 89 147 127 103 48 82 69 59 44 59 349 316 287 258 238 215 195 174 153 130 60 70
internal_count=807 344 463 95 47 114 249 229 89 147 127 103 48 82 69 59 44 59 349 316 287 258 238 215 195 174 153 130 60 70
shrinkage=0.05


Tree=29
num_leaves=31
num_cat=0
split_feature=0 24 0 25 18 19 25 35 35 1 0 12 1 24 12 1 23 25 31 0 12 15 25 9 12 32 28 22 4 2
split_gain=37.4163 5.95308 4.318 4.06199 3.7905 2.75021 2.46403 2.25052 1.54481 1.4039 1.13419 1.02759 0.943959 0.741107 0.735301 0.708036 0.463901 0.354959 0.300277 0.287658 1.13311 0.00359326 0.000861937 0.000564047 6.37596e-05 4.77548e-05 2.56455e-05 2.10426e-05 1.99506e-05 1.50403e-05
threshold=60.500000000000007 2.7892538973301959 25.500000000000004 1.4232082686212004 252.73642344497611 296.13025642254803 1.7099415338935062 3864.8666666666672 2886.0833333333339 1.5000000000000002 345.50000000000006 119.50000000000001 3.5000000000000004 2.5555679345970881 131.50000000000003 2.5000000000000004 0.011144474229977519 1.4677932505753308 13762.583377309393 13.500000000000002 119.50000000000001 2130.0000000000005 1.5603117494045071 0.94551210624906235 369.50000000000006 1.4942913855742976 0.018176563044719436 -0.1247206031452794 4.5000000000000009 13.500000000000002
decision_type=2 2 2 2 2 2 2 2 2 2 2 2 2 2 2 2 2 2 2 2 2 2 2 2 2 2 2 2 2 2
left_child=2 6 19 4 -3 8 7 15 -4 -9 11 17 -5 -10 -15 -2 -17 -11 -13 21 -21 22 23 24 25 27 -27 -1 -29 -30
right_child=1 3 5 12 -6 -7 -8 9 13 10 -12 18 -14 14 -16 16 -18 -19 -20 20 -22 -23 -24 -25 -26 26 -28 28 29 -31
leaf_value=-0.012630708460454589 0.0018154659843141283 -0.021417518246632357 -0.0082113441841846161 0.0047761441092006862 0.0075356159918010231 -0.015484546512365341 0.033383606062270699 0.0064722361601889135 0.014580037478696219 0.017151289263909516 0.030513032370557386 0.019590139479348154 0.018658689379692079 -0.0025963147287257019 0.010214997291387548 0.016732215289026499 0.0075100435627003517 0.0081695011033761228 0.026774923847271849 -0.016093214470893145 -0.0027612109120716071 -0.013292574405670166 -0.012980342507362366 -0.012863485395908356 -0.012697581350803375 -0.01260895274579525 -0.012686368725869968 -0.01256403815055239 -0.012583362793221193 -0.012636419656601819
leaf_weight=27 27 26 22 24 20 25 20 20 22 22 24 33 25 24 21 25 30 22 26 30 34 25 20 25 20 20 23 69 34 22
leaf_count=27 27 26 22 24 20 25 20 20 22 22 24 33 25 24 21 25 30 22 26 30 34 25 20 25 20 20 23 69 34 22
internal_value=0 0.249807 -0.185602 0.0368319 -0.176584 -0.0166314 0.331063 0.301665 0.0656887 0.375706 0.414487 0.36887 0.237182 0.141183 0.067646 0.168933 0.234039 0.253208 0.455126 -0.240796 -0.180212 -0.254401 -0.2533 -0.252774 -0.252251 -0.252077 -0.253007 -0.251814 -0.251641 -0.252084
internal_weight=0 344 463 95 46 114 249 229 89 147 127 103 49 67 45 82 55 44 59 349 64 285 260 240 215 195 43 152 125 56
internal_count=807 344 463 95 46 114 249 229 89 147 127 103 49 67 45 82 55 44 59 349 64 285 260 240 215 195 43 152 125 56
shrinkage=0.05


Tree=30
num_leaves=31
num_cat=0
split_feature=0 24 19 25 35 0 12 30 0 12 35 12 34 25 12 29 0 25 18 1 19 0 0 26 15 9 9 1 15 13
split_gain=33.8303 5.86814 4.96675 3.15311 2.71693 2.22238 2.37863 1.95117 1.34726 1.26364 1.18744 1.13344 1.16348 0.770341 0.454471 0.452435 0.311241 0.205205 0.178835 0.143916 0.111379 0.438983 0.324735 0.00210506 0.00119806 0.000238639 0.000100689 8.99241e-05 8.78949e-05 3.33867e-05
threshold=42.500000000000007 3.5199396176019397 466.75072914271652 1.7343241330502479 3770.3750000000005 23.500000000000004 92.500000000000014 214.34280386805679 345.50000000000006 73.000000000000014 4046.5000000000005 131.50000000000003 273.68421126577732 1.4754400286315181 179.50000000000003 0.24889906499796019 97.500000000000014 1.5299594350597419 239.28717206790125 3.5000000000000004 281.59071923789458 16.500000000000004 12.500000000000002 12.97954570072039 1950.0000000000002 0.84198518668063171 0.83500092477144194 4.5000000000000009 1386.0000000000002 87.592739059668062
decision_type=2 2 2 2 2 2 2 2 2 2 2 2 2 2 2 2 2 2 2 2 2 2 2 2 2 2 2 2 2 2
left_child=5 2 3 4 11 17 -7 8 9 -6 -8 12 15 -13 16 -2 -11 20 -16 -18 21 23 24 -1 26 27 29 28 -25 -22
right_child=1 -3 -4 -5 7 6 10 -9 -10 14 -12 13 -14 -15 18 -17 19 -19 -20 -21 22 -23 -24 25 -26 -27 -28 -29 -30 -31
leaf_value=-0.012510225234123377 0.0026430019323015587 -0.011788402111442001 -0.011830690614879132 0.03306892091408372 0.0075128740726915352 -0.016566085307435554 -0.0047164389703037409 0.0020867733327163893 0.027939145426665035 0.01102936311179529 0.0092526362917851653 0.0062531996257603169 -0.0073648836707607621 0.01879425150497506 0.019429647280224439 0.012489339113235473 0.015537951821866243 -0.007977854779788426 0.02540786076675762 0.021337303929030896 -0.011954192333576974 -0.0041976434644311672 -0.018957737088203433 -0.011972000419485327 -0.012424925900995733 -0.012161758982322433 -0.012094983898780564 -0.011899784150031898 -0.012094262880938393 -0.012029276713728906
leaf_weight=26 28 27 20 20 34 22 29 22 28 23 32 25 21 24 29 20 23 35 22 20 57 20 20 49 20 22 22 26 21 20
leaf_count=26 28 27 20 20 34 22 29 22 28 23 32 25 21 24 29 20 23 35 22 20 57 20 20 49 20 22 22 26 21 20
internal_value=0 0.213827 0.247641 0.276211 0.252062 -0.196051 -0.0494328 0.322773 0.357314 0.319956 0.052232 0.131614 0.0490227 0.247915 0.36927 0.134913 0.314483 -0.232055 0.44017 0.364706 -0.240429 -0.222778 -0.261254 -0.242059 -0.241439 -0.240265 -0.240013 -0.239584 -0.240174 -0.239474
internal_weight=0 386 359 339 319 421 83 201 179 151 61 118 69 49 117 48 66 338 51 43 303 164 139 144 119 118 99 96 70 77
internal_count=807 386 359 339 319 421 83 201 179 151 61 118 69 49 117 48 66 338 51 43 303 164 139 144 119 118 99 96 70 77
shrinkage=0.05


Tree=31
num_leaves=31
num_cat=0
split_feature=0 24 0 25 18 25 25 35 17 1 12 0 12 1 2 0 13 29 31 0 16 15 25 9 26 22 12 0 33 15
split_gain=30.6795 4.98002 3.45586 3.39339 3.22958 2.58121 2.0299 1.84852 1.68556 1.20423 1.18009 0.928176 0.857241 0.82489 0.731276 0.632163 0.449639 0.374952 0.233791 0.197441 1.11302 0.00305845 0.0021997 0.000487582 6.46661e-05 7.36674e-05 2.97825e-05 2.68942e-05 7.48736e-06 1.67171e-06
threshold=60.500000000000007 2.7892538973301959 24.500000000000004 1.4232082686212004 252.73642344497611 1.4393503222026951 1.7099415338935062 3864.8666666666672 26.213356102003647 1.5000000000000002 88.000000000000014 345.50000000000006 118.50000000000001 3.5000000000000004 16.500000000000004 102.50000000000001 62.404686161054585 0.24686435945251578 13762.583377309393 13.500000000000002 1.4915248150542271 2130.0000000000005 1.5344390807228543 0.94551210624906235 13.607604468856641 -0.13511942928549558 326.50000000000006 9.5000000000000018 28.55640895889282 442.00000000000006
decision_type=2 2 2 2 2 2 2 2 2 2 2 2 2 2 2 2 2 2 2 2 2 2 2 2 2 2 2 2 2 2
left_child=2 6 19 4 -3 8 7 15 -4 -9 -7 12 17 -5 -12 -2 -17 -11 -14 21 -21 22 23 24 25 -1 27 28 -27 -30
right_child=1 3 5 13 -6 10 -8 9 -10 11 14 -13 18 -15 -16 16 -18 -19 -20 20 -22 -23 -24 -25 -26 26 -28 -29 29 -31
leaf_value=-0.011456666177227385 0.00064585570084012072 -0.019802277105358933 -0.00089087464846670627 0.0041053193650441248 0.0069228786788880824 -0.0063131910469383006 0.030302106037270279 0.0056431957706809047 -0.021172828995068338 0.0066125669239443692 0.0032914675642839739 0.027698141708970073 0.017818055482524815 0.017082803957164289 0.014705038953410543 0.016513543934561312 0.0072924819303294411 0.015953092920509251 0.024091704272561604 -0.0032741418451462927 -0.017846493683755401 -0.012027674227952957 -0.011904717112580936 -0.011611075162887573 -0.011460807032528379 -0.011381626874208451 -0.011411627111109822 -0.011302005738019944 -0.011340783505390089 -0.011356075342212404
leaf_weight=21 23 26 20 24 20 20 20 20 21 21 36 24 33 25 23 20 39 22 27 38 20 25 24 25 21 28 22 25 24 70
leaf_count=21 23 26 20 24 20 20 20 20 21 21 36 24 33 25 23 20 39 22 27 38 20 25 24 25 21 28 22 25 24 70
internal_value=0 0.226203 -0.168065 0.0314097 -0.163653 -0.0220003 0.300522 0.273839 -0.225584 0.340942 0.0836569 0.37686 0.335593 0.21453 0.154817 0.153544 0.208365 0.227829 0.412824 -0.219166 -0.165982 -0.229989 -0.228973 -0.228046 -0.227551 -0.227367 -0.227147 -0.226985 -0.227179 -0.227043
internal_weight=0 344 463 95 46 120 249 229 41 147 79 127 103 49 59 82 59 43 60 343 58 285 260 236 211 190 169 147 122 94
internal_count=807 344 463 95 46 120 249 229 41 147 79 127 103 49 59 82 59 43 60 343 58 285 260 236 211 190 169 147 122 94
shrinkage=0.05


Tree=32
num_leaves=31
num_cat=0
split_feature=0 24 0 25 18 19 1 35 35 35 19 17 0 1 24 17 33 18 0 12 35 25 15 9 25 22 26 0 27 19
split_gain=27.6882 4.49447 3.12434 3.06253 2.9147 2.19945 1.84818 2.45872 1.36948 1.1926 1.33418 1.11505 0.757077 0.744464 0.6121 0.639793 0.559795 0.290113 0.219311 0.986683 1.61068 0.00276608 0.00197407 0.00040643 0.000119939 6.12616e-05 4.66679e-05 2.14139e-05 8.57356e-06 2.42041e-06
threshold=60.500000000000007 2.7892538973301959 25.500000000000004 1.4232082686212004 252.73642344497611 296.13025642254803 2.5000000000000004 7778.0000000000009 2886.0833333333339 2489.5166666666669 174.09277186113158 28.551782072673344 151.50000000000003 3.5000000000000004 2.531730606366883 28.722740080059076 30.332402117801752 235.3397347085386 13.500000000000002 92.500000000000014 4518.6666666666679 1.5723692154703983 2130.0000000000005 0.94551210624906235 1.516443588457119 -0.13511942928549558 13.57876539693404 9.5000000000000018 -0.15385371195100503 299.84553988429712
decision_type=2 2 2 2 2 2 2 2 2 2 2 2 2 2 2 2 2 2 2 2 2 2 2 2 2 2 2 2 2 2
left_child=2 6 18 4 -3 8 7 11 -4 -8 -11 -2 17 -5 -10 -16 -14 -12 21 -20 -21 22 23 24 25 -1 27 28 -27 -30
right_child=1 3 5 13 -6 -7 9 -9 14 10 12 -13 16 -15 15 -17 -18 -19 19 20 -22 -23 -24 -25 -26 26 -28 -29 29 -31
leaf_value=-0.01088212096820707 -0.0035249081553157535 -0.018812163861898278 -0.0079394535203887659 0.0039000534695029878 0.006576734893023968 -0.013900415005162359 0.0084484893115586608 0.022426915239720121 0.013764574341475964 0.028114541433751583 0.0067741773696616304 0.010816444132639014 0.023732194794636025 0.01622866370342672 -0.0028978318964205264 0.0087933186218142525 0.01459555703486937 0.015290530584752561 -0.015700364136137068 -0.01291000358760357 0.0071566607058048256 -0.011491488069295883 -0.011324350924595543 -0.011030521392822266 -0.010931187477849779 -0.010820542772610983 -0.010859969723969699 -0.010744549058101795 -0.010781979977208027 -0.01079902949432532
leaf_weight=23 33 26 22 24 20 25 32 21 20 32 20 23 38 25 22 25 30 20 24 20 20 20 23 25 21 24 24 27 68 30
leaf_count=23 33 26 22 24 20 25 32 21 20 32 20 23 38 25 22 25 30 20 24 20 20 20 23 25 21 24 24 27 68 30
internal_value=0 0.214893 -0.159661 0.0298392 -0.15547 -0.0159309 0.285496 0.156733 0.0576863 0.34314 0.38295 0.0473058 0.329812 0.203803 0.128768 0.0664173 0.394027 0.220647 -0.20661 -0.153711 -0.0575334 -0.21849 -0.217634 -0.216792 -0.216352 -0.216109 -0.215905 -0.215697 -0.215875 -0.215744
internal_weight=0 344 463 95 46 114 249 77 89 172 140 56 108 49 67 47 68 40 349 64 40 285 265 242 217 196 173 149 122 98
internal_count=807 344 463 95 46 114 249 77 89 172 140 56 108 49 67 47 68 40 349 64 40 285 265 242 217 196 173 149 122 98
shrinkage=0.05


Tree=33
num_leaves=31
num_cat=0
split_feature=0 24 25 16 0 1 33 0 12 13 35 12 19 21 24 0 35 25 19 0 0 12 34 15 15 16 9 5 24 24
split_gain=25.013 4.38017 3.615 3.1228 2.44116 2.01404 1.65195 1.58921 1.94309 0.971313 0.96997 0.783364 0.726824 0.640991 0.637292 0.374407 0.301485 0.172969 0.0930531 0.354441 0.290836 0.0812397 0.0026064 0.000876468 0.00018877 9.43159e-05 7.33101e-05 2.9181e-05 2.47893e-05 6.7319e-06
threshold=42.500000000000007 2.7892538973301959 1.4232082686212004 1.4917621960623042 140.50000000000003 2.5000000000000004 31.077051109930753 23.500000000000004 92.500000000000014 76.592242487620538 4046.5000000000005 155.50000000000003 174.09277186113158 13.406938858250477 2.1706849279189151 430.00000000000006 4518.6666666666679 1.5299594350597419 281.59071923789458 16.500000000000004 12.500000000000002 163.50000000000003 219.85742947971445 1950.0000000000002 1422.0000000000002 1.4878096073644596 0.83500092477144194 4.5000000000000009 2.6180681758552704 2.6857912257323626
decision_type=2 2 2 2 2 2 2 2 2 2 2 2 2 2 2 2 2 2 2 2 2 2 2 2 2 2 2 2 2 2
left_child=7 4 3 -3 5 -2 9 17 -9 14 -10 -4 -7 -14 -6 16 -16 18 19 22 23 -18 -1 26 25 28 27 29 -24 -20
right_child=1 2 11 -5 6 12 -8 8 10 -11 -12 -13 13 -15 15 -17 21 -19 20 -21 -22 -23 24 -25 -26 -27 -28 -29 -30 -31
leaf_value=-0.010848353745845649 -0.0040140746814769602 -0.024201702922582627 0.004264341821129035 0.00069743998020010836 0.02815407489736875 0.018953559086436318 0.0068974438912442169 -0.014968485808507962 -0.0042583517055830048 0.0094424764117734001 0.0083669012667087379 0.016574646233736227 0.0032485711970366539 0.013336695998065896 0.012289145775139333 0.024863288365304471 0.017372654697724751 -0.0066231708867209305 -0.010219657383859158 -0.0032917590532451873 -0.016866204217076304 0.021825333088636399 -0.010322306713750286 -0.010651629865169526 -0.010399003885686398 -0.010177210460488613 -0.010369231382554229 -0.010305338044618738 -0.010257993792665416 -0.010257638299039432
leaf_weight=26 31 20 28 34 24 21 36 22 29 22 32 24 32 31 22 20 21 35 20 20 20 20 31 20 32 26 22 29 29 28
leaf_count=26 31 20 28 34 24 21 36 22 29 22 32 24 32 31 22 20 21 35 20 20 20 20 31 20 32 26 22 29 29 28
internal_value=0 0.183863 0.0107306 -0.170489 0.249406 0.137562 0.327358 -0.168577 -0.0445923 0.380216 0.0472946 0.19892 0.217956 0.164251 0.419562 0.378063 0.34022 -0.199023 -0.206712 -0.190578 -0.225747 0.390894 -0.207904 -0.206995 -0.205907 -0.205135 -0.205775 -0.205315 -0.205824 -0.204836
internal_weight=0 386 106 54 280 115 165 421 83 129 61 52 84 63 107 83 63 338 303 164 139 41 144 119 118 86 99 77 60 48
internal_count=807 386 106 54 280 115 165 421 83 129 61 52 84 63 107 83 63 338 303 164 139 41 144 119 118 86 99 77 60 48
shrinkage=0.05


Tree=34
num_leaves=31
num_cat=0
split_feature=0 24 0 25 18 12 25 25 35 1 0 12 1 2 13 20 31 16 0 12 0 1 25 15 9 17 18 26 22 8
split_gain=22.6259 3.67639 2.52494 2.49218 2.52301 2.133 1.75527 1.65204 1.45429 0.974555 0.717519 0.71633 0.667413 0.53236 0.525964 0.789965 0.211462 0.153948 0.638946 0.758988 0.182989 0.118145 0.00435619 0.00162916 0.000322898 8.84991e-05 4.33612e-05 2.72093e-05 2.34767e-05 8.38918e-06
threshold=60.500000000000007 2.7892538973301959 24.500000000000004 1.4232082686212004 252.73642344497611 79.500000000000014 1.434608986223237 1.7099415338935062 3864.8666666666672 1.5000000000000002 345.50000000000006 73.000000000000014 3.5000000000000004 16.500000000000004 62.404686161054585 0.25751590456950507 13764.89342878261 1.4961770833333337 13.500000000000002 119.50000000000001 10.500000000000002 3.5000000000000004 1.5344390807228543 2130.0000000000005 0.94551210624906235 26.379243970315404 53.865296391752587 13.543867104616824 -0.12831930459758178 -0.70710678118656067
decision_type=2 2 2 2 2 2 2 2 2 2 2 2 2 2 2 2 2 2 2 2 2 2 2 2 2 2 2 2 2 2
left_child=2 7 17 4 -3 -4 -7 8 14 -10 11 -11 -5 -8 -2 -16 21 18 22 -20 25 -13 23 24 26 -19 -1 28 -28 -30
right_child=1 3 5 12 -6 6 13 -9 9 10 -12 16 -14 -15 15 -17 -18 20 19 -21 -22 -23 -24 -25 -26 -27 27 -29 29 -31
leaf_value=-0.0096770444512367243 0.012592241334884118 -0.017283948224324448 -0.012782471360446052 0.0032353688341875877 0.0063375218026340014 -0.0079020519577035746 0.00364854046358512 0.026686706449836495 0.0044190673623234035 0.006702823264767295 0.02407926105273267 0.012454304671673863 0.014908566210418939 0.01299528534989804 0.010736515978351235 -0.0011114240742993871 0.019947088629968704 -0.0099001508383523857 -0.010223569758236409 0.0032345963388004089 -0.015229713205586783 0.017390388792211359 -0.010544077663317971 -0.010234720721131281 -0.0099589585140347492 -0.0097688493629296616 -0.0097942458022208453 -0.009806798059831966 -0.009764002511898677 -0.0097283501903732104
leaf_weight=20 24 26 29 24 20 27 39 20 20 23 24 27 25 25 24 34 31 21 20 22 22 22 23 21 20 33 21 22 21 77
leaf_count=20 24 26 29 24 20 27 39 20 20 23 24 27 25 25 24 34 31 21 20 22 22 22 23 21 20 33 21 22 21 77
internal_value=0 0.194258 -0.14433 0.0268907 -0.140275 -0.0194786 0.0557846 0.258112 0.234041 0.29356 0.325871 0.289588 0.183822 0.145992 0.127342 0.0758234 0.334304 -0.188009 -0.176706 -0.0634811 -0.227718 0.29341 -0.197842 -0.196357 -0.19539 -0.196398 -0.194919 -0.195114 -0.194925 -0.19472
internal_weight=0 344 463 95 46 120 91 249 229 147 127 103 49 64 82 58 80 343 267 42 76 49 225 202 181 54 161 141 119 98
internal_count=807 344 463 95 46 120 91 249 229 147 127 103 49 64 82 58 80 343 267 42 76 49 225 202 181 54 161 141 119 98
shrinkage=0.05


Tree=35
num_leaves=31
num_cat=0
split_feature=0 12 24 33 25 0 26 12 0 12 35 16 35 29 1 35 27 35 24 15 15 0 25 9 12 32 0 28 21 18
split_gain=20.4403 3.96696 3.43295 2.41229 2.60928 1.77917 1.69701 1.29381 1.2858 1.84114 1.81824 0.982395 0.759533 0.552458 0.542667 0.496885 0.321315 0.286378 0.240651 0.145313 0.088479 0.0229812 0.00321016 0.000299411 6.54499e-05 5.67796e-05 6.82576e-05 1.95918e-05 1.34882e-05 4.41472e-06
threshold=42.500000000000007 37.500000000000007 3.6252443990408501 31.077051109930753 1.5723692154703983 231.50000000000003 13.291409368373712 149.50000000000003 20.500000000000004 92.500000000000014 4046.5000000000005 1.4332069580731492 2348.1750000000006 0.258877827555625 4.5000000000000009 6161.0000000000009 -0.11767984449594014 4133.166666666667 2.7053346429865521 964.00000000000011 2130.0000000000005 13.500000000000002 1.5299594350597419 0.94551210624906235 369.50000000000006 1.4942913855742976 9.5000000000000018 0.018176563044719436 13.680663222522584 240.88236469072169
decision_type=2 2 2 2 2 2 2 2 2 2 2 2 2 2 2 2 2 2 2 2 2 2 2 2 2 2 2 2 2 2
left_child=8 -2 3 4 5 11 7 -5 20 -10 -11 -3 -13 16 15 -7 17 -14 -19 -12 21 22 23 24 25 26 28 -27 29 -1
right_child=1 2 -4 6 -6 14 -8 -9 9 10 19 12 13 -15 -16 -17 -18 18 -20 -21 -22 -23 -24 -25 -26 27 -28 -29 -30 -31
leaf_value=-0.0092459496775908132 -0.013373137954622508 -0.0009727130360577418 -0.010645920857787133 0.00058339680545032029 0.029815933924345745 0.011227529708412476 -0.0072448446333442844 0.016682351706549525 -0.013544244319200517 -0.0068880986847539641 0.011614473608788103 0.0025414068734756225 0.0069667372808215168 0.005010133314256867 0.024901115000247956 0.020744774102543793 0.018795533918521623 0.016849588739375275 0.01020735563337803 0.0055871840578038253 -0.0065803492891377425 -0.010866735599659108 -0.0098502461281087667 -0.0094378176033496856 -0.0093406705930829045 -0.0092609463259577755 -0.0091573461030538261 -0.0093293226916681647 -0.0092764010717128892 -0.0092233129271439146
leaf_weight=56 20 23 20 26 21 32 27 24 29 36 20 27 21 24 20 24 22 30 25 20 29 27 27 25 20 20 26 22 29 35
leaf_count=56 20 23 20 26 21 32 27 24 29 36 20 27 21 24 20 24 22 30 25 20 29 27 27 25 20 20 26 22 29 35
internal_value=0 0.166209 0.189907 0.213191 0.257864 0.229205 0.0571257 0.166218 -0.152391 -0.0565184 0.0252794 0.172903 0.202595 0.236183 0.356626 0.306127 0.269485 0.238677 0.276608 0.172017 -0.184247 -0.189566 -0.186683 -0.185487 -0.185094 -0.184911 -0.184616 -0.185935 -0.184934 -0.184745
internal_weight=0 386 366 346 269 248 77 50 421 105 76 172 149 122 76 56 98 76 55 40 316 287 260 233 208 188 146 42 120 91
internal_count=807 386 366 346 269 248 77 50 421 105 76 172 149 122 76 56 98 76 55 40 316 287 260 233 208 188 146 42 120 91
shrinkage=0.05


Tree=36
num_leaves=30
num_cat=0
split_feature=0 24 25 0 23 19 1 35 35 17 35 19 12 0 1 33 35 0 11 0 24 15 9 0 25 25 22 33 32
split_gain=18.502 3.07369 2.14598 2.05878 2.05625 1.81858 1.41455 1.8491 1.14301 0.873074 0.856692 1.02828 0.614417 0.557073 0.510157 0.416378 0.172726 0.388354 0.154536 0.116579 0.00627341 0.00252505 0.0019797 0.00208186 0.000154194 9.19474e-05 2.693e-05 9.7624e-06 9.48659e-06
threshold=60.500000000000007 2.7892538973301959 1.442620363592406 25.500000000000004 0.011644414162051397 296.13025642254803 2.5000000000000004 7778.0000000000009 2886.0833333333339 28.631032448377585 2489.5166666666669 174.09277186113158 135.50000000000003 148.50000000000003 3.5000000000000004 30.297323131069607 6101.0000000000009 9.5000000000000018 -0.98102901288387323 16.500000000000004 1.9358155282762 2130.0000000000005 0.94551210624906235 10.500000000000002 1.4927514022128914 1.50370339227808 -0.12057698257023387 30.701025108682675 1.4518380540632121
decision_type=2 2 2 2 2 2 2 2 2 2 2 2 2 2 2 2 2 2 2 2 2 2 2 2 2 2 2 2 2
left_child=3 6 4 16 -3 8 7 9 -5 -2 -8 -12 -4 -13 -10 -15 18 24 -1 20 -20 22 23 25 -18 26 -22 28 -28
right_child=1 2 12 5 -6 -7 10 -9 14 -11 11 13 -14 15 -16 -17 17 -19 19 -21 21 -23 -24 -25 -26 -27 27 -29 -30
leaf_value=-0.0048093581944704056 -0.0036967115627382606 0.0051972876895557754 0.0031089492223185045 -0.0072334149450233032 -0.015395364448152208 -0.012607463809195908 0.0068431919295107949 0.018722956627607347 0.0022050613091172031 0.0090864644724537019 0.023783348454162481 0.0088021271981489971 0.014666147801377203 0.019890466317333082 0.01105107886749985 0.012101804658595939 -0.0088116959188923698 -0.0015107746546467148 -0.0097982419654726993 -0.012145472024426316 -0.0088505606601635613 -0.0094009967520833019 -0.0092764633148908621 -0.0083299621939659126 -0.0089876377582550054 -0.0089265589416027066 -0.0087882959150842252 -0.0087718610876593092 -0.0088311351835727702
leaf_weight=20 34 22 23 22 27 25 32 21 39 22 32 39 23 37 28 32 33 27 20 33 30 20 20 25 20 20 28 29 24
leaf_count=20 34 22 23 22 27 25 32 21 39 22 32 39 23 37 28 32 33 27 20 33 30 20 20 25 20 20 28 29 24
internal_value=0 0.175664 0.02263 -0.130515 -0.122994 -0.0138411 0.234051 0.121402 0.0530994 0.026505 0.284481 0.318222 0.177751 0.271572 0.118038 0.325567 -0.168626 -0.127832 -0.180759 -0.187551 -0.179094 -0.177372 -0.176162 -0.174962 -0.177562 -0.176557 -0.176202 -0.175902 -0.176161
internal_weight=0 344 95 463 49 114 249 77 89 56 172 140 46 108 67 69 349 80 269 249 216 196 176 156 53 131 111 81 52
internal_count=807 344 95 463 49 114 249 77 89 56 172 140 46 108 67 69 349 80 269 249 216 196 176 156 53 131 111 81 52
shrinkage=0.05


Tree=37
num_leaves=30
num_cat=0
split_feature=0 12 24 25 17 33 25 26 0 0 12 35 1 35 35 10 29 15 15 9 0 25 11 25 35 12 13 28 1
split_gain=16.7021 3.52807 2.8287 2.92557 2.0471 1.89318 1.76599 1.32057 1.13014 1.05817 1.64002 1.59905 0.772746 0.962747 0.308218 0.184297 0.14062 0.132449 0.0801759 0.0225971 0.115127 0.00239075 0.000118258 6.84706e-05 7.70272e-05 5.04772e-05 3.19767e-05 1.77828e-05 2.32781e-06
